nep4 4 Ni N C H 
cutoff 6 4 88 37
n_max 8 6
basis_size 12 12
l_max 4 2 0
ANN 30 0
  7.1943394e-04
 -2.2019941e-04
 -9.5119420e-04
  1.7320842e-02
  3.1727456e-04
 -1.1136281e-05
 -4.3974811e-05
  2.9114270e-04
 -4.5274952e-04
  2.0276717e-04
 -1.5301206e-04
 -3.1214644e-05
  3.9236817e-05
  5.4777227e-04
  2.5462313e-04
 -8.3378714e-04
 -3.3882514e-04
  2.7581230e-03
  3.2154226e-04
  1.7466533e-04
 -7.8617559e-05
 -2.6411475e-05
 -8.4369312e-05
  4.9317355e-04
 -4.3648749e-04
  3.7372689e-04
 -9.1215137e-05
  8.7383967e-05
 -1.3009747e-04
 -5.1213463e-04
 -1.6422637e-03
  2.5409821e-04
  6.4408663e-04
  2.3462391e-05
  1.9681823e-04
 -1.6447535e-05
 -7.1260525e-04
  8.2391431e-04
 -4.6425161e-04
  2.1041704e-04
 -8.1017625e-04
 -2.5733100e-04
  5.3764765e-05
 -1.4114051e-04
 -1.5935281e-04
  5.4204394e-04
  2.6040580e-05
 -4.4519803e-04
 -6.0262657e-03
 -7.6236582e-04
  5.2542717e-04
 -6.8116224e-01
 -8.1526162e-04
 -3.6692908e-01
  1.2098254e-01
 -1.9764295e-02
 -3.7155196e-03
 -6.6336817e-01
 -2.7187514e-01
  3.3590001e-01
 -2.9021299e-01
 -8.4137166e-04
 -7.5236686e-02
 -4.1948736e-01
  1.5752969e-02
  1.8389272e-02
  2.2220585e-02
 -1.4899427e-01
  7.6128669e-02
 -8.0113478e-02
 -2.8186861e-01
 -1.1425906e-01
  1.0705143e-02
 -4.5224342e-02
 -9.2595145e-02
  1.4813660e-02
 -6.8674870e-02
 -9.6139088e-02
 -5.2650426e-02
  5.7730875e-03
 -2.6909888e-02
  4.0987451e-02
  5.9302801e-01
  2.8920884e-05
 -9.2240937e-02
  8.5755602e-02
  2.6974769e-04
 -1.6890146e-02
 -1.0422977e-03
 -4.6889810e-04
 -8.0501806e-04
 -1.4371303e-04
 -2.0010237e-04
  7.0315541e-04
 -1.0458906e-04
  1.2335815e-03
 -1.0816190e-04
  4.7982096e-05
  3.7935883e-04
  2.0760646e-04
  9.8665070e-04
 -1.7025127e-04
 -1.6544401e-04
  3.5113102e-04
 -1.6183627e-04
 -4.7780288e-04
  3.4357165e-04
 -6.1157288e-04
 -9.1242470e-04
 -9.2904008e-04
 -6.9413094e-05
 -7.8386132e-05
  6.5738731e-04
 -5.1074014e-05
  3.5101264e-05
  1.0254730e-04
  7.3922136e-05
  7.9504598e-04
  7.4121589e-04
 -1.0506590e-04
  1.3067615e-03
 -6.5333641e-04
  2.4622280e-04
 -1.9410520e-04
  1.4592008e-03
  3.7418191e-05
  1.9565370e-04
 -9.7015818e-06
  9.6267184e-05
  1.0920833e-04
 -9.3874184e-04
 -1.6981560e-01
  4.7398891e-04
 -2.0906520e-04
  3.1298175e-04
 -1.8554635e-02
  1.7361216e-01
 -5.7369350e-03
 -3.0002691e-04
  7.8210074e-01
 -5.5182213e-04
  2.9834175e-01
 -2.2748135e-04
  8.9950198e-01
 -7.8096196e-02
  5.7526022e-01
  3.0387560e-04
 -4.4468951e-01
  8.1640421e-05
 -1.1694821e-02
  1.8749075e-01
  3.4998184e-01
 -2.7915376e-01
 -3.6917429e-02
 -3.9210019e-01
  8.8576156e-01
  2.7292099e-02
 -2.1353902e-02
  5.2189028e-01
 -6.1069717e-05
  2.6406533e-01
 -2.9943383e-01
  1.4829084e-01
 -1.9708712e-02
 -9.8038930e-01
  1.2154938e+00
 -4.8573127e-01
  1.8603668e+00
 -9.4826229e-02
 -6.8676498e-05
 -1.3185777e-01
 -3.3596478e-04
  8.7146305e-05
  1.8901154e-04
 -2.1664501e-04
  2.8290495e-01
 -4.9147947e-04
 -3.8440913e-04
 -2.5337949e-04
  3.4716268e-04
  5.6974794e-04
  1.0645602e-04
  6.9854310e-04
  2.2974866e-04
  1.1094727e-03
  4.1355128e-05
 -1.2489861e-04
 -8.8198532e-05
  3.8084909e-04
 -1.7935173e-03
 -7.3082361e-04
  9.4924518e-04
 -2.8754277e-05
  7.3102274e-07
  7.7637675e-04
  3.0339556e-04
  2.3706791e-04
 -4.4009316e-04
 -4.2776609e-04
 -2.3917416e-04
  6.8630521e-05
  2.9830518e-04
 -1.9516505e-04
 -3.6595590e-04
 -2.8450531e-05
 -3.0503550e-04
 -2.0816769e-05
 -1.9595212e-04
  3.0395814e-04
 -6.0768635e-04
  9.3330833e-05
 -7.1398634e-04
 -2.5221077e-04
  3.6119184e-04
 -1.2321105e-04
 -1.9346616e-03
 -1.3672264e-03
  5.3202646e-04
 -1.8286108e-04
 -2.1694051e-04
  1.3133405e-03
  1.5163582e-04
 -3.3634892e-04
 -5.5971777e-04
  6.1709812e-05
 -5.8418507e-04
  5.5044872e-04
 -8.8269575e-05
 -2.6334485e-05
 -1.9208956e-04
  2.4570175e-04
  4.2584237e-05
 -4.6857132e-04
  2.0004652e-04
  3.0671962e-04
  1.1405674e-03
 -6.9294759e-04
  2.8579688e-04
 -7.3243154e-04
  4.3422100e-04
  3.8317731e-04
 -1.7101417e-04
 -7.7835296e-04
  2.4829552e-04
 -1.0467200e-04
  2.6384246e-04
  7.0406595e-04
 -2.9950030e-04
 -1.2449629e-03
 -5.7637249e-04
 -2.5935262e-04
 -1.7229058e-05
 -8.1962813e-04
  1.6331833e-05
  1.2773871e-04
 -4.9339877e-05
  2.3287605e-05
 -3.0407315e-04
  8.3230705e-05
 -1.2303249e-04
 -2.0796440e-05
 -2.2635833e-04
 -1.5130914e-03
  1.7498102e-04
 -3.6828965e-04
  2.6128750e-04
 -1.2276374e-05
  4.1042612e-04
 -3.0280428e-04
 -4.3272731e-04
  3.0980213e-04
  1.0058068e-04
 -4.6204621e-04
  1.0876229e-03
 -7.6677179e-04
  1.5707992e-04
  2.2418835e-04
  2.7262286e-05
 -2.4292585e-03
 -3.5382758e-04
 -1.5505785e-03
  1.6317208e-06
  1.8111966e-04
 -2.6296609e-04
  7.9371006e-05
 -5.8041012e-04
 -1.0725304e-04
 -3.3048063e-04
  6.9689369e-05
 -3.7715366e-04
  3.6459722e-04
 -8.2646433e-04
 -1.0420829e-04
  2.4030275e-04
  2.2313219e-04
 -2.2236971e-04
 -3.3453491e-04
 -1.1432078e-03
  1.2686706e-04
  5.1633420e-04
  1.1116863e-04
  8.8621062e-05
  1.9675362e-04
  4.9335067e-05
  3.2671689e-04
 -3.0503658e-04
 -1.6591846e-04
 -3.0034274e-04
 -1.2050114e-04
  4.2491156e-04
  2.5078972e-04
 -2.5505142e-02
 -4.3216211e-01
  9.5094210e-03
 -3.7211555e-04
  1.1427272e-02
 -5.9213686e-05
 -2.2448052e-01
 -3.1670699e-01
  8.7929286e-02
 -3.4351939e-01
  2.3787898e-04
 -9.7826071e-02
  1.0728631e-01
  3.8496964e-02
 -1.5536466e+00
 -7.1526051e-01
  6.1468351e-01
  2.5293892e-04
 -1.1800861e+00
  9.0165192e-01
 -1.4415115e+00
 -1.5628539e+00
  1.2895182e+00
 -3.8644782e-01
  3.6530367e-01
 -2.5741816e+00
  7.5684530e-01
 -2.1643009e+00
 -2.3261057e-01
  1.6037983e+00
  7.2605966e-04
  1.1063502e+00
 -2.6959684e+00
 -1.4088297e-01
 -1.8459755e-01
 -6.3481281e-04
 -3.9370883e-02
  1.6593367e-03
 -1.0712938e-03
  3.3730850e-02
  1.1987578e+00
  1.3847490e-04
  1.8433009e-04
  2.6745541e-04
  9.6394226e-04
 -1.0910513e-03
 -8.6240971e-04
 -3.8981973e-04
  2.0575464e-04
 -3.8158786e-03
  1.8794599e-06
 -6.2991632e-04
 -2.4738128e-04
  8.1564518e-05
 -1.4450842e-04
 -3.6671857e-04
  1.2358993e-04
 -3.2650487e-04
  3.8170698e-04
  1.6258913e-05
  3.1625453e-04
  8.9807043e-05
 -2.7242050e-04
 -2.8328231e-04
 -4.5122067e-04
  1.0340945e-03
 -9.9027136e-05
  9.1101196e-05
 -7.0330122e-04
  2.3620576e-04
  3.1166949e-04
 -8.3089760e-04
  8.5492106e-04
  1.7721744e-04
  3.3990730e-04
 -6.2244030e-04
 -6.9717370e-04
 -1.4516026e-03
 -2.6242863e-04
 -2.8415362e-04
  1.8216821e-04
 -4.6976874e-04
  1.7379996e-05
  1.3575381e-04
 -2.2471635e-05
  2.5795857e-04
 -2.3652989e-04
  2.9140132e-04
  2.1533757e-04
 -1.0703978e-03
  1.1402218e-03
 -2.9409962e-04
 -3.9023126e-04
  2.3758308e-04
 -1.7180722e-04
  5.7568093e-04
  1.1560896e-04
 -5.9292576e-04
 -1.8228489e-05
 -7.4194977e-06
  4.6626723e-04
  9.9233992e-04
 -2.2189437e-05
  4.8841210e-04
  8.9413494e-05
  1.9819343e-04
 -4.7287068e-04
  5.8605801e-04
 -8.1359438e-04
  1.6840668e-04
  6.9425878e-04
  4.4009852e-04
  1.0618290e-04
 -2.5396142e-04
 -7.5950360e-05
 -1.5137237e-05
  1.0796424e-04
  3.2899054e-04
 -1.0610153e-03
 -4.8549735e-04
  2.3326735e-04
  2.5867202e-04
  5.6263647e-04
 -6.3306332e-05
 -6.4804393e-04
 -1.2968671e-04
  1.5893203e-04
 -9.0911030e-04
 -6.3279795e-04
 -2.2308624e-04
 -2.2758906e-04
 -7.7493038e-05
 -4.9641484e-04
 -5.6997390e-04
 -3.3005895e-04
 -7.7737444e-05
 -9.1911491e-04
  2.1731801e-05
 -5.6081266e-05
 -2.4283910e-04
 -5.0766440e-04
 -1.0058845e-06
 -5.1835680e-04
  3.2307502e-04
  6.8044110e-04
  1.8542712e-05
 -7.6146898e-06
 -2.1898956e-04
  4.9889757e-04
  1.2543697e-03
  1.5773176e-04
  1.5536386e-04
 -3.9803860e-04
 -2.2866974e-04
 -5.3836813e-04
  7.7630666e-06
 -3.7284000e-05
  5.1790481e-05
 -1.6014009e-04
  6.3425273e-04
 -9.7143975e-06
  1.4550824e-04
 -4.3013282e-04
  1.3920458e-04
  1.7381537e-04
 -1.8411332e-04
  3.0525707e-04
 -2.4131818e-04
  5.1649497e-04
 -2.2582817e-04
 -4.9036008e-04
  1.6417226e-04
 -2.0370635e-04
  1.1046175e-03
  5.5799741e-05
 -2.4461557e-04
 -1.8878221e-04
 -3.0386876e-04
 -1.3133137e-04
 -1.6585441e-04
 -2.7503079e-04
  6.0372322e-04
 -3.0074170e-04
  2.0825060e-04
  1.9352285e-04
  2.0563023e-04
  8.4285048e-04
  5.9743726e-04
 -1.0935534e-05
 -4.7492809e-04
  8.3817675e-04
 -2.4146760e-04
 -2.6067032e-04
  3.6420769e-04
 -3.0720144e-04
 -2.8606239e-04
 -3.9033397e-04
 -3.6301161e-04
 -6.7313202e-02
 -4.4747285e-06
  1.9766294e-04
 -6.8758195e-04
 -3.2966429e-05
 -3.8043640e-04
 -1.2273970e-04
 -4.5396440e-04
 -4.0952491e-05
  1.1261141e-04
  1.4540373e-04
  8.9488000e-05
  2.7145175e-05
  2.6863371e-04
  8.7731882e-05
 -1.8568446e-04
 -2.6818755e-04
  4.9188506e-04
  1.6780678e-04
  2.6217269e-05
  4.7533441e-04
  1.8109242e-04
 -2.3834684e-03
  1.4636469e+00
  2.6358868e-04
  1.3389175e-04
  5.0281030e-01
  1.0889732e-04
 -3.8715301e-03
 -7.2194028e-01
 -7.8971595e-02
  1.9111088e-04
 -1.0396007e-03
 -3.6928040e-01
 -6.8891974e-04
 -6.5513491e-04
  1.1118482e-01
  9.2441414e-04
 -4.0119386e-04
  1.0527024e-03
 -2.0794380e-02
  2.4042535e+00
  3.1234986e-01
 -2.0596896e-01
 -1.0795491e-01
  7.1438838e-04
  5.0590279e-05
  2.1180621e-04
  1.1606170e-01
 -3.8961360e-01
 -5.2340548e-02
 -2.9264838e-03
  3.8465799e-04
 -6.3823116e-01
  1.4589771e-03
  2.5780118e-04
  3.4294135e-05
 -1.9017393e-03
  5.9150994e-01
  7.5728793e-05
 -8.1188732e-04
  5.0321902e-04
  1.1662514e+00
  4.6997599e-04
 -1.1832820e-03
 -2.6693399e-04
  1.1049767e-04
  4.5800756e-05
 -1.4101915e-04
 -1.6542249e-03
 -9.0744405e-05
 -2.4814875e-04
  2.5524045e-04
  2.0741917e-04
 -2.0803840e-05
  3.8295635e-04
 -1.3292079e-04
  3.3672000e-05
  2.9315917e-05
  6.7987479e-05
 -1.3612316e-04
  9.9023338e-05
 -1.6798958e-04
 -1.0119769e-04
 -4.4199728e-04
  7.2215521e-04
  1.0743446e-03
  1.9029090e-04
 -1.3716816e-04
  3.4156226e-05
 -9.6973061e-04
 -1.4817095e-05
  9.9388504e-05
  6.6859993e-06
  4.0090646e-04
  8.6652878e-04
 -1.5357981e-04
 -2.4018800e-04
 -2.5632154e-04
 -6.2822248e-04
  1.9148311e-04
  7.0828031e-04
 -1.4397141e-05
 -2.5770738e-04
 -8.8978198e-04
 -1.0869234e-04
 -1.0132204e-04
 -3.3859423e-04
  3.3572165e-04
  2.2175298e-04
 -9.7676553e-04
  4.8752964e-04
 -1.5268053e-04
  1.6933802e-05
 -1.8828911e-04
 -2.8533291e-04
  5.9981440e-04
 -6.0011685e-04
 -4.1779326e-04
  6.8255518e-05
  4.4206349e-04
  8.5504819e-04
  9.8941871e-04
  4.2981547e-04
  3.3081701e-04
 -1.7769980e-04
 -3.3587508e-04
  1.6404579e-04
 -2.2460750e-05
 -1.3235411e-04
 -1.3532901e-04
 -8.3250365e-05
  6.3153764e-04
 -3.6026572e-04
 -3.2098815e-04
  4.4747090e-04
  3.6799227e-04
  2.6195525e-04
  1.1712946e-05
  3.2931883e-04
 -1.2390791e-04
 -3.2802319e-04
  2.3088393e-04
 -7.2726711e-05
 -8.0063750e-05
  4.9026549e-04
 -1.0177427e-03
  8.1269172e-05
 -7.7821116e-04
  2.1619617e-04
 -2.0828786e-04
  1.2637307e-03
 -5.6176470e-04
 -1.8981955e-04
  2.0870700e-04
 -8.1082340e-05
 -1.0936905e-03
  5.8978482e-04
 -1.8146299e-04
  4.7507149e-04
 -1.2818209e-04
  1.3951477e-04
  4.5169771e-05
  8.9114060e-04
  2.9453225e-04
 -4.1806742e-04
 -1.4547879e-04
 -2.6600525e-05
  1.9011187e-04
 -2.5386305e-04
 -6.0504139e-04
 -4.2285543e-04
 -2.5494737e-04
  1.6424126e-03
  2.7957314e-04
 -1.5724081e-04
  3.1908153e-04
  1.0056926e-03
  1.4065480e-04
  4.3809167e-05
 -1.6806451e-04
  5.0869107e-04
  2.0564126e-04
  7.0205562e-05
 -2.4848458e-04
 -3.7719117e-04
  3.4258416e-04
 -1.4170168e-04
  9.3587697e-04
 -2.4289782e-04
 -1.1487385e-04
  8.4783003e-04
  1.1786440e-04
  1.2632684e-04
 -1.6559791e-04
 -6.5219632e-05
  9.4488074e-05
  3.8650574e-04
  7.5405638e-05
  2.9985490e-04
 -2.0110940e-04
 -1.7398820e-04
 -9.6977642e-04
 -1.7577742e-04
  2.2130309e-05
  2.2450004e-04
  1.5002902e-04
 -7.7375432e-04
 -6.4583583e-04
 -7.0287118e-05
  1.9647008e-04
  3.1002579e-04
  5.6077255e-04
  6.1196298e-04
 -1.4754640e-03
 -1.6154152e-04
 -3.6437530e-04
 -3.8744387e-05
  6.8090693e-04
 -2.8069847e-04
 -5.9223053e-04
  8.3258201e-06
 -1.5481021e-03
  7.7587215e-04
 -7.4119872e-04
 -4.9062866e-05
  2.6247144e-04
  3.7772936e-04
  9.1288166e-06
  2.6204769e-04
  4.7795914e-04
 -1.7297555e-04
 -8.9123205e-08
  1.0390368e-03
 -5.8312353e-04
  5.8348651e-05
  4.5725745e-05
 -4.0190769e-04
 -6.4962805e-06
  3.8014210e-04
  4.6975198e-04
  1.2027334e-04
 -5.1900744e-04
 -9.6233969e-04
 -8.9987181e-05
 -1.1346726e-03
  1.5100383e-04
  4.2288430e-05
 -1.1044800e-04
 -2.5112086e-04
 -5.7799282e-04
 -1.1241960e-03
 -2.1999278e-04
  9.6562668e-05
 -1.1945572e-03
 -5.6350487e-04
  1.3558975e-04
  4.7689013e-04
 -9.4600074e-04
  3.6590351e-04
 -5.0589786e-04
 -3.3462496e-04
  4.1072798e-04
 -5.4956449e-04
 -8.3521812e-04
 -1.5640457e-05
 -1.5879641e-04
 -1.1171598e-03
 -2.1010916e-05
 -1.8920944e-03
  5.7718623e-04
 -6.6701023e-06
 -8.3155770e-05
 -2.5378892e-04
 -3.3872551e-05
  8.1149592e-05
 -5.8155454e-04
 -5.6326034e-04
  6.0011336e-04
  3.4512801e-04
 -6.7973975e-05
 -2.5356319e-04
  7.4372244e-01
  2.7630088e-04
 -8.7285950e-04
 -3.6121576e-04
 -5.5050536e-05
  3.2693872e+00
  3.4375070e-04
 -2.0210142e-04
 -2.5146728e-04
  1.1834224e-03
 -4.0708869e-03
 -4.4976434e-05
  3.4996869e-05
  3.0343188e-04
 -7.5357989e-04
 -1.0294084e-02
 -2.9425693e-04
 -7.9546968e-05
  3.2733331e-04
 -2.4365749e-05
 -1.3350499e-03
  8.2613208e-04
  5.2903238e-04
  3.3422786e-01
 -2.6612607e-04
 -2.9430195e-04
 -9.2425646e-04
  3.4876099e-05
 -1.5093103e-03
 -1.2593332e-03
  4.3128457e-06
 -7.9478434e-04
 -1.1689564e-04
 -6.5310396e-02
 -5.1682995e-04
  4.8458256e-04
  5.1034175e-02
  3.5544758e-04
 -3.8811122e-06
  5.1643478e-04
  2.1978479e-04
  9.6857920e-04
  1.2633947e-04
  2.5391018e-05
  1.0949203e-01
  2.0901355e-04
  8.1813385e-05
 -1.4544313e-04
 -7.1364187e-04
  1.1477713e-04
  3.0620687e-04
 -8.1720602e-05
  3.4327602e-03
 -7.5873878e-04
  1.6807877e-03
 -1.8013783e-03
  3.9459314e-04
 -2.3698449e-06
  5.1565294e-06
  7.1140070e-04
 -4.7684155e-04
  4.6478796e-01
  1.0441311e-03
  2.9988464e-02
  6.3633822e-02
  1.2741881e-04
 -6.0388120e-06
  7.7394489e-04
 -1.2836236e-04
 -7.8422151e-04
  2.5634395e-02
  4.5206456e-04
 -1.3352111e-04
  5.9036538e-04
  1.6174497e-04
  7.8197047e-02
 -5.9243613e-03
  1.6908972e-01
  1.7452618e-04
  2.3137704e-02
 -1.5618552e-02
  4.6357894e-03
 -4.1043185e-04
  1.5327422e-04
  1.5374779e-04
  1.3069902e-04
 -1.0507691e-03
  1.7876644e-04
 -4.3902452e-05
  5.3003583e-05
 -7.9949322e-04
 -1.9788501e-04
  8.8579173e-04
  1.3610322e-03
 -9.8137461e-06
 -3.4866217e-04
 -7.5538919e-05
  2.5034862e-04
 -1.3559234e-03
 -2.2396623e-04
 -9.7576407e-04
 -2.9081479e-04
  8.5426500e-04
 -1.6559259e-05
 -1.3422192e-04
 -3.4305156e-04
  2.8125411e-05
 -3.6668466e-04
 -3.3317436e-04
  3.8938911e-04
  1.0305333e-03
  3.7495009e-04
 -2.8924618e-04
 -3.1151477e-04
  1.0023762e-03
 -5.0224736e-04
 -5.4081803e-04
  3.6473932e-05
  4.5778597e-04
 -8.7351596e-04
  8.2908482e-06
  2.7255673e-04
  8.3942787e-04
 -4.9464428e-04
 -8.0912258e-05
 -2.6701641e-04
  1.1799185e-03
 -5.3760567e-04
  4.3815257e-05
  9.3995302e-04
  6.9665216e-02
  6.7878173e-05
  7.1401783e-04
 -1.4916666e-04
  4.8111752e-04
  1.6857703e-03
  4.4827495e-04
  8.5462054e-04
 -5.7758996e-04
 -5.2532105e-04
  1.4830945e-04
 -6.7979709e-06
 -6.3707400e-04
 -5.9476990e-04
 -7.7460441e-05
  1.5028162e-04
  2.2126418e-04
 -4.9527996e-04
  1.2514803e-04
  2.0514487e-04
  1.4302981e-04
 -1.4329542e-03
 -1.2386001e-05
  7.1726827e-05
 -6.6202236e-05
  1.3096751e-04
  3.2572741e-05
  4.1391628e-05
 -1.8770155e-04
 -3.1199917e-05
  2.5563862e-04
  2.4043780e-04
 -5.1811122e-04
  2.7713347e-03
  4.2876333e-04
 -5.6415249e-04
 -3.2461606e-04
 -8.7381958e-04
 -5.0759467e-04
 -6.7328423e-05
  5.6740094e-04
  4.9571251e-04
  4.5801449e-04
  1.9820612e-04
  6.0442479e-05
  2.2974201e-04
  3.5189940e-05
  2.9432433e-04
  3.6764826e-04
 -6.3049182e-04
 -3.0899714e-04
  1.6415808e-03
  8.3771069e-05
 -7.3757750e-05
  3.6191362e-01
  1.1082935e-03
  2.0788392e-02
 -3.5348623e-03
  6.2015266e-03
  1.7458572e-03
  2.2999623e-01
  6.8464014e-03
 -6.9122091e-02
  1.6921137e-01
  8.8718714e-04
  6.7651324e-02
  3.1326041e-01
  3.8439434e-04
 -1.4051657e-02
 -1.1080557e-03
  1.3837196e-01
 -4.0850263e-02
  8.3699562e-02
  4.5300800e-02
 -4.5352135e-07
  1.0699809e-04
  2.1522492e-02
 -8.9060068e-03
 -2.6254240e-02
  4.6935417e-02
  6.6676542e-02
  3.1193656e-01
 -3.3048354e-03
  1.8681102e-02
 -2.0597966e-03
 -3.1154704e-01
  6.1013528e-05
  4.4334144e-04
 -1.7368232e-03
 -4.7691795e-04
  8.3666359e-04
  7.5478508e-04
  1.4261466e-04
 -2.5285041e-04
 -1.8599709e-04
 -1.2891463e-03
 -5.7975352e-02
 -4.2876025e-04
  2.9789272e-04
  3.5749440e-04
  4.2533493e-03
 -8.4647472e-05
  4.1555405e-01
  4.1503255e-05
  2.1967269e-01
 -2.0781881e-04
  1.4817725e-04
  5.3843718e-02
  3.5572866e-01
  1.9991210e-01
  9.8636940e-02
 -4.0085846e-01
  1.5838894e-04
  3.6819334e-04
  5.1167548e-02
 -6.3694624e-04
 -3.7597805e-01
  1.6057091e-03
  8.4825803e-04
  8.1012707e-04
  4.2713550e-04
 -5.7568574e-01
  6.4228374e-01
  4.9342161e-01
  1.2143921e-01
 -6.3260242e-02
 -1.2571439e-01
  1.9348601e-01
  5.7549123e-04
 -2.0667358e-01
  2.3391555e-04
  3.8827443e-04
  2.2831888e-04
 -3.8949671e-01
 -8.0519736e-02
  2.1450385e-04
  1.7682196e-01
  2.5784757e-04
 -2.3650897e-04
 -1.9834463e-01
 -8.7233973e-01
 -4.0038815e-04
 -7.3158413e-01
  2.7366873e-04
 -1.5945277e-01
  2.8334984e-01
 -6.4218110e-01
 -2.7601625e-04
 -1.5909639e-01
 -7.6438310e-03
  2.7889064e-01
 -7.6601183e-01
 -5.9276860e-02
 -6.7606688e-01
 -9.4266731e-01
  1.7579367e-02
  2.2559457e-01
  1.9159718e-01
 -4.3698788e-02
  7.6356632e-01
  1.6950628e+00
 -1.8746802e+00
 -2.7559337e-04
  9.4064401e-04
  5.5498682e-02
  1.3669291e+00
  2.6960742e-01
  1.5837231e+00
 -4.1476059e-01
  6.2721008e-01
  1.4267281e-01
 -5.9667426e-01
  7.8312017e-02
  5.0362474e-01
  4.5348462e-01
 -1.9124907e-04
  4.0605647e-04
 -3.2911594e-03
  6.8066575e-02
  5.2436528e-04
  3.0913271e-04
 -1.4789989e-04
 -1.7047954e-04
 -1.2137491e+00
  2.7230993e-01
 -4.3701864e-04
 -5.9138256e-01
  6.2144292e-04
  1.2727175e-04
 -2.5111729e-01
 -1.7017588e-01
 -8.6696170e-02
 -3.2665625e-01
  6.2736982e-01
  8.9741565e-02
  3.1320719e-04
 -1.4947267e+00
  8.9486295e-01
 -3.4949321e-01
 -2.9411176e-01
 -1.2200543e-04
  2.1952150e+00
 -1.1219413e+00
 -1.4487189e+00
 -1.5655239e-01
 -4.8721147e-01
 -1.8587208e-04
 -1.4273671e+00
 -7.2559260e-02
 -1.3569537e+00
 -5.8159000e-01
  4.0406358e-01
  3.1501229e-03
  1.5657529e-01
 -1.3190100e+00
  8.6766946e-01
 -1.0784757e-03
  4.2398730e-03
 -1.3673735e+00
 -4.7730929e-03
  1.4925002e-03
  7.1520978e-01
  6.2481727e-04
 -4.6118954e-04
  7.1158726e-04
  8.4348278e-05
 -3.4083702e-04
  9.9036493e-04
 -8.1224809e-04
  4.5366058e-05
 -3.0880890e-04
  4.9106200e-04
  5.9051870e-04
  2.0555832e-04
 -1.2206164e-04
  3.8783025e-04
  2.4080588e-04
 -7.0800009e-04
  6.4425537e-04
  5.1352789e-04
 -1.7605525e-04
  2.7749105e-04
  4.5442756e-04
 -6.0511293e-04
 -4.3471076e-04
  8.5953344e-04
 -2.3684751e-04
  1.1423161e-04
  9.1555039e-04
  3.0448209e-05
  4.9911067e-04
  1.1897331e-04
 -2.7000581e-04
 -4.1248801e-04
 -1.2864498e-03
 -1.0129479e-03
  6.2494358e-04
 -5.1135230e-01
  4.2038556e-04
 -2.3452831e-05
 -2.4514608e-04
  3.7983526e-04
  1.2161502e-04
 -6.5470004e-04
 -6.5735723e-05
  4.9705693e-04
 -5.4145952e-05
  4.0681003e-05
 -2.5720531e-04
 -1.8895969e-04
  2.4032046e-04
 -3.2994809e-05
 -3.9622813e-04
  9.6241623e-05
 -1.5214537e-04
  3.1827301e-05
  1.0230998e-04
 -7.9580786e-07
 -1.6466597e-01
 -7.0998422e-04
 -2.5423389e-04
  5.1834376e-04
  3.5702760e-04
 -9.8067510e-05
 -1.2450037e-05
 -7.9775427e-04
  1.5719382e-04
  1.5570575e-03
 -1.0737532e-03
 -2.6817532e-04
 -2.3075999e-04
  5.5982894e-04
 -2.1407068e-04
  1.5518772e-04
  3.8770930e-05
  3.5070401e-04
 -1.0244341e-03
  4.0069406e-04
  4.6046346e-04
 -8.1274629e-06
  1.1412439e-04
  3.2971066e-04
  6.2608189e-05
  3.2858955e-04
  6.3307676e-04
 -4.1872347e-04
 -5.4803721e-05
 -2.0375272e-04
  1.8072367e-04
  1.4955674e-04
 -3.0239222e-05
  2.4587766e-04
  5.7433579e-05
  9.9006528e-04
 -7.7993878e-05
 -5.8895338e-04
  5.6373654e-04
  1.3580036e-04
  1.4141333e-04
 -7.7078010e-05
  3.9585237e-04
  8.0141486e-05
  2.9504765e-04
 -8.1309263e-05
  1.8813109e-05
 -5.5471042e-05
 -2.3857327e-03
  3.4270779e-05
 -4.6408252e-04
  3.6473418e-04
 -4.4696571e-07
  5.9016637e-04
 -1.7528716e-04
  1.9847657e-04
  7.2584103e-04
 -2.0188499e-04
  2.1107489e-04
 -2.5056006e-04
 -1.3371601e-04
  4.0554944e-05
  4.0814813e-04
  1.0603073e-04
 -5.1710827e-05
  6.1208622e-05
 -3.3643973e-04
 -8.4336862e-06
 -2.2740376e-05
  6.9781585e-05
 -3.4303588e-04
 -3.9372669e-04
  4.2120460e-04
  3.7533799e-05
 -1.2142786e-03
 -7.9411565e-04
  8.3548820e-04
  1.1737521e-05
  1.4245177e-05
  3.5678470e-04
 -6.4040913e-04
 -1.6550043e+00
 -2.1968584e-01
 -1.3440869e-04
  1.7120521e-01
 -1.7651491e-04
  3.3925098e-04
 -5.7738170e-04
  3.8993415e-01
  1.3609266e-01
  6.7454793e-02
  5.6698205e-05
 -1.9290242e-03
  1.9706118e-01
 -1.9771932e-04
  3.7254164e-01
  2.4838220e-01
 -1.4936987e-01
  2.7017868e-01
  7.1044421e-01
  3.9200181e-01
 -2.0894831e-01
 -2.2053523e-01
  1.8852842e-01
  1.4583939e-01
 -1.2754590e-03
 -9.9056721e-02
 -1.5896699e-01
  3.1030115e-01
 -1.4780875e+00
  3.4277972e-02
  8.1167167e-01
  2.1817988e-01
  1.5564874e-01
 -7.6487195e-04
 -1.6768584e-01
 -2.4029569e-01
  1.0277032e-03
  3.8927863e-04
  2.8854411e-04
 -3.6110159e-04
 -3.5031963e-04
  2.6521704e-04
 -3.0400850e-05
  2.3848841e-01
 -2.6961725e-04
 -2.5864897e-04
  2.0077483e-04
 -2.1944402e-01
  9.2699740e-04
  1.1097384e-03
  9.3528669e-04
  1.9655432e-05
 -7.4826568e-01
  1.5574014e-03
  2.8766296e-04
 -1.3868834e-05
 -2.6230290e-04
 -2.5736552e-04
 -1.8222684e-02
  1.7317818e-01
 -1.0824819e-04
 -1.6652353e-04
  2.3847156e-04
  7.6659513e-04
  1.6520882e+00
 -1.2580776e-01
 -3.8436035e-04
 -5.4630349e-05
  5.1921571e-04
  1.0699914e+00
  2.9706990e-04
 -1.7562364e+00
  1.0074054e-01
  1.1515627e+00
 -5.6287264e-03
  3.8704566e-05
 -1.8011294e-03
  1.0510054e+00
  3.8453296e-04
  7.0324162e-04
  5.0566433e-04
  5.8742648e-04
  4.2125091e-01
  2.8649901e-04
  2.5431553e-04
  6.5816559e-05
  3.9045099e-02
 -5.9117075e-02
 -3.1663164e-01
  4.5794222e-01
 -1.4958918e-03
  1.1536281e-02
  1.0944343e+00
  7.9920501e-01
 -7.4861497e-01
 -8.1825197e-01
 -2.7067168e-04
 -9.1614788e-03
  1.2411515e-04
  1.1617612e+00
 -1.6061339e-01
  4.6253268e-04
 -1.7824628e-03
  1.3447186e-01
  1.2196827e-04
 -1.1711717e-03
 -1.1909971e-01
 -7.2793046e-05
 -1.3499795e-03
  2.0202497e-02
  4.4191217e-01
  4.1729324e-02
 -3.5510428e-02
  3.4153264e-02
  3.4900171e-05
  5.3877925e-04
 -8.4878065e-02
  1.1238997e-01
 -1.1381767e-03
 -5.9073064e-03
  1.8909580e-01
  3.6446506e-04
  4.6991813e-04
  1.2767416e+00
  4.9346853e-02
  8.7578833e-01
 -1.1250470e-04
 -8.5578889e-05
  4.6239641e-02
 -5.4597872e-04
  7.6748706e-02
  1.8583934e-04
  6.2979655e-03
 -2.5228946e-04
  7.8561323e-05
  5.6443061e-04
  4.8773590e-02
 -1.3142122e-01
  2.1549196e-03
 -6.5828138e-04
 -1.4591447e-04
  1.9410397e-03
  1.3410044e-04
  1.5936003e-03
 -1.3306198e-01
  4.3800092e-01
  6.3019568e-01
 -1.2068661e+00
  2.3153084e-03
  2.4933698e-02
 -1.6311577e-01
 -5.5026524e-02
  1.4491996e-01
  1.7072193e-01
  4.0211491e-02
 -3.1911474e-01
 -1.1157799e+00
  2.4864425e-01
  6.2911795e-04
  7.3986328e-01
  6.1719090e-01
  3.6605710e-01
  4.4967956e-03
  2.4805734e-01
 -4.8261575e-02
 -1.8562403e-01
 -5.7052046e-01
 -1.3931212e-01
  9.6613327e-03
  6.4558350e-02
  5.7692683e-01
  2.4015008e-01
 -9.1264230e-01
 -5.6122977e-01
  5.6491500e-01
  5.9423393e-01
  1.2594162e-01
  6.5071270e-02
 -7.9465973e-01
  4.1930974e-02
  1.7817350e-03
  3.8812003e-01
  8.2459027e-01
 -5.6834954e-01
  6.2024349e-04
 -5.1601732e-01
 -1.3719377e-01
 -2.8961876e-01
 -1.5233486e-04
  7.8573474e-04
 -6.8337104e-06
  1.6766152e-03
  4.9627295e-05
  4.0985737e-04
 -4.8905285e-04
 -3.7948787e-04
  9.0604916e-04
 -2.2726975e-04
 -4.8054132e-04
  3.1937927e-02
 -5.0251041e-02
 -1.5437910e-03
  1.7645884e-04
  6.8033923e-04
 -5.7260203e-04
 -2.9752991e-04
  9.6962598e-05
  3.1943078e-04
 -1.9460380e-04
  1.7128208e-05
 -8.5817243e-04
 -1.1817549e-04
  4.6757850e-04
  1.0010244e-04
  2.3148376e-03
 -2.2882107e-04
 -5.7562761e-04
 -5.2090146e-04
  4.9812428e-04
 -1.8336432e-02
  5.7155610e-04
 -7.6166485e-05
 -1.1523654e-03
  3.0618743e-04
  5.9979975e-05
 -2.9272400e-04
  7.3318261e-05
  4.7316676e-04
 -5.0975454e-05
  1.2693874e-04
  1.4027752e-04
  5.8044483e-05
  1.8589886e+00
  2.1542336e-01
 -5.8643240e-01
  8.9288753e-01
 -6.9148028e-01
  1.2678009e+00
 -1.0445237e+00
 -6.0650384e-01
 -1.4086045e-01
  2.8938729e-01
  1.1851180e+00
  4.7738231e-05
 -1.0299937e-01
 -2.6061158e+00
 -1.2484072e+00
 -8.3049625e-04
  1.4232398e+00
 -1.4027146e-01
 -7.8552306e-02
 -2.9307956e-01
  1.7769868e-05
  3.0382674e-03
  9.1674365e-02
  1.8377382e-01
  2.5235612e+00
 -1.9246736e+00
 -3.2981867e-03
  1.5830134e+00
  2.7894807e-01
 -2.4959005e-01
 -8.3456049e-04
  9.9583036e-01
 -5.9809214e-01
 -1.5948392e-03
 -5.1695011e-03
  1.5176111e-03
 -8.7216438e-04
  3.6408713e-01
  9.4639491e-03
 -6.4095184e-02
 -1.2374436e-03
 -5.1043282e-04
  9.3434344e-04
  1.7997362e-04
  8.2376033e-02
 -1.4526232e+00
  1.6775879e+00
  6.5788976e-03
  7.7338420e-02
  5.7620281e-01
  4.7350734e-01
 -3.0471313e-01
 -3.0624989e-04
  5.0055325e-02
  8.4560865e-01
 -5.0353849e-01
 -1.7191550e-01
 -3.3590460e-01
 -1.9039601e-01
  1.4709771e-04
 -4.1309169e-01
  3.8088366e-02
 -5.4726540e-04
 -3.5645694e-01
 -9.5076978e-02
 -1.4892154e-03
  2.8693481e-04
  9.7645855e-01
  5.1222187e-01
  1.4750985e+00
  3.3991227e-01
  9.5092729e-02
 -6.5228224e-02
 -3.6829349e-01
 -6.0250741e-01
  8.7936151e-01
 -1.8818362e-01
 -3.4855884e-02
  1.1927838e+00
 -7.0006630e-05
 -1.5520349e+00
  6.4770550e-02
 -2.1139735e-01
  1.9499642e-04
 -1.6850474e-03
 -7.5204849e-02
 -7.6927178e-02
 -2.4847483e-04
  3.0593699e-01
  1.1504044e-01
 -2.2426195e-02
  5.6256462e-02
 -1.9510447e+00
  2.6927117e-01
  2.4542838e-01
  3.4908855e-01
  1.5954359e-01
 -1.1187916e-01
 -8.5356444e-01
 -3.2091016e-04
  3.4687635e-01
 -5.2988350e-01
 -7.1183348e-01
  8.4611744e-01
  6.3399857e-01
 -6.1488897e-01
  2.0450760e-01
 -6.1365741e-01
 -9.8259634e-01
  2.1793899e-01
  1.0503355e-01
  2.4900287e-01
 -4.8406592e-01
 -1.5021694e-01
 -5.8241367e-01
  2.1315288e-02
  5.9428656e-01
  6.4862072e-01
  2.3816656e-01
 -2.5272956e-01
 -1.3379422e-01
 -1.2942491e-04
 -2.9421446e-01
  8.5275508e-02
  7.4107453e-02
  1.1092542e+00
  1.6166599e-01
 -8.2804996e-01
 -1.2951154e-01
 -4.9396923e-01
  8.5600134e-04
 -1.4418844e-04
 -4.0145183e-01
  1.5996858e-02
 -5.8918220e-01
  7.8918886e-01
 -1.6492245e+00
 -1.1701543e-03
 -2.3388754e-01
 -1.3875052e+00
 -6.0970653e-02
  9.5878923e-01
 -1.5022957e+00
  2.2267184e-01
  2.2047284e-01
  7.5319183e-01
 -8.6479716e-02
 -7.2848159e-01
  3.0162555e-04
  2.8458979e-02
 -4.6524850e-01
  2.3539686e-03
  1.3661523e+00
 -2.9563433e-01
  2.5349637e-04
 -3.9978090e-01
  2.6322722e-01
  4.0485147e-01
 -2.0816712e-01
 -1.4008052e+00
  1.2661506e+00
 -4.8590422e-01
  1.0451721e+00
 -2.3456632e-01
  9.4003536e-02
  2.7277166e-02
 -3.3241117e-04
 -4.4885164e-04
  3.5793778e-01
  3.3266621e-03
  1.0080598e-01
 -1.6710177e-01
 -3.1963820e-04
  5.3632353e-02
 -4.7050407e-03
  1.0233726e-03
 -1.9001060e-04
  1.2905819e-04
  2.2358968e-04
  3.3340865e-04
  1.6996639e-03
 -6.4542866e-05
  4.8159581e-04
  6.4799236e-04
 -9.3899027e-05
 -2.3274997e-04
  2.8934798e-04
  5.0631852e-04
 -1.9981408e-01
 -1.4677054e-01
  8.9163921e-04
  4.5626156e-04
 -9.9558961e-03
  2.2525505e-04
 -1.2798441e-04
 -2.2330778e-04
  3.6179280e-04
 -4.3553536e-04
  9.7959838e-04
 -2.0938353e-01
  1.2489870e-02
 -2.0366286e-01
 -1.2080088e-01
  1.9730644e-05
  5.6432730e-01
 -2.6644178e-04
  2.9078213e-04
 -1.2987495e-03
  4.5285644e-03
  8.0851658e-04
 -4.2120295e-04
  5.8139114e-05
  5.3303828e-03
 -8.4205571e-04
 -9.0856876e-05
  3.5724233e-04
  2.3825357e-04
  1.3287661e-03
  5.2321411e-04
 -2.1833843e-05
 -2.6479966e-04
  3.4324598e-04
  8.9614972e-04
  3.0261055e-03
 -5.4650253e-04
 -7.5015938e-04
 -7.3975374e-05
 -3.7139785e-02
  4.1502333e-04
  7.4368116e-04
  5.3023976e-01
  1.0256737e-03
 -9.6784554e-02
 -9.7674169e-02
  9.6541049e-04
 -2.0125769e-03
 -4.5501240e-02
 -3.2674015e-04
  2.2257023e-05
 -1.5064626e-04
 -4.3152017e-04
  9.0672978e-04
  1.6783277e-05
 -2.1160474e-04
  9.2222705e-02
 -2.0440840e-04
 -1.2546920e-02
  8.4977096e-04
  3.6819628e-01
  6.2017131e-04
  1.0442038e-03
 -4.5325389e-04
 -1.2136028e-03
  2.9049930e-04
  2.3943277e-05
 -5.5020687e-04
 -5.1407667e-04
 -2.2357658e-01
 -9.4754236e-05
  2.6766721e-03
 -2.6804410e-04
 -5.8574323e-04
  2.2399715e-01
  8.0173876e-04
 -4.8584311e-04
  3.4442070e-05
  2.0240030e-04
 -7.9448038e-04
 -1.3575391e-04
  7.0844835e-04
  4.4770003e-04
 -9.3155919e-04
 -2.2874653e-04
 -6.5221387e-04
  4.8623884e-01
 -1.4130388e-03
  2.7816824e-04
 -2.3802805e-01
 -6.0373504e-04
  3.3607986e-04
  7.5288233e-04
  1.9710608e-04
 -3.3019765e-05
  7.2599636e-05
  1.0619498e-04
 -2.9099235e-02
  4.3838701e-04
  3.9762739e-04
 -3.2481287e-02
 -5.2677060e-05
  6.1346553e-02
  1.0775238e-05
 -4.5868177e-02
 -1.9093779e-05
 -4.5319030e-04
 -3.2705208e-04
  3.7743838e-04
 -2.0311971e-04
 -1.0291889e-03
  7.3898693e-05
 -4.2751257e-04
  4.6936827e-04
 -2.6718547e-04
 -4.2192504e-04
  1.0954452e-04
 -4.9010263e-04
 -2.6143790e-04
 -3.7956593e-04
  1.6057643e-04
  4.8171882e-05
 -1.5179948e-04
  2.8459632e-04
 -7.4729236e-05
  7.3177289e-06
  2.8496195e-04
  6.9087779e-04
 -7.0835208e-04
  8.9420297e-05
  8.0561882e-04
  8.3044800e-04
  2.4453495e-04
 -5.7071436e-04
  3.5660813e-04
 -2.7520920e-04
 -2.0579348e-04
 -2.7635103e-04
 -8.3593791e-04
 -1.3240684e-04
  5.3170446e-04
 -1.2744636e-03
 -1.7253120e-04
 -2.5842982e-04
 -5.7263613e-05
 -1.2115781e-03
 -2.0728015e-05
 -3.9301795e-04
  1.8095766e-04
 -2.2127567e-04
  2.5650515e-06
  5.5818637e-05
  4.6473877e-05
  7.4649334e-04
 -3.7763736e-04
 -9.1553928e-05
 -2.8960922e-04
 -3.1880607e-04
 -6.4880151e-06
  4.3711279e-04
  2.5977128e-05
 -4.4715256e-04
  5.9721048e-04
 -2.2341505e-04
  3.9679024e-02
  2.2755595e-04
 -3.2387566e-04
  2.1219249e-03
  2.8117583e-03
  9.9561286e-05
 -8.4644009e-04
 -8.0345152e-04
  3.6977784e-04
 -2.0203266e-04
 -3.8065217e-04
  1.9731130e-03
 -2.5063092e-01
 -3.0006750e-03
  5.6682131e-04
 -1.9158917e-02
 -2.2513021e-03
 -9.2782307e-04
  1.8529934e-04
 -1.2196509e-02
  5.3263567e-03
  6.4575081e-03
  4.3433947e-03
 -1.1294051e-04
  7.5791846e-04
 -1.6503708e-01
 -1.1565913e-02
  1.2279046e-03
  1.3551106e-01
 -1.9198706e-05
  5.1218012e-06
  3.2334359e-05
  8.7206415e-04
  4.2231400e-03
 -3.7637435e-02
  5.8264472e-04
  7.0694985e-04
 -3.1083755e-04
  1.2921341e-03
  1.2517124e-03
  1.5731106e-03
  7.0743548e-04
 -9.6236254e-05
  8.4721588e-04
 -4.3687040e-05
  8.5541798e-04
  3.7451653e-05
 -1.1262116e-04
  5.2833623e-01
 -1.2362418e-04
  3.9446642e-04
 -1.4227175e-03
 -2.0260256e-04
  3.8247823e-04
 -1.8523887e-04
 -1.7310899e-04
 -1.1992259e-03
  4.4153401e-04
 -1.3218060e-04
  1.5129172e-03
 -4.2637103e-04
 -1.0613397e-04
 -1.0306445e-04
  2.7134432e-04
 -3.0140507e-06
  5.0810595e-05
  7.9108620e-05
 -7.4049844e-05
  2.0953921e-04
  3.0073078e-04
  7.9013669e-05
 -7.6954620e-04
 -3.7075981e-04
 -1.0253713e-04
  5.5106427e-04
  1.0363567e-04
  7.3906779e-04
  1.9511599e-03
  1.1889043e-03
 -1.0055961e-04
 -4.7167749e-05
  5.4299587e-04
  2.6328771e-04
  2.7020677e-04
 -4.6841294e-04
 -1.6305934e-05
 -7.3994051e-05
 -3.5380357e-04
 -1.1829642e-03
 -7.4647163e-04
  6.5412663e-05
 -2.2291666e-04
 -2.8572601e-04
 -2.3660727e-04
 -3.1939778e-04
 -3.6308411e-06
 -3.1325239e-04
 -3.7975863e-04
 -9.3407412e-05
  2.3596872e-04
 -1.7815968e-04
 -8.0828679e-05
 -6.0033245e-04
  1.0107995e-04
 -2.5460929e-05
  8.0737978e-02
  3.2534448e-05
  3.2610059e-04
  2.0898260e-05
  1.1160751e-05
  4.0891301e-04
  4.0121944e-04
 -3.6657173e-05
 -4.0855899e-04
  2.9233287e-04
 -7.0544553e-04
 -4.1345491e-05
  3.1309819e-04
 -4.0259387e-05
 -9.4312876e-05
 -1.1431087e-03
  1.1917423e-04
  1.0985749e-04
  1.2162055e-03
 -4.2145321e-04
  6.7012137e-05
  9.2816656e-05
 -1.0202377e-03
  2.4812407e-04
  1.3328402e-04
 -8.1171270e-04
 -6.0894294e-05
  4.4683255e-02
 -4.7012053e-02
  7.9677477e-03
 -2.6120144e-01
  2.3469911e-06
  3.5984513e-01
  4.6542612e-01
 -3.2154536e-01
  1.8109201e-04
 -6.2230589e-05
 -5.4198034e-02
 -4.9121204e-01
  2.2592476e-01
  9.4523132e-02
 -1.7477624e-02
 -1.1498637e-01
  9.7881562e-01
  5.9699914e-03
  2.9978968e-02
  8.3995484e-02
 -3.2334495e-01
  1.3412155e-01
 -8.3896942e-02
 -1.6426698e+00
 -2.2495393e-01
 -2.8689981e-01
  8.1548280e-01
  1.5970814e-01
  2.5050658e-01
 -1.2523478e-02
 -9.6799091e-02
  2.7103618e-01
 -5.1282467e-03
  7.2671646e-01
  1.9060671e-01
 -4.0009912e-05
 -5.0670159e-01
  4.8111698e-01
 -9.7035270e-05
 -6.2570073e-02
 -6.3780569e-02
 -3.2678059e-01
  4.8775694e-04
 -3.8983235e-03
  1.0580536e+00
  3.4325515e-04
  4.0594465e-01
 -3.7248042e-01
 -2.2314525e-01
  4.9671035e-02
 -6.3387461e-02
  8.6644584e-01
  2.2877960e-01
 -1.9245896e+00
  3.3475894e-01
  3.6145537e-04
  6.8893439e-01
  1.3073347e+00
 -2.9769263e-03
  2.8692943e-01
  1.8359831e-01
 -4.8297486e-01
 -1.0704669e-01
 -8.6440593e-02
 -3.6966443e-01
 -2.6930982e-01
 -1.2283453e-01
  9.3504667e-01
  3.0568010e-01
  9.2806709e-01
  6.2149551e-02
 -5.4790425e-01
  4.3235022e-01
  7.8826749e-01
  3.3425561e-01
 -4.5714948e-01
  2.2890826e-01
 -1.9712793e-02
 -7.7939942e-02
  3.7856091e-02
 -2.5619549e-01
  1.5975544e-01
 -6.6407508e-01
  5.0296949e-04
  2.3011889e-04
 -1.2663481e-01
 -2.9027817e-04
 -8.5990258e-02
  9.0166123e-04
 -2.2896852e-04
 -4.8977985e-05
 -8.1718765e-04
 -6.4151350e-04
  1.5626985e-05
 -8.7356675e-06
 -2.8074026e-04
  2.4278687e-04
 -1.1946866e-03
  6.9656066e-04
  1.8130249e-05
 -1.6808447e-04
 -6.6764804e-04
 -7.6325145e-04
 -3.1414512e-04
 -6.4312226e-05
  2.8791421e-04
  6.2655366e-04
  1.1465716e-05
  4.6908000e-04
 -3.0868076e-04
  2.8254118e-04
  6.4895535e-04
  5.8094569e-04
 -4.0811862e-04
 -6.3433516e-04
 -1.3003507e-04
 -1.0347433e-03
  5.3936697e-04
 -6.4716296e-06
  6.6843466e-04
  9.2739781e-04
  2.3943633e-04
  1.8962395e-05
  1.1159896e-04
  7.6580218e-05
 -1.0352056e-03
 -4.4744238e-04
  9.6348266e-04
 -7.7881050e-05
 -1.9431931e-04
 -1.1849975e-03
 -3.0119705e-04
 -2.2320497e+00
  3.7810642e-05
 -7.0700538e-04
  2.7042773e-04
 -4.0108155e-04
 -3.5939267e-04
  4.4206495e-04
  1.4794598e-04
  3.4050009e-04
  3.4014223e-04
 -1.0932529e-03
  1.5106127e-03
  1.2950848e-04
 -2.8960191e-04
  8.4027945e-04
  1.9219433e-04
  3.2463614e-02
  2.0203358e-04
 -3.7148455e-04
  5.9390481e-04
 -4.8125101e-05
 -3.0450651e-04
  3.7807997e-04
  3.5909515e-02
 -2.0808488e-04
  2.6315101e-03
 -5.6112680e-05
  4.6838744e-05
  2.0859805e-03
  2.2513891e-04
  1.1566369e-03
  1.1281110e-04
  4.0844736e-01
 -2.5675580e-04
  2.4355780e-03
  1.2659894e-03
 -9.4599360e-05
 -3.8235862e-04
 -3.4271745e-04
 -2.6473260e-04
  6.2353205e-04
  2.3269020e-03
  3.6696662e-04
  4.7209780e-04
 -2.4692336e-02
  1.1980836e-03
 -7.7505076e-01
  1.8026134e+00
  4.8722374e-01
  1.2521759e-01
  5.9042192e-01
 -6.4820820e-01
  1.1083404e-05
  2.2275531e-01
 -1.9380207e-01
  8.4576482e-01
 -1.5646014e+00
 -1.0137565e+00
  5.1054323e-01
 -6.3181692e-01
 -1.0503501e-01
  1.8978742e-01
 -4.9607897e-01
 -9.0727162e-01
  1.2402122e-01
  2.4626955e-01
  1.9253089e-04
  2.7993309e+00
 -4.2107877e-01
 -3.0809386e+00
 -3.6226213e-03
 -2.5295150e-01
  2.1213605e-01
 -1.2923779e-01
 -5.6125838e-01
 -5.8518052e-02
  2.5179971e-04
 -4.4633895e-01
  3.0286002e-01
  5.0510979e-01
 -9.0289718e-01
 -3.3247823e-01
  8.5550636e-02
  4.0524751e-03
 -6.8629248e-05
 -7.9480698e-05
 -5.8172934e-04
 -2.4369429e-04
  1.7249371e-01
  9.4359618e-04
 -3.4319318e-04
  4.7203572e-03
  4.9626804e-04
  1.6362048e-04
  7.0349983e-05
 -1.3966745e-03
 -1.5389872e-02
  3.3197226e-04
  2.7452764e-01
  5.5280711e-05
 -9.2574227e-01
  1.1233469e-01
 -4.1469375e-05
 -3.9936014e-04
  7.5496407e-04
  6.4444385e-04
 -4.3424204e-04
 -1.4510481e-01
  7.6150836e-04
  7.1273622e-04
  1.0214169e-02
 -1.0864432e-03
  1.2904453e-01
  7.9234548e-02
 -2.6227383e-02
  3.5383928e-01
  1.1447448e+00
 -1.1363302e-03
  1.3489157e-04
  2.5406177e-03
  1.2357964e-03
  3.6858455e-05
  2.8900823e-04
 -3.1881870e-03
  5.0199155e-02
  1.7306679e-04
  1.9353697e-04
  1.1291924e-03
  1.4423390e-03
  1.5655725e-04
  5.2727584e-04
 -1.8408551e-04
  5.7939778e-06
  6.4351625e-04
 -1.5017738e-04
  1.6803959e-04
  4.4518811e-04
 -6.9251074e-04
  8.9751888e-04
 -1.2367162e-04
 -2.4853827e-04
  5.3616957e-04
 -1.8628582e-04
  1.8452859e-04
  8.7815168e-04
  1.0703321e-03
 -3.4625566e-04
  7.9803623e-04
 -4.6157282e-05
  3.1278841e-04
  1.5824389e-03
 -1.6874084e-04
 -3.7868388e-04
  8.1572565e-04
 -2.7558673e-04
  1.6556584e-04
  1.1452439e-05
  7.7691325e-04
  1.3252290e-03
  2.2570181e-04
  2.0158735e-05
 -2.8351817e-04
 -2.9423955e-04
  8.8820612e-04
 -1.8258317e-03
 -7.5403368e-06
 -2.1690213e-04
  2.1067011e-04
 -5.2351821e-05
  5.8902428e-05
  2.7601499e-04
  4.0793067e-04
 -2.1663007e-04
 -3.4913054e-04
  1.0406655e-04
 -6.3206535e-04
 -9.1104782e-01
  3.8360620e+00
 -1.1779850e+00
 -1.9026395e+00
  3.3048892e-01
  1.3435612e-02
  1.0827341e+00
 -9.2762113e-01
  1.8688359e+00
  5.1669675e-01
 -1.3584861e+00
  1.3198950e+00
 -5.0314814e-01
 -3.2098547e-01
 -3.8272750e-02
 -1.6976789e-01
 -1.3811257e+00
  1.9567324e+00
 -1.7098306e+00
 -3.0782882e-02
 -1.4854345e+00
 -1.9378625e+00
 -6.2018305e-02
  7.5333095e-01
 -4.4862649e-01
 -1.4865221e-01
 -1.3094430e+00
 -1.2230576e+00
  1.3932801e+00
  5.9322584e-01
  1.3225753e+00
  4.2743599e-01
 -9.4037700e-01
 -2.5293222e-01
  9.8806477e-01
  5.8498520e-01
  1.3530962e+00
 -1.1779993e+00
 -3.1276095e-01
 -9.3004463e-04
 -2.0515802e-04
 -1.3864532e-03
  5.3785663e-02
 -2.9309046e-02
  2.2777302e+00
 -4.0538902e-03
 -6.3316983e-01
 -4.5296369e-04
  9.4104463e-01
 -9.9009357e-02
  3.9080957e-01
  2.6302049e-02
 -2.0077911e-01
  3.8497830e-03
 -1.2911768e+00
  1.6606730e-01
 -7.5998366e-01
  8.3041042e-01
  1.8820235e+00
  5.5547256e-04
  9.0258283e-05
 -5.1099584e-03
  2.6662112e-04
 -2.0958580e-01
  4.9936056e-01
  1.6833128e-01
  7.3383440e-04
 -2.8744632e-01
 -3.1659927e+00
 -1.2295817e-01
 -2.7662141e-03
  5.6059454e-02
 -1.1547632e+00
  5.1038682e-01
  8.4919771e-03
 -3.3351144e-01
  1.2122499e+00
  7.5439060e-01
  8.7737250e-01
  3.2035714e-01
 -1.5140536e-04
 -2.4888992e-01
  7.5938864e-05
  2.9839930e-01
  2.8926898e-02
  4.4782256e-04
 -1.9381584e-04
 -8.8214851e-04
  1.0635514e-03
  2.9655718e-04
  4.0210952e-04
  1.1357515e-03
  6.3392945e-05
  2.4508507e-04
  2.8272075e-04
 -1.8150767e-04
  2.2702983e-04
 -2.5840627e-04
 -2.7141967e-04
 -6.1947026e-04
  1.9160984e-04
 -8.8049867e-04
  2.5312632e-04
  1.8200019e-03
  2.1754656e-04
  5.1193021e-04
 -5.3698686e-04
  8.7066018e-04
  4.3701188e-04
  1.0809625e-03
 -6.2174920e-05
  1.2023842e-04
 -9.2029874e-04
  4.9674604e-04
  2.0097363e-04
  2.2443171e-04
 -2.6958343e-04
 -6.4051530e-04
 -2.6192967e-05
 -2.2670893e-04
 -9.4923552e-04
  1.1321748e-04
 -1.2911837e-04
  6.9761023e-05
 -1.2953863e-03
  4.6645937e-04
  6.4870174e-04
 -3.8762123e-04
  1.2545259e-04
  1.0676618e-03
  4.5123196e-04
 -1.1581378e-04
 -1.9125472e-04
  5.4294657e-04
  5.7902979e-04
 -1.7666949e-03
 -1.3588615e-03
 -7.2153565e-04
 -2.9247673e-04
 -4.4882283e-04
 -5.9016480e-04
 -2.6675138e-05
  4.4193148e-06
 -8.5072807e-04
  1.5987064e-01
  3.6191675e-01
  6.5766927e-04
  5.4154155e-04
 -6.0352642e-04
 -4.1706979e-01
  1.2013703e-05
  3.2242660e-03
 -9.3824428e-04
  2.5949505e-04
 -2.5923600e-04
  2.9262982e-02
 -1.4430319e-02
 -3.8700789e-04
  1.7795118e-02
  7.1607181e-05
 -7.7058353e-02
 -2.6206089e-05
 -5.3826725e-04
 -9.7801245e-04
 -3.3287934e-04
  2.4092017e-02
 -2.1031778e-04
  2.1570469e-03
 -5.0476636e-04
 -7.3384421e-05
 -2.2837305e-03
  2.3582063e-04
 -2.8804419e-04
 -1.5097897e-04
 -6.3401902e-05
  9.1368711e-05
 -2.4679881e-02
 -1.5577015e-01
  4.9606437e-04
 -4.4065259e-02
 -1.0127744e-03
 -3.5701945e-04
 -2.7898926e-04
  2.4337095e-01
  3.4714557e-04
 -2.9504090e-04
 -1.6507052e-01
 -1.6899532e-02
  1.8932791e-02
 -1.6090091e-02
 -1.1280164e-03
  2.7386305e-01
  8.6241469e-02
 -1.1470875e-04
 -3.3163899e-04
  1.8471809e-01
 -1.4025640e-01
 -4.4226251e-03
 -7.3864083e-03
  2.0089004e-02
 -1.2307356e-01
  3.4051052e-01
  1.5240113e-01
  3.9974722e-04
 -2.3208562e-02
 -1.1005573e-03
 -4.5379679e-04
 -7.2960905e-04
 -8.5877022e-04
 -1.6746024e-04
 -6.5823674e-02
  1.1152172e-04
 -6.0927797e-02
  2.4253622e-01
  2.6285124e-04
 -1.1193644e-02
 -3.0297588e-03
 -2.5943620e-02
  6.4291917e-03
 -2.5740484e-04
  3.9522865e-04
 -3.4516165e-04
  1.8244216e-04
  1.9243264e-04
 -5.0097686e-04
 -4.4660272e-05
 -2.8108894e-05
 -3.3626842e-04
 -1.9039093e-01
  3.4845292e-04
 -2.6461566e-04
  3.9142350e-04
 -1.0905064e-03
  2.2898712e-05
  1.8498860e-05
 -3.7100510e-04
 -8.1892760e-04
 -1.9322321e-04
 -2.7543728e-04
 -5.1818846e-04
 -6.8258395e-04
 -1.9635758e-05
  5.2028790e-04
  2.8592517e-04
 -1.4143370e-03
  5.6506105e-04
  1.9085773e-04
 -2.2983464e-04
 -3.0159717e-04
 -3.8914394e-04
  3.4357040e-04
 -7.8627767e-05
  5.6301593e-04
 -1.2482839e-03
  8.3661627e-04
  3.5322017e-05
  1.8380096e-04
 -4.0363517e-04
  1.3661265e-04
  6.0597778e-04
  6.4520160e-04
  9.8774151e-05
  1.2343656e-04
 -1.2905438e-03
 -1.6446105e-01
  4.4262370e-01
 -8.4006026e-02
  4.6904039e-01
 -2.8208960e-04
  9.2713147e-02
  2.5052749e-02
 -1.3103596e+00
  2.9531334e-04
 -4.5760807e-01
 -1.4602879e+00
  2.7335721e-01
 -1.3218367e-01
 -6.2781382e-01
  2.7420610e-01
 -5.0957900e-01
  2.3793539e-03
 -3.3618015e-01
 -1.9022715e-04
  4.8672251e-04
  3.2081688e-04
  2.4333134e-01
 -6.8936148e-04
  1.4126195e-01
 -3.9380744e-01
 -3.7369072e+00
 -3.0800816e-02
 -6.9143325e-01
 -9.7939986e-01
  1.1467929e-04
 -7.0543983e-04
 -4.0962088e-01
 -7.3207700e-01
  2.4954034e-01
 -3.2317707e-01
  3.5006410e-01
 -9.7367451e-02
 -1.6808094e-01
  4.0409192e-03
 -8.1540740e-05
 -1.5962755e-04
  1.0714213e-04
  2.1240021e-04
  1.7702348e-04
  3.7675178e-01
  1.2466124e+00
 -1.7542187e+00
  5.2479464e-01
 -7.1775034e-02
 -7.2473213e-03
  2.5875366e-01
 -1.0325330e+00
 -5.1027199e-04
  3.8281044e-01
 -1.7753251e+00
  2.3957265e-03
 -4.8645791e-01
  4.9409047e-01
  1.0311973e+00
 -4.0510973e-01
 -7.8733659e-01
  8.9785719e-01
  7.7242233e-02
  1.9657791e-01
  8.5586536e-01
  8.0828947e-01
  5.4806602e-01
 -2.9778993e-01
 -1.6701282e+00
 -2.4612014e+00
 -5.6365311e-01
 -8.1638740e-03
 -5.2085048e-01
 -4.7383094e-01
 -4.9950308e-01
 -5.4966652e-01
  4.7538471e-01
 -1.4491567e-01
  2.0268213e-02
 -4.0371018e-03
  1.5868711e+00
 -3.5059163e-01
 -1.0353719e-01
  9.3706888e-01
  1.1127788e-02
  5.0940973e-01
 -2.5490584e-04
  1.2971856e-01
 -2.1351826e+00
  3.5729658e-04
  1.7670628e-04
 -4.1252139e-04
 -1.2055212e-03
 -3.1555854e-04
  1.1753537e-04
 -1.4479393e-04
 -5.0262373e-04
  3.7623395e-04
 -1.0959164e-04
 -1.8833060e-05
  1.2638583e-04
 -4.5502456e-05
 -6.5724525e-05
  4.3582459e-04
  8.5390697e-04
 -1.4446661e-05
  3.9224263e-04
 -1.1120963e-05
  2.1534599e-04
 -3.1245159e-05
 -7.0124879e-05
  1.2539397e-03
 -2.4577740e-04
 -6.4612912e-05
 -6.3886563e-04
 -6.0521044e-05
 -4.3117172e-05
  8.1631518e-04
 -2.8015891e-04
  5.7952199e-04
  1.2033037e-04
  5.1969845e-02
  8.9256256e-04
 -4.9531291e-04
 -4.1156946e-04
  2.8356173e-04
 -4.5191319e-04
 -3.5071629e-04
 -5.5618654e-04
 -3.6739826e-04
 -1.0267133e-05
 -2.3865895e-04
  9.6068569e-02
 -2.7858287e-01
  2.7274757e-04
  8.0768538e-01
  9.7712219e-02
 -9.8370904e-01
 -7.3460412e-01
 -4.0914634e-01
  4.6053693e-02
  8.1022619e-05
 -1.2289589e-04
 -1.6115166e-04
 -1.0602226e-03
  1.5529068e-03
  5.5808538e-01
 -2.5570452e-01
 -7.9077383e-04
 -1.3118268e-03
 -6.3597107e-01
  4.8756465e-01
 -8.3216187e-04
  1.8810053e-01
  1.1142533e+00
  4.0367700e-04
 -7.9543097e-05
 -5.0226209e-04
 -5.3809519e-04
  9.1844872e-02
 -1.6755742e+00
  4.9326504e-03
  2.7951816e-01
 -5.4999769e-01
  2.8103660e-03
 -2.5667578e-01
 -6.2337953e-01
 -7.6227891e-01
  4.3717128e-01
  1.7378776e-01
  1.3210672e-01
 -1.2201322e-01
  9.4803264e-03
  2.1946287e-01
  1.3548849e-02
 -3.3140566e-02
 -6.0260034e-01
 -1.8488876e+00
 -1.0137592e-04
  1.7149831e-01
  2.6523045e-01
  1.8824579e-01
 -4.7247872e-02
 -7.7821076e-01
  3.9066333e-01
 -5.0665915e-04
 -1.5001389e-01
 -2.9690754e-01
  1.2674744e-04
  2.0864074e+00
  4.3881851e-01
  1.1641012e-02
  1.6386840e-03
  3.0431827e-04
  1.2869201e+00
 -1.8108916e-01
  1.3777381e-03
  8.4975100e-01
  8.3059996e-02
 -3.6841795e-02
 -7.5188116e-05
 -9.8739100e-01
 -6.0787044e-02
  9.6161604e-02
  9.0974419e-05
  4.5209882e-01
 -5.1844347e-01
  6.1609051e-03
  1.4972556e-01
  1.0441940e+00
  6.1660624e-01
  8.0024916e-01
  1.2019471e-01
  3.2476132e-04
 -1.6650085e-04
  3.3476463e-01
  1.3426800e-01
  9.9209754e-04
 -4.7217330e-01
 -1.3057975e+00
 -2.5533561e-02
  5.8992978e-02
  1.3395392e-04
 -1.1616509e-01
  5.0947201e-02
 -3.5051471e-01
 -2.0157157e-02
  1.5153629e-01
  5.7381803e-01
 -5.5759412e-04
 -7.3445112e-02
 -5.9859324e-01
 -3.4789508e-04
 -6.3619572e-01
  3.1258247e-04
  4.1488882e-02
  8.2791019e-03
 -7.5979263e-04
  5.2286029e-01
  1.6017904e+00
 -3.6504009e-01
 -1.8817513e-01
  5.3936559e-01
  7.7922828e-05
  1.0982869e-03
 -5.2067544e-04
 -5.9878558e-01
 -4.1391751e-01
 -8.4410191e-02
 -2.1489845e-01
  6.7861140e-01
  4.1108617e-01
 -5.0827232e-04
  5.7937670e-04
 -4.0478939e-01
  4.5559016e-01
  6.3587797e-01
  2.6779717e-01
 -1.5630122e-02
 -9.7283535e-04
  8.3346277e-01
 -1.7933882e+00
  2.0795104e-01
  5.5398965e-01
  1.5979505e+00
 -7.8541100e-01
 -3.4353558e-02
 -8.7235183e-01
  1.5148507e+00
  7.9612619e-01
  6.2842304e-01
 -3.0676235e-02
 -9.0620393e-01
 -2.9212519e-04
  4.5606527e-02
 -1.3364921e-04
 -3.5131562e-01
 -5.8008271e-01
  1.5899338e-04
 -5.4213742e-05
 -1.9215599e-01
  4.2381047e-04
  8.1670541e-01
  2.5490507e-01
 -1.3010383e-01
 -4.4123405e-01
 -1.0828491e-03
 -8.7429780e-01
  8.2096449e-05
  3.2410774e-01
  1.2410487e+00
  1.1323781e-04
 -1.8725129e-03
  2.0848083e-01
 -7.1726263e-01
  6.1667013e-01
 -3.7039339e-04
  2.6948613e-04
  4.3506595e-01
 -1.4854554e-02
  1.0618979e-01
 -6.1268188e-02
  2.5148869e-03
  5.8528197e-01
  7.0579910e-01
  2.4841522e-01
 -2.9863551e-01
 -3.8647790e-02
 -1.2637411e+00
  6.2896609e-01
  4.5135498e-04
  6.1557227e-01
  1.5902332e+00
 -4.2272884e-01
 -7.8633249e-01
 -1.4610228e-01
  3.6803004e-01
 -2.8660742e-04
 -1.7670043e-01
 -1.0915671e-03
 -4.1668527e-04
  5.5011443e-04
 -1.4060574e-03
 -4.6718188e-04
  9.2331499e-02
 -2.1113752e-01
 -1.2409726e+00
 -1.1555266e-01
  1.3191203e-04
 -5.8392048e-01
 -7.2520161e-01
 -1.0875569e-01
 -5.0363055e-04
  5.2908480e-02
  8.8867456e-01
  4.8563409e-01
  5.8285666e-01
  5.6485053e-02
 -3.3269396e-01
 -1.7300367e+00
  6.3925399e-03
  6.8723923e-01
  3.2815240e-02
 -2.9632714e-01
  1.5180871e-01
  7.9097698e-04
  1.1471737e-01
  1.6679322e-04
  1.1675439e+00
  4.2285699e-01
  4.9378091e-01
  4.6829799e-01
 -1.6365163e-02
 -1.5624394e+00
 -2.9925051e-01
  5.8781660e-01
  3.5569203e-05
 -4.8519272e-01
  1.4583595e+00
  6.9039625e-01
  1.3278356e+00
 -3.8577466e-05
 -4.1826034e-04
 -5.8745785e-04
 -9.0697024e-04
  4.1428764e-05
 -6.8759948e-02
  2.7533346e-03
 -8.3321911e-01
 -9.7442591e-01
 -2.9263934e-01
  1.4196552e-01
  1.3709641e-01
  1.1098504e-02
  3.4598997e-01
 -5.5276399e-04
 -1.6405137e-04
 -3.2425857e-01
 -2.9680623e-02
 -1.5461019e+00
  1.9639749e-02
 -9.2619431e-01
  8.7582225e-01
 -5.6399471e-01
 -2.4180013e-05
  7.5158425e-02
 -3.7634391e-02
  1.1977518e-01
 -3.4707138e-01
  1.4408581e+00
 -2.5931218e-01
 -5.6933463e-02
 -1.0327435e-01
  6.8301803e-01
  5.8243615e-03
 -6.4064389e-01
  2.7180248e-01
 -8.1342733e-01
 -1.7434804e-01
  3.0208656e-01
  4.6628714e-01
  4.7226387e-01
 -6.5528029e-01
  2.0907339e-01
 -2.7135049e-03
  4.2950688e-04
  1.9738567e-01
  2.7450042e-02
 -1.6791375e-01
 -1.1897860e+00
  1.1550620e-04
 -1.8558612e-01
 -5.0873263e-04
 -8.1060221e-05
 -5.1573920e-06
 -1.5775423e-04
 -2.9368559e-04
 -1.4793879e-04
 -1.5957300e-04
  9.7399089e-04
 -5.1227282e-04
  2.6423731e-04
  2.2868090e-03
 -1.1213707e-03
 -4.4433874e-04
 -1.3233799e-03
 -1.4259480e-05
  7.2180090e-04
  1.0007549e-05
 -1.2699542e-04
 -9.1252581e-04
 -1.5581249e-04
  1.0502368e-04
  4.6496073e-04
 -2.6728023e-05
 -1.7071140e-03
 -5.9221940e-05
 -5.9342798e-05
  9.7134696e-05
 -4.4321725e-01
 -1.2981305e-04
 -3.6424020e-04
  2.5190375e-04
  5.5889809e-04
 -3.0158386e-05
  3.3690612e-04
 -1.2687240e-04
  6.3417014e-05
  6.2812486e-04
  9.9233133e-05
  5.9491105e-04
 -3.3937849e-05
 -4.5620717e-04
  9.1640381e-05
  1.1629461e-03
 -1.7356640e-03
 -2.9573959e-01
 -1.3579357e-04
 -4.3749709e-02
 -1.0476689e-02
  2.2348592e-01
  1.1846648e-03
  1.8305278e-01
 -9.1991285e-03
  1.0204029e-04
  2.7242160e-01
  1.4020245e-01
  1.2460543e-01
  1.6407952e-02
  3.7759310e-01
  2.7268503e-02
 -5.3060852e-02
  5.6856549e-01
  1.1960959e-01
  5.2011216e-01
 -1.7756404e-02
 -4.3671381e-02
 -4.4295441e-02
  4.7876933e-01
  1.6917890e-01
  5.5031246e-04
  2.8464505e-01
  3.8451239e-05
  4.3578133e-02
  7.7747600e-03
  1.5465030e-01
 -2.4378763e-03
 -1.8910812e-01
  2.4597652e-03
 -2.7630711e-01
 -1.2168058e-02
  2.3400886e-03
  7.6397695e-02
  9.3155302e-04
 -6.5155017e-01
 -7.6933250e-02
 -5.7403143e-02
 -9.3843862e-03
 -1.8666996e-01
  3.8281980e-01
  8.5335592e-04
  3.3994872e-04
  3.7354018e-04
 -1.7369094e-03
  3.3509001e-05
 -5.0010369e-04
 -4.5596762e-04
 -1.1058000e-04
  2.4934261e-04
  1.7060909e-03
 -9.0848087e-05
  3.7765881e-04
  5.5343204e-05
 -7.5962613e-05
  6.4045162e-06
  4.9174693e-04
  3.6024989e-04
  2.9223264e-04
 -5.9655006e-04
 -2.2301391e-04
 -7.3102745e-04
 -3.7140207e-04
  5.2144445e-05
 -6.5714448e-06
  9.9744182e-04
  1.5461055e-04
 -5.3624761e-05
  7.0647232e-04
 -1.1224426e-04
  5.8027916e-05
 -3.2993907e-04
 -2.9815326e-05
 -6.2706450e-04
 -4.2639556e-05
  1.0240466e-03
 -8.9492684e-04
 -1.4337523e-04
 -3.6802705e-04
 -5.5345421e-04
 -3.2095057e-05
  3.3748153e-04
  8.5649357e-05
  1.0147675e-04
 -7.2310082e-05
  7.4762404e-01
  4.7463802e-01
  1.1115224e+00
  8.0197269e-01
  1.6060422e-04
  5.7318819e-01
 -6.5458721e-01
 -3.5536832e-01
 -2.4567086e-01
 -1.2338177e+00
 -5.1443979e-02
 -3.8718842e-02
 -2.3685900e-02
  1.9966711e-01
  4.8981294e-01
  5.6078380e-01
 -1.1456978e-04
  1.7125316e-01
  8.6034262e-01
 -3.5633597e-01
  2.0409600e-04
  6.6875987e-02
  7.7624224e-02
  5.5413729e-01
  5.3435255e-02
  6.4462185e-02
 -6.5844482e-01
 -1.1158557e+00
 -4.1032579e-02
 -3.2242301e-01
  8.9655092e-05
  6.6339850e-01
 -1.4449582e-01
  1.2184815e+00
 -4.5675024e-02
 -1.0544724e-01
  5.6708032e-01
 -2.7237192e-01
 -9.2779109e-03
 -7.6798117e-04
  1.8197437e-01
  7.5743121e-01
 -1.4006476e+00
 -3.7791621e-02
  4.5687988e-01
 -3.5931668e-03
  1.4679515e-01
 -2.8000724e-01
  6.2638242e-04
 -2.5440553e-01
 -1.5883180e+00
 -5.6377667e-01
  4.9106765e-04
 -4.4736087e-01
 -3.5557064e-01
 -2.0240740e-01
 -7.6428735e-01
 -6.5583706e-01
 -3.2148844e-01
  1.2200023e-01
 -3.2141614e-01
 -4.8168864e-02
 -1.9342528e-03
 -1.5750029e+00
  5.6752592e-01
 -8.0467507e-05
 -1.1826289e-01
 -4.4100010e-01
  1.0791357e+00
 -3.3200952e-01
 -3.7748191e-01
  2.1611080e+00
  1.5817900e-01
  1.4501593e-01
 -8.7001272e-02
 -3.3456311e-01
  3.0509770e+00
  4.0612635e-04
  2.7157652e-01
 -4.7754997e-01
  4.8722962e-01
 -7.7235157e-04
  9.4583794e-04
  1.5465304e-04
 -1.6239165e-01
  5.5660033e-01
  1.1086798e-04
 -1.9321735e-04
  4.5155138e-01
 -1.3498944e-01
 -9.4240826e-01
 -1.0898323e+00
 -7.8087338e-05
 -3.5395257e-02
  6.2749559e-01
 -1.6148828e-03
 -5.2581279e-05
 -7.0223087e-01
  4.5370981e-01
 -1.8620005e-04
 -1.4682034e-02
  1.6034751e-04
  1.0302702e+00
  1.6606481e-01
 -4.5059308e-02
 -1.6918868e-01
 -4.6706480e-01
  2.1676040e-01
 -1.5166341e-01
 -5.2298859e-02
 -1.2770203e-01
  4.4545199e-04
 -4.6713449e-02
  9.2842529e-06
 -9.8336734e-02
 -5.6238323e-02
 -5.5734533e-01
 -8.4954369e-01
 -1.2848850e-02
 -2.2197032e-01
  1.4570907e-01
 -1.3841480e-05
 -1.3942522e-03
  3.0457774e-01
  2.3882699e-01
  3.8279508e-05
 -1.7868225e-04
  2.0068299e-04
  1.9854967e-01
  7.2722512e-01
 -4.3936147e-04
 -5.4826296e-04
 -2.4233887e-04
 -1.0053263e-04
 -1.8111972e-05
 -9.7363582e-04
  1.5869367e-04
  9.7668642e-05
 -1.2752571e-03
 -8.7268208e-04
 -5.5234827e-04
  9.6331490e-04
 -5.7805799e-05
  1.9069776e-04
 -5.5551901e-04
 -3.9813048e-04
  1.2703742e-04
 -1.2330071e-04
 -1.0390485e-04
  1.6774720e-04
  6.5016022e-05
 -1.4353038e-05
 -4.2944099e-05
  3.9988980e-04
 -1.4347726e-04
  7.4735354e-04
 -4.0420587e-04
  6.2481756e-04
  2.5019905e-04
 -6.5724336e-05
 -5.3379510e-04
  1.0172420e-03
  3.7918889e-04
  4.8591330e-04
 -1.0542758e-03
 -2.0059431e-04
  2.0863680e-04
 -7.0487025e-05
  1.1816900e-03
  2.6123581e-04
  1.4745805e-04
 -3.7793902e-04
  4.1027600e-04
  7.4328162e-04
  2.0186644e-04
 -4.0226316e-04
  4.5162847e-04
 -1.6397101e-04
 -3.2093455e-04
 -3.2411775e-04
 -1.7208364e-04
  3.6245724e-04
  2.7477081e-04
  7.0108857e-05
  3.7650095e-04
  2.6846779e-04
 -3.3424098e-05
  2.8190625e-06
 -1.6264494e-04
  3.2275345e-04
  4.9330712e-05
  2.9177552e-05
  1.1614739e-03
 -9.2210539e-06
  2.1652908e-04
  1.5198650e-04
 -2.4210001e-04
  4.3756294e-04
  6.2839914e-04
  2.8871032e-04
 -5.7888028e-05
 -4.8040948e-04
 -3.3488017e-04
 -5.8723715e-05
 -1.6163691e-04
 -3.2381542e-04
 -5.0032904e-05
  2.0420665e-03
 -3.2507846e-04
 -6.3512701e-04
 -8.5552089e-04
  1.4578259e-04
 -1.2413516e-04
 -8.2747662e-04
  5.2774115e-04
  1.1559018e-04
 -1.3540848e-06
  3.3936853e-04
 -2.1133984e-04
 -2.2407307e-04
 -5.5484945e-01
  2.7034474e-03
  4.2336589e-01
 -7.8605682e-01
  4.7163779e-01
 -2.2612658e-01
 -2.2369416e-01
 -1.3059326e-01
  6.0129695e-04
  9.8007239e-02
 -5.7816988e-01
  1.6479397e-01
  1.2915625e-01
 -4.6722203e-01
  1.9068220e-01
 -3.6349937e-01
  1.9240035e-01
  2.6865402e-01
  5.0033879e-01
  1.1169287e+00
 -2.2975336e-01
 -2.4017769e-01
 -4.3074851e-04
  1.0516632e-01
  7.0850864e-02
  4.7506049e-01
 -6.9106437e-02
  1.8740906e-01
 -5.5153501e-01
 -3.8460144e-01
 -2.1206097e-01
  5.5793822e-01
 -3.8888287e-03
 -3.1374273e-01
 -4.9216881e-01
  3.7350988e-01
 -3.2598221e-01
 -6.2793033e-04
 -4.7189248e-01
 -4.1404217e-03
  2.7743768e-04
  5.3596395e-01
 -2.6656364e-04
  3.7296236e-02
  7.9200258e-03
  3.7237623e-05
 -6.2091916e-04
 -2.3505870e-04
  3.8775220e-04
  8.8792027e-04
  2.4997824e-04
  1.0363949e-03
 -9.3239616e-04
 -7.9651410e-04
  2.4152371e-01
 -1.1836607e-03
  3.5358331e-04
 -3.4840041e-04
  3.6925287e-03
  9.5658743e-06
 -1.3487652e-04
 -4.4115505e-04
 -1.9997354e-04
 -4.3703400e-04
 -2.6543156e-04
  1.1244389e-05
 -2.3423083e-05
 -5.4978143e-04
 -4.5373815e-04
  7.5043034e-05
 -9.5814270e-05
 -4.3638057e-01
 -8.1872728e-05
 -1.7350602e-01
  1.5018681e-02
 -2.0562811e-04
  3.4534823e-04
 -8.0909848e-02
 -5.7270139e-04
 -8.4791827e-04
 -3.1045038e-04
  5.1454699e-04
  2.5821186e-04
 -3.9507603e-04
  2.2360154e-04
  8.6531538e-05
 -2.6162103e-04
 -2.2109528e-03
  5.2406249e-06
  2.9258613e-04
 -2.8532209e-05
  4.7664526e-03
 -2.2203477e-01
  2.0673276e-04
 -1.0892804e-01
  2.6040750e-03
 -1.0065544e-04
 -9.7471416e-02
  9.3873665e-02
 -4.7205184e-02
 -3.2066214e-01
 -3.7760932e-02
 -5.1667702e-01
  1.2814446e-01
 -3.1882945e-02
 -9.4815660e-03
 -2.4594034e-01
  7.8429587e-02
 -4.5421175e-03
  1.2269200e-05
 -6.4522780e-02
 -1.2895701e-02
 -7.9690025e-04
  1.0057107e-04
  2.5371180e-04
 -6.6308316e-04
 -1.5823225e-03
 -1.9362475e-03
  1.3515792e-03
  2.1220662e-01
  5.5812113e-02
  4.8450768e-02
 -1.2170992e-01
 -1.8118742e-03
 -1.0361306e-04
  5.5414613e-04
  2.4568165e-02
 -1.6237715e-02
  1.2103702e-04
  4.1902470e-03
  1.6209939e-02
 -9.2476271e-03
  7.7444135e-04
 -2.3448061e-04
 -1.0312558e-03
  1.1188370e-02
  2.3766080e-04
  3.3640588e-04
 -1.0091921e-03
  1.5634649e-03
 -1.1893515e-04
 -1.1178848e-03
  4.3655463e-02
 -3.8120627e-02
  1.9698539e-03
 -2.7040055e-02
  6.7559563e-02
  1.0347821e-01
 -5.5271559e-03
 -6.6461028e-03
 -1.9850355e-01
  4.8095848e-02
 -7.3602045e-04
 -6.5268419e-04
  1.2861421e-04
 -5.5550784e-04
 -2.2233967e-03
  3.7400686e-04
 -2.2252174e-03
  2.4941064e-01
 -6.9003855e-04
 -2.1249738e-03
  1.0115416e-03
  1.5805980e-04
  6.3617774e-03
  1.6106499e-03
 -1.7876023e-02
 -1.3956149e-03
  1.3528677e-03
 -2.1385526e-02
  1.9212511e-03
  1.8561656e-03
  3.8438884e-06
  8.2577538e-04
  7.7043957e-04
 -7.1176194e-04
 -1.3435594e-04
  8.3119859e-04
  1.1070371e-03
  4.3295251e-05
 -7.9121179e-04
 -9.8437094e-04
 -4.8058195e-04
 -1.0540726e-02
 -2.0905846e-04
  2.0031229e-04
 -3.0250225e-04
 -1.4492490e-04
  1.1163544e-03
 -1.8349956e-04
 -5.4239976e-04
 -1.3318458e-02
 -3.3670472e-04
 -8.6607941e-04
 -3.3825502e-04
  3.2923536e-04
 -4.3610809e-04
 -1.0905286e-04
 -2.5255227e-04
 -1.5613122e-04
 -2.7789650e-04
  2.6813112e-04
 -4.1943553e-04
 -5.7054049e-04
  9.9937955e-05
 -2.9032995e-04
 -6.3457596e-04
 -4.8448594e-05
 -2.0620662e-04
 -1.0824583e-04
 -7.5469026e-05
 -1.1543551e-04
 -1.2860286e-04
  4.0282196e-04
  1.9914623e-05
 -5.7496567e-04
 -2.8566271e-04
  4.5425273e-04
  3.5013763e-05
 -6.5645967e-05
 -6.7827594e-01
 -2.8072707e-03
 -3.1012142e-02
  3.6057156e-01
 -1.4160828e-03
 -4.7219819e-01
 -5.3989172e-01
 -4.4616824e-01
  1.0651343e-03
 -1.3020196e-02
 -1.3936241e+00
 -7.4145437e-04
 -4.7810255e-03
 -8.0326729e-02
  2.1156196e-01
 -1.9981638e-01
 -1.8649696e-01
  8.8284731e-05
 -9.0182051e-02
  4.6000949e-01
 -1.1612501e+00
 -2.9666802e-01
 -1.5427289e+00
  1.6868362e-01
  1.1360003e-01
  5.0845068e-02
 -1.7778022e+00
  1.2240690e+00
  5.2761865e-01
  2.2433011e-02
 -2.9780483e-01
 -3.5277507e-01
  3.8394067e-01
 -6.6336578e-01
  1.9509843e-02
  3.8343748e-01
  4.3324862e-02
 -1.0572036e-03
  2.3384897e-01
  7.2507709e-03
  1.7039126e-01
  3.3925602e-01
  6.3518588e-03
 -6.0125842e-04
  3.4863359e-01
  1.4560785e-03
 -6.7604898e-04
  1.0336504e+00
 -1.6095533e-04
  1.3755157e-04
 -6.8239341e-03
  2.4304762e-04
 -4.8220536e-06
  2.9214194e-01
 -6.8617424e-05
 -1.9125418e-03
 -6.9748546e-04
 -1.0880047e-03
 -9.2396379e-02
  2.3984608e-01
 -3.9494872e-01
 -6.5682754e-02
 -2.7556685e-03
  6.7782059e-02
 -9.5373933e-04
  2.2530759e-04
 -3.2014636e-04
 -6.1687257e-04
 -3.2862189e-04
  5.7990779e-04
 -1.6321419e-04
  4.0117732e-01
 -5.9376094e-03
 -6.3180313e-02
  8.1502585e-06
 -6.1671472e-01
 -3.4949084e-05
  3.1253179e-03
 -4.4824096e-04
 -5.2040699e-04
  6.2863328e-02
  2.1525283e-04
  2.0641498e-03
 -3.4287685e-04
 -7.0134694e-05
  1.9219891e-03
 -9.5093099e-05
  2.4793966e-04
  3.5323727e-01
 -5.7918314e-02
 -7.8026819e-01
 -4.7678897e-01
 -2.5007576e-02
  9.9919206e-03
  6.0709734e-02
  3.7876729e-04
  4.9610180e-04
 -4.2466769e-01
 -1.3626091e-01
  7.1376197e-02
  1.9377757e-04
 -7.6709199e-01
  3.7506536e-01
 -9.8499015e-02
 -6.5171123e-02
 -9.3095256e-03
 -3.8328469e-02
  4.7892278e-01
  3.7712553e-01
 -3.3380557e-02
 -4.7581872e-01
 -6.1313927e-02
  3.0079499e-01
 -8.3111966e-01
 -1.3959849e-03
  3.5186100e-01
 -8.6573269e-03
 -5.7160515e-01
 -1.3350236e-01
 -2.3264561e-02
  7.2449155e-02
  9.0595973e-01
  4.6678497e-03
 -9.7540254e-04
 -6.5801954e-01
  7.8648282e-04
  2.6856136e-01
  8.9435832e-04
  3.6674300e-03
 -5.6846153e-02
  1.1879979e-02
  5.1718066e-04
  6.6476977e-01
  2.4194928e-02
  4.0760193e-02
 -5.4171318e-01
 -4.0444690e-01
  7.5844467e-01
 -1.5774408e-01
  5.3540874e-02
  6.4294471e-04
 -4.8399773e-01
 -1.3023885e-01
 -1.3647790e-01
  2.2036698e-01
 -1.1803478e-02
  1.5648525e+00
 -1.3031100e+00
  4.2053306e-04
  7.1499124e-02
 -8.4522170e-01
  2.2110424e+00
  1.7374101e-01
 -5.2361023e-03
 -1.5919874e+00
 -2.7013361e-01
 -2.0261860e+00
 -4.8937801e-01
 -7.1135759e-01
  1.1365183e-02
  5.9233958e-01
  7.1879566e-01
  6.7812055e-02
 -7.2518784e-01
 -4.6104941e-01
  4.3221644e-01
  3.9121178e-01
  6.1474031e-01
 -8.0517387e-01
  1.5288182e-01
  7.5671196e-01
 -3.1210016e-05
 -5.1362979e-01
 -4.1561627e+00
  9.5687455e-01
 -3.0254709e-04
  1.1426020e-01
  7.2436046e-04
  1.6830610e+00
 -1.0138201e+00
 -3.9445866e-02
  2.8898722e-01
 -1.6137402e+00
  1.8950123e+00
  5.7334238e-01
 -8.7094480e-01
  1.1595681e+00
  6.2836212e-01
  5.3547668e-01
 -7.9208302e-01
  2.4226263e-01
 -3.2554567e-02
 -2.1421315e-01
 -1.6658977e+00
 -9.5325470e-01
  1.9259481e-01
  2.8627868e+00
 -6.7519233e-02
  1.1415663e+00
 -1.2545714e-03
 -5.1833481e-02
 -9.8637497e-01
  2.2444977e-01
 -1.4335537e+00
 -9.3314326e-01
  1.7965783e+00
  1.6045034e-01
  1.1487658e+00
  9.7593397e-02
  2.5306329e-01
 -1.8733935e-02
  1.0655888e-01
  9.2247134e-01
  1.6207781e-01
 -5.3211441e-04
  3.4715480e-04
 -2.5966973e-03
 -4.1413221e-01
  4.2519584e-01
  2.2514838e-01
 -2.6182897e-04
 -5.2274961e-04
 -3.5552982e-02
 -1.5580367e-04
  4.8593612e-04
  5.1272160e-04
  6.5272397e-06
 -5.4805820e-05
 -3.9876188e-04
  1.4003291e-03
 -6.8935513e-04
  4.9128947e-03
  6.1255693e-04
  3.3793217e-04
  2.5545899e-03
 -1.0452379e-04
 -1.2500401e-04
  7.9111214e-04
  1.7381493e-02
 -6.8693754e-04
  9.0837551e-05
 -3.9031127e-04
  4.3969313e-04
  4.7660439e-04
  5.9489405e-04
 -4.3506324e-02
 -2.8034547e-04
  3.0092695e-01
  2.1209496e-04
 -1.5827795e-04
  3.9122405e-04
  7.8437937e-05
  2.3757381e-02
 -1.9973204e-04
  1.3045297e-04
  1.2422244e-05
  6.1270701e-05
 -2.0511349e-04
 -8.9436723e-04
 -6.4417685e-04
  2.0755857e-04
 -1.5817548e-04
  2.5556004e-04
 -4.5102864e-04
  1.7468055e-04
  7.6801702e-04
  3.7585575e-02
  5.2432400e-01
 -7.8349531e-02
  2.8412585e-04
 -4.5738202e-01
  8.5374538e-04
 -1.4418474e-05
 -1.6199301e-01
 -5.9834968e-02
 -2.3976842e-01
 -9.9560758e-04
 -9.1125250e-02
 -4.8314840e-01
 -1.6281925e-03
 -3.8953334e-01
 -2.9183796e-01
 -5.7757926e-01
  4.1076593e-02
 -8.1143552e-01
  9.2265043e-05
 -2.1018828e-01
 -5.9283961e-02
  9.4791949e-02
  2.7864298e-06
  3.0968803e-01
 -1.9268684e-02
 -3.0553165e-01
 -1.9237615e-01
 -4.3931831e-02
  1.3862836e-02
  6.1371145e-05
  4.7793046e-02
 -3.4888569e-01
 -6.3489901e-04
 -1.4594175e-01
 -9.0119211e-05
  2.0331211e-01
  5.8873702e-04
  7.3226664e-04
  4.8604561e-03
  9.4541773e-02
 -4.5076967e-03
  6.0752427e-05
  7.8670801e-06
 -4.1510903e-06
 -5.0344504e-04
  1.8412326e-04
  3.2233071e-04
 -2.5441148e-04
 -2.3780181e-04
  3.7558726e-04
  5.3677912e-04
  4.2105246e-05
  1.1249381e-04
 -3.4902798e-05
 -8.3713574e-05
  1.3034850e-03
  1.1312169e-03
  6.5339373e-05
 -2.4461886e-05
  1.3010905e-03
 -3.5390750e-04
  1.1591958e-04
 -7.3118455e-04
 -5.6808547e-04
 -2.9144925e-04
  7.7231212e-05
  3.8751547e-05
 -1.0407050e-04
  1.0733948e-03
  3.5312941e-04
 -2.8713976e-06
 -2.3392212e-04
 -1.4186730e-03
  7.3824551e-05
 -1.4794705e-04
  1.2033029e-03
 -7.1169061e-06
  2.5118021e-05
 -4.6759107e-04
 -2.9715757e-05
  7.5084629e-04
  1.4589914e-03
  6.9922453e-04
 -5.5448595e-04
 -2.5674194e-04
 -2.0132735e-04
 -5.3886417e-04
 -1.2914544e-04
 -3.1942542e-04
  1.7633520e-04
 -1.6606501e-03
  1.5274670e-03
  2.1860993e-05
  4.5118207e-04
  3.9257779e-05
 -1.1902200e-04
 -6.9211272e-04
  5.8284550e-05
  1.1615651e-03
  4.1897441e-03
  3.0355674e-05
 -2.2046780e-04
  4.8064819e-04
 -6.3217230e-05
  3.4945420e-05
  1.9287869e-03
  3.4829709e-04
  8.5303816e-04
 -5.9276426e-05
 -4.7517064e-04
 -5.4601417e-04
  3.5508958e-05
 -1.0001673e-05
 -2.2308905e-04
  1.7942334e-04
  3.3520552e-04
  7.4864924e-04
  4.5398629e-04
 -4.9431244e-04
  5.6798992e-05
  8.5630460e-04
 -1.5259956e-04
 -1.4277846e-04
  4.3669256e-04
 -2.7357944e-04
  1.4347746e-03
 -3.9112190e-04
 -1.7734743e-03
  1.2832746e-03
 -9.7763434e-05
  1.2529737e-04
 -1.5093270e-04
  1.5846230e-04
 -6.9265481e-04
  4.9441156e-04
 -1.1986436e-02
  3.1662171e-04
  4.7063042e-04
 -6.7956542e-04
  1.8783299e-02
 -9.2773909e-05
 -8.6799409e-05
 -7.5829215e-04
 -6.9286160e-02
 -7.2586256e-05
 -1.0804465e-03
 -7.3129340e-04
 -4.0628645e-04
 -1.0715159e-04
 -1.2414386e-03
  3.0175305e-04
 -6.6080294e-04
  3.5384677e-05
 -1.8627362e-03
 -4.0558231e-04
  1.6772376e-04
 -1.6675155e-03
 -2.9230752e-04
 -9.3420946e-05
  1.9504127e-04
  1.0572167e-02
  4.2806877e-04
  5.9654843e-04
 -4.3977692e-04
 -3.8224208e-04
 -8.3694194e-04
  3.6616108e-04
 -3.9600974e-04
  2.7694594e-04
 -3.0091382e-04
  1.1277429e-03
 -1.5658370e-04
  1.3907778e-04
 -1.2541460e-04
 -7.7373988e-05
  1.0426827e-03
  4.4454349e-04
 -1.4325674e-04
  2.2333371e-04
  5.6150474e-04
 -2.1923224e-05
  5.8097685e-05
  6.1223029e-05
 -4.7266425e-05
 -2.6324057e-04
 -1.4310528e-03
 -1.5838121e-03
  8.0349343e-04
  1.2266907e-04
  2.2215545e-04
 -6.0779625e-04
  5.0481696e-05
  7.4946252e-04
 -8.2251951e-05
  9.4636768e-04
 -2.1550457e-04
 -1.5267000e-03
 -2.3129083e-05
 -1.3259807e-05
  2.9187603e-04
 -4.1411072e-04
 -1.5426545e-03
  5.4951553e-04
 -5.7950406e-04
 -2.7791859e-04
 -8.6062425e-04
 -8.9200155e-05
 -2.8227418e-04
  1.1554440e-04
  4.4012757e-04
 -9.3218079e-04
 -7.1955693e-04
  2.5303813e-04
  3.3850310e-04
  2.7197402e-04
  1.3489762e-04
 -5.3617894e-04
 -2.3876232e-04
 -9.8630717e-06
  3.3419899e-05
 -5.3230251e-06
  3.4198558e-04
 -1.2597519e-03
  1.1824956e-03
  1.3495746e-04
  5.7998730e-04
  8.3652133e-04
  1.0905324e-04
  5.3748270e-05
  1.8208090e-04
  4.9162813e-04
  2.5669113e-04
  4.6046620e-04
 -3.5222998e-04
  8.9375791e-04
  1.2674552e-04
 -5.7493307e-05
  3.3619304e-04
 -1.9630136e-04
  4.0656023e-04
  3.0176886e-04
  1.9766841e-04
 -2.9370369e-04
  1.1672534e-03
 -4.1329920e-01
 -3.0875724e-04
  1.0844261e-04
  1.7055833e-04
 -2.7427205e-04
  1.1016083e-03
  3.7186634e-04
  2.6965170e-04
  3.8652794e-04
  3.2620132e-04
  2.5068500e-04
 -6.5789069e-04
 -9.1577633e-05
 -1.3121922e-03
 -3.3073223e-04
  8.3706502e-05
  1.2549740e-04
 -1.5912244e+00
  1.4859360e-01
  1.2816013e+00
  1.1201419e+00
  8.4782863e-01
 -7.1670086e-04
  2.4290054e-01
 -9.1723830e-04
  3.5400447e-01
 -4.7294241e-01
  2.5065115e-01
  9.5649433e-05
 -4.0175641e-04
 -9.4868690e-01
 -1.5370329e-01
 -3.6436380e-04
 -1.6325349e-02
  6.4610614e-04
  3.6883470e-01
  5.0907701e-01
 -4.6032075e-02
 -2.0764053e-01
  1.2457986e+00
  2.3591887e-04
 -6.8017775e-01
  2.2269778e-04
  1.2536647e-04
 -7.8629656e-04
 -1.2675677e-04
 -1.4691241e-04
  2.7834260e-01
 -2.6906517e-01
  3.4939250e-01
  4.2903668e-01
 -1.0376180e+00
 -1.1914425e-01
  5.9185177e-01
  3.6337111e-02
  1.0880551e+00
 -1.0223577e+00
 -2.3898536e-01
 -9.1842264e-03
  7.3220034e-04
  5.5654073e-01
 -7.7016346e-02
 -3.4491041e-01
 -2.3001972e-01
 -3.1074783e-02
 -5.1206607e-01
 -2.2301526e-01
 -3.6261505e-01
 -3.9489716e-01
 -6.6420579e-01
  1.5745194e-01
 -3.2728657e-01
  4.0161964e-02
  7.5496443e-02
 -1.2439038e-01
 -2.2497918e-02
 -1.8588622e-03
  6.7570239e-05
 -1.7650652e-04
 -1.2590966e-04
 -3.0378360e-04
  4.0609381e-04
  1.2929377e-04
 -1.8330915e-05
 -6.4049033e-04
  4.6655833e-04
  1.1353249e-04
  8.5563574e-04
  1.0958109e-03
 -9.5021809e-05
  1.2918115e-05
  1.0955264e-03
 -5.8209745e-04
 -7.0956470e-05
 -7.3252013e-04
  3.0444379e-04
 -8.0214726e-05
 -1.7183366e-04
  4.5315822e-04
 -1.3061534e-04
  2.7946767e-04
 -4.9374107e-04
 -1.0763993e-05
 -1.1165252e-04
 -6.0452987e-04
 -5.7933681e-05
  8.5191074e-04
  4.2774118e-04
 -3.0904653e-04
  1.2561804e-04
 -8.7913169e-05
  3.3168780e-04
  7.2342853e-05
  1.6763098e-04
 -7.3398981e-04
 -2.9691812e-04
  7.2268932e-04
  5.0155471e-05
 -5.1253999e-04
  3.4531704e-04
 -1.3895557e-04
 -5.8356777e-04
 -6.7620393e-04
  5.6215489e-05
 -1.5796497e-04
 -8.6274522e-06
  7.1149890e-04
  5.4554240e-04
  1.3284784e-04
 -5.1349832e-04
 -3.4410179e-05
 -1.4745397e-04
  5.0050661e-05
  8.9631190e-05
 -1.9372016e-04
 -9.3769369e-04
  1.8322402e-04
  6.3447829e-04
  4.5225235e-05
  3.0552212e-04
  5.2985310e-04
 -6.7900127e-04
 -2.5745408e-04
  1.3458895e-04
 -1.2622692e-04
 -6.4244331e-04
 -3.8865523e-04
 -4.0400046e-06
 -3.4336065e-04
 -1.8008197e-04
 -1.0167423e-06
 -2.9544727e-04
  1.1888978e-03
 -2.2350815e-04
 -2.6401188e-04
 -8.2196762e-05
  3.7297883e-05
 -3.0071038e-05
  5.5415163e-05
 -4.3385942e-04
  1.9346953e-05
 -5.1818567e-04
 -1.3980291e-05
 -4.3015007e-05
 -1.8303148e-03
 -6.2882807e-04
 -2.9881767e-04
 -4.0485070e-04
 -9.8432996e-04
 -3.6643411e-04
 -1.1840800e-03
  4.3270469e-02
  5.4536189e-04
  1.2826335e-01
  2.3405108e-01
  4.4068120e-02
 -1.7181601e-01
  1.5371518e-03
 -2.6477012e-01
 -5.6370031e-03
  9.4250090e-02
  1.2340520e-01
 -6.6405232e-04
  9.2795200e-04
 -1.7633694e-05
 -1.1283602e-04
  1.9717535e-01
 -3.9728993e-01
 -1.1254871e-04
  1.5476102e-01
 -1.7785298e-04
  1.3191070e-04
  2.1671401e-03
 -3.4522226e-03
 -2.0627111e-01
 -6.1914711e-03
 -3.0221068e-05
  2.4248555e-04
 -2.5827948e-03
  6.4644526e-04
  2.3162458e-05
  5.8358884e-04
 -1.7937440e-05
 -4.0968076e-05
  8.7315901e-05
 -5.9029262e-05
 -1.4036940e-01
 -3.1834530e-05
  5.5261416e-04
 -1.0615659e-05
 -5.9744518e-05
 -2.5127729e-05
 -4.1968937e-04
  3.4869311e-04
  9.5685554e-04
 -2.5876879e-04
 -1.0475695e-05
 -4.7939224e-04
  2.4543304e-04
 -1.9542209e-04
  2.0497842e-04
  1.6812331e-04
  1.9085275e-04
 -2.3373362e-04
  6.4547732e-04
 -5.3814676e-04
  1.2648883e-03
  8.3863284e-05
  9.9206001e-05
 -2.1046540e-04
 -2.0258524e-04
  1.5916453e-04
  2.4749938e-04
 -1.5268303e-04
  5.3136656e-04
  3.3247093e-04
 -9.0210920e-04
 -2.1524943e-04
 -4.2701967e-04
 -1.1453846e-03
  2.0491333e-04
  9.2302260e-05
  1.2449363e-03
  1.5340681e-04
 -2.3818617e-04
 -3.2107078e-04
 -2.8058065e-03
 -3.6626734e-05
  4.4767623e-04
 -3.2237230e-04
  1.2806147e-04
  2.0109239e-04
  1.4256034e-03
 -1.2538290e-03
 -7.1583968e-01
 -1.0071711e-04
  6.7373901e-04
 -3.3610064e-04
  6.5054111e-05
  1.2515407e-03
 -4.8573574e-01
  2.1755697e-01
  1.9144471e-01
  6.0528036e-02
 -3.6393553e-01
  1.3146357e-03
  4.6451837e-03
 -5.2093342e-03
  1.1589763e-01
  2.3173724e-01
  6.7067413e-06
  1.3037567e-03
 -4.6800252e-04
  3.5057587e-05
  3.0438808e-01
 -4.2551655e-01
  1.3433995e-02
  4.5583677e-02
 -1.7544163e-04
  4.2249341e-04
  7.3795492e-04
 -2.2653441e-03
 -2.3191056e-01
  5.2095498e-03
  7.5862259e-02
  5.1402294e-05
 -3.1170426e-03
  9.3777426e-02
  8.5842978e-05
  1.2828395e-04
 -2.0640992e-04
  3.1606134e-04
 -1.2359200e-05
  2.6451756e-04
 -2.8299245e-01
  5.5578933e-04
  1.1560668e-03
 -9.7556915e-03
 -1.1570014e+00
 -4.3875855e-04
 -6.6055640e-05
  4.9088389e-04
  2.1046665e-04
  4.1623291e-04
 -3.1483555e-04
  5.2189595e-01
  2.7231708e-01
  3.8166383e-01
 -7.2382551e-01
  1.3769199e-02
 -1.0392409e-01
 -2.7818692e-01
  7.2848922e-01
  4.4167656e-01
  6.5903863e-05
  9.8275451e-04
 -1.6550593e-02
  3.7782596e-04
  2.5350785e-01
 -4.6048623e-01
  2.1045025e-01
  3.1454295e-01
  5.8601038e-03
  7.5964324e-02
  1.2810680e-02
 -1.9148739e-02
 -4.2993158e-01
  4.1867842e-04
  7.3355548e-02
  3.8787057e-05
 -1.1081207e-01
  2.9872153e-02
  3.2098531e-03
  3.7957330e-03
 -3.4797168e-04
  1.3201758e-04
 -1.0780948e-03
 -5.0118449e-04
 -6.5023148e-01
  5.2545522e-04
  1.4495563e-03
 -4.0394563e-04
  6.5211287e-05
  5.9776846e-04
 -1.6138064e-04
  1.7480219e-05
 -2.4397502e-04
  1.1000655e-04
  4.6824772e-04
 -2.9443792e-04
 -2.1703450e-04
 -2.3041164e-04
  3.3873378e-04
 -1.9211762e-04
  9.9253666e-06
 -2.9520259e-05
  1.7391529e-04
  5.3903402e-04
 -6.6313529e-05
  1.6640684e-04
 -5.2616015e-05
 -2.3472912e-04
  3.4887655e-04
  1.1729546e-03
  3.9966653e-06
  1.9386955e-04
 -1.7007155e-04
  3.0121510e-04
  2.3641158e-04
  1.7331992e-04
  9.4794715e-04
  1.6106036e-04
  1.6154203e-04
  5.8050442e-04
  4.8294816e-05
 -1.3490858e-04
 -5.7202313e-05
  8.6270005e-04
 -3.6002405e-04
 -3.0971096e-05
  2.5159554e-05
  3.7615831e-04
 -1.8478066e-04
 -1.7255906e-04
 -5.5276081e-02
  1.4334620e-04
  5.4189801e-04
  2.4041464e-04
 -6.0911273e-04
  2.8076107e-04
  1.5753557e-04
 -1.3552874e-03
 -1.1267312e-04
 -1.6249678e-04
 -6.9897529e-04
  2.9017506e-04
 -1.4740645e-03
  4.1499035e-04
  2.4520338e-04
  1.6252109e-04
 -7.0957863e-04
 -1.8656027e-04
  4.5174046e-04
  1.2644272e-03
 -3.1027826e-04
 -1.0874846e-04
  8.0429186e-04
 -1.8249660e-04
  9.4637781e-02
  6.4884912e-04
  9.1811898e-04
  2.8023237e-04
  6.5686909e-04
 -3.5486009e-04
 -4.4399596e-05
 -4.1470528e-05
 -4.8301870e-04
 -4.5942230e-04
 -7.7876484e-04
 -5.8321684e-04
  7.5488345e-04
  4.3834263e-04
 -3.1659880e-04
  2.9880834e-05
  4.9758735e-05
 -1.2492968e-04
 -5.9624792e-05
  2.8911844e-04
  1.1581977e-04
  3.6401767e-04
 -7.1452108e-05
  1.9476964e-04
 -2.2716330e-04
  1.5721035e-04
  3.5321101e-04
 -1.4698591e-05
  2.6349750e-05
 -5.9857569e-04
  3.4991759e-04
 -1.1409121e-04
  7.1441813e-05
 -7.4908130e-05
 -8.6871747e-05
 -2.5602477e-04
 -3.0366064e-06
  1.3714138e-04
  1.1194800e-03
 -1.8118256e-04
  2.3693981e-04
 -2.2408285e-04
  2.5794326e-04
  3.4949466e-04
 -2.7906511e-04
 -5.2693143e-04
 -3.5408493e-02
 -1.3245879e-04
 -4.5242676e-04
  1.2753319e-04
  3.7349088e-04
  2.2539424e-04
  1.8075043e-05
  1.1190359e-04
  7.0046808e-05
 -3.7194623e-04
 -1.4810878e-04
  3.7899442e-04
  6.3005878e-05
 -5.8189948e-04
  4.0956226e-04
  1.0886738e-01
 -1.7997160e-04
  5.7238241e-04
  9.7070078e-05
  4.4117731e-04
  6.4777669e-06
  4.9040438e-05
 -4.6731121e-04
 -2.5323432e-04
  1.4525185e-04
  8.9944917e-04
  1.6848347e-04
  4.9027364e-04
 -8.5754402e-04
 -2.0714740e-04
  3.2540725e-04
 -1.7442166e-04
  6.3921107e-05
 -4.8163594e-05
  4.8518099e-04
 -1.5652360e-02
 -1.4977221e-04
 -7.9545320e-04
  1.0456503e-03
 -8.7217195e-05
 -2.9317310e-04
 -2.4881706e-04
 -4.7110344e-04
  5.0258375e-04
 -1.1791216e-03
 -2.3884363e-04
 -1.6519471e-04
  5.3327205e-04
 -1.8847718e-04
  1.0200803e-04
 -8.8157030e-06
 -1.2698415e-04
  1.1634483e-04
  7.9894345e-04
  2.8586481e-05
  4.4128604e-04
 -1.2657988e-04
  2.0609739e-04
 -6.2005868e-04
 -1.5022677e-05
 -3.1530630e-04
 -9.2058006e-05
  5.0057011e-04
  1.2609847e-04
  1.5835793e-04
 -2.6450516e-04
 -7.8793601e-05
  8.6991698e-05
 -5.0802936e-04
 -3.2882567e-04
 -7.3834010e-05
 -2.7451286e-05
 -1.8955494e-03
  3.9922461e-04
  1.8178704e-04
 -3.7094447e-04
 -2.9173095e-04
 -7.4318959e-06
  2.5396829e-04
 -1.9216319e-04
 -1.5196629e-04
 -1.1883878e-04
  3.5408593e-04
  1.7972164e-01
 -2.9522128e-04
  2.9958022e-04
  4.8254046e-04
 -1.9633950e-04
  4.3823110e-04
 -3.3372312e-04
  1.1969343e-05
 -9.3268827e-05
  1.6507125e-04
  7.5406620e-05
 -6.7621487e-04
  1.6105165e-05
  9.0013712e-04
 -1.1868522e-04
 -1.6190627e-04
 -6.4417440e-04
 -9.5684663e-05
  4.9033092e-04
 -2.4544960e-04
 -8.3842874e-04
 -4.2433501e-04
  1.4085611e-04
 -4.4310564e-04
  9.2667193e-05
 -1.0290323e-04
 -2.1021659e-04
 -4.0692263e-04
 -8.7582579e-05
  5.1181961e-04
 -3.2574264e-04
  2.5271584e-04
 -2.3797894e-04
 -7.6415838e-04
  1.2989227e-03
  3.3744773e-06
 -2.2344432e-04
  4.1797664e-04
 -5.8351859e-04
  2.8705125e-04
  3.6087213e-04
 -2.0760228e-04
  4.8535745e-04
 -3.6914146e-04
 -2.3837393e-04
 -1.8166425e-04
 -6.3039642e-04
  3.7359612e-04
 -4.6280585e-02
 -9.2343180e-06
 -1.4258675e-04
  6.8070367e-04
 -6.8804562e-05
 -1.6128499e-04
 -4.1347151e-04
  1.4485857e-04
 -5.1848467e-05
 -3.9606585e-04
 -5.1795621e-04
  1.1220307e-04
  4.0884834e-04
 -8.8885034e-05
 -3.1170339e-04
 -7.4903056e-04
 -5.5941870e-04
 -1.4555595e-04
 -1.3625613e-05
 -6.4551372e-05
  1.8601838e-04
  1.9293542e-04
 -2.1668174e-04
  1.8706943e-04
 -5.7498601e-05
 -1.1802568e-03
 -7.9817942e-04
  3.1346449e-04
  1.6880943e-03
 -2.0728496e-04
  9.2004967e-04
  2.6192603e-04
  3.8446338e-04
  1.5555229e-04
  1.6643590e-04
 -1.3482223e-04
 -1.4580399e-04
  1.1838823e-04
  1.5291096e-04
 -4.7084596e-04
  1.1783333e-03
 -8.9282687e-05
  1.4476468e-04
  1.5257930e-05
 -1.1022045e-04
  1.0090378e-03
 -2.3450445e-04
 -1.1462918e-04
  3.6388106e-04
 -3.6889182e-05
 -8.0338179e-04
 -2.2043461e-02
 -2.7581287e-04
  6.7978114e-04
  3.4900269e-04
 -2.0568374e-04
 -1.2069748e-03
  3.6783569e-04
  1.4067513e-03
 -4.4877997e-05
  5.0738733e-04
 -4.0948271e-05
  2.0351131e-04
 -5.5128083e-05
 -1.8601291e-04
  3.9130374e-04
 -2.2665883e-04
 -3.8763421e-04
  3.3481570e-04
  3.3279107e-04
 -2.0253674e-04
 -3.5108023e-04
 -1.7126443e-04
  4.9459431e-05
  1.9231238e-05
  2.9441922e-05
  1.9733173e-04
  1.3597673e-06
 -1.2727842e-03
 -7.9296733e-04
  5.8321917e-04
 -1.5162601e-04
 -4.4763307e-04
  2.0246698e-04
  1.8866747e-03
 -7.0001720e-04
 -4.9914984e-04
 -1.6606474e-04
 -4.4200086e-04
 -7.9488935e-05
  1.0395094e-03
 -9.4643550e-04
  3.1593045e-06
 -3.3463206e-04
  1.6112264e-05
  7.8050804e-04
 -6.6619198e-04
 -2.1282608e-04
 -1.1994041e-04
 -2.0267587e-04
 -2.8566871e-04
  5.1775030e-05
  1.1994137e-04
  1.7841150e-04
 -7.4417534e-05
 -1.1413180e-04
 -3.8957316e-04
 -3.4836779e-04
  1.7119676e-04
  5.2966381e-04
  9.6637130e-05
  2.5318281e-04
 -1.5131655e-04
  3.0216522e-04
 -3.3215465e-04
  1.4378459e-03
 -3.4007078e-04
  2.7534491e-04
  4.9946725e-04
  1.7627790e-04
  1.7967388e-04
 -6.1235618e-04
 -3.7619792e-04
 -2.6597276e-01
  7.1324233e-05
 -5.0451502e-04
 -2.2520986e-04
 -7.3527562e-04
 -7.2308045e-05
  2.7366751e-04
 -2.7770912e-03
  3.7624192e-04
  5.0416630e-04
 -2.5841035e-04
 -2.0636918e-04
 -1.3558449e-04
  1.1297090e-04
  1.7109647e-05
  6.6248300e-05
 -4.1175153e-04
 -7.2765234e-04
  1.2295344e-04
 -2.8382932e-05
  8.4291678e-05
 -6.9781055e-04
  4.5237575e-05
  5.7585945e-05
  3.0325708e-04
 -3.8405796e-04
  2.5822129e-04
 -8.0236170e-04
  2.3218310e-04
 -2.6979088e-04
  9.6464989e-04
 -1.2745004e-04
  4.0184388e-01
  2.1746675e-05
 -4.2916011e-04
 -2.3631900e-04
  3.2402051e-05
  6.9058524e-04
  9.4464689e-05
 -6.2341293e-05
  6.5745000e-05
 -7.4840675e-05
 -5.6431146e-04
  2.5113799e-05
  4.7043918e-04
  2.1397680e-04
 -2.1994842e-04
 -2.6415053e-04
  3.7499182e-02
  2.0921064e-04
 -9.9754223e-05
 -9.6663003e-05
  3.6627069e-04
  1.6784236e-03
 -8.9843277e-05
  5.1256566e-04
 -4.3644832e-04
  9.3957542e-06
  3.5836059e-04
  1.7291572e-04
  4.2660342e-04
  6.9284462e-04
 -1.7438419e-05
  4.2082000e-05
  3.5822170e-04
 -3.2105827e-04
  3.2822113e-04
  6.3474092e-04
 -2.5390991e-04
 -1.2752235e-04
 -2.4060330e-04
  5.5627269e-04
 -1.3162312e-04
 -1.6212984e-03
 -3.0564886e-04
 -4.6081090e-04
  2.2941340e-04
  2.8147202e-05
 -2.5925395e-04
 -2.7855622e-04
  4.3325286e-04
 -6.4005423e-04
 -6.3195817e-05
 -5.4605502e-05
  3.2123219e-04
  1.4264265e-04
  6.3053994e-07
 -2.0679789e-04
 -5.5093609e-05
  8.6101027e-05
  2.6218324e-05
 -5.9579598e-04
  2.3144460e-04
  2.4840055e-04
  9.2984395e-05
 -4.0721893e-04
  1.5735607e-04
 -4.2069913e-04
 -1.1755685e-04
 -5.7277904e-04
 -2.4655153e-04
  1.1700963e-04
 -1.1093092e-04
  1.0796636e-04
 -8.0818881e-04
 -1.9681791e-04
 -1.4525128e-04
 -5.3965178e-04
  4.3012822e-04
 -3.4304240e-04
 -5.6646654e-04
  4.9850624e-04
 -1.9312582e-05
 -3.9265369e-04
 -4.8263497e-05
  3.3302084e-04
 -4.3689020e-04
  4.1462230e-05
 -4.8821099e-04
  6.4396037e-05
  6.9132708e-05
  6.4782571e-04
 -5.4339293e-05
 -2.3358353e-04
 -3.7674056e-04
  5.9271546e-04
  4.8878483e-06
 -1.2937100e-03
 -1.1835487e-04
 -5.9232063e-04
  9.8865689e-04
  1.0564538e-04
 -1.3286245e-04
 -2.0241120e-04
  1.1738276e-04
  6.4810272e-04
 -9.2539660e-05
  1.5789381e-04
 -4.1025976e-04
  9.9620561e-04
 -4.8804301e-04
 -4.6366293e-04
  2.4104884e-04
  7.9052814e-05
 -3.2370922e-04
 -1.5164595e-05
 -1.6719855e-04
  1.3191391e-04
 -1.5652098e-04
  3.9393977e-05
 -8.8716153e-04
  3.2071781e-04
 -3.0769798e-04
 -1.8888562e-05
  1.7114951e-04
  9.7377597e-05
 -2.9577714e-06
  2.1539412e-04
  1.4684276e-03
  5.2345876e-04
 -1.8611345e-04
  7.2025367e-05
 -9.9535237e-07
  1.1290822e-04
 -6.5860292e-04
 -6.6660473e-04
  5.8991350e-02
  3.3161335e-04
  7.2085008e-04
  5.9497624e-04
 -7.1195705e-04
 -4.8677530e-04
  1.1580724e-04
 -1.5089572e-04
 -2.5068222e-05
  4.1951720e-05
  8.1946008e-04
  2.6693393e-05
 -1.0194833e-04
  5.6209840e-04
 -5.5052305e-04
  5.7889009e-04
  1.4179834e-03
  3.3223690e-04
  2.2899089e-03
 -2.9615124e-04
  1.2797260e-04
  1.8422521e-05
  2.2325944e-04
 -3.9339019e-04
  1.2093030e-04
 -4.5526082e-05
  6.1514555e-05
  4.2243881e-04
  8.0137822e-04
 -4.1606757e-04
 -2.2362426e-03
  3.0388113e-04
 -2.6118956e-04
 -1.6067192e-05
 -5.3094176e-04
 -1.3214903e-04
 -6.7552732e-04
  2.1763284e-04
  6.5255223e-04
  2.5232552e-04
 -1.5900211e-04
 -6.4068992e-04
  2.1819791e-04
  9.1254216e-05
 -2.7738418e-04
 -1.0913858e-04
  2.3426316e-04
  1.2599607e-04
 -4.3347734e-04
  6.4279779e-04
  8.2591665e-05
 -2.1462400e-04
 -2.7314696e-04
 -5.7236344e-04
  4.3046963e-05
 -5.9486600e-04
 -8.4423446e-06
 -1.9453606e-04
  3.5652914e-04
  1.7213881e-04
 -3.3224518e-05
 -3.0468608e-04
  8.0334926e-03
 -9.0641406e-06
 -3.6882123e-04
 -7.3216710e-04
  2.0659500e-06
  1.0264631e-04
 -6.2155782e-04
 -5.4945151e-04
  4.7067367e-04
 -1.0546337e-05
 -2.7241910e-04
  3.5173443e-04
 -9.0466339e-05
 -3.5781297e-04
 -9.1365865e-04
  1.0233878e-04
  9.4740116e-04
 -8.4942010e-05
  2.5549930e-04
 -1.2918608e-04
 -1.1864051e-04
  3.1250769e-05
 -2.6463799e-04
  2.8594914e-05
  1.3917199e-04
  4.2023003e-04
 -3.0783467e-05
  4.1135051e-03
  5.6555000e-06
 -2.0344656e-04
  6.5112161e-04
  1.4516363e-04
  3.9590761e-04
  5.0398143e-05
  3.3397012e-04
  1.6032421e-04
 -5.0134113e-04
 -3.9178092e-04
  4.6060210e-05
  1.3631436e-03
 -7.6246622e-04
 -5.0157629e-04
 -5.5287619e-06
 -1.5207544e-03
  3.1015041e-04
  2.1946567e-04
 -2.9031950e-04
  2.5531638e-04
  2.8173393e-04
  7.0882794e-05
  4.4054602e-04
 -6.0981541e-04
 -7.1440081e-06
 -2.9745520e-04
 -4.5366058e-04
  1.2367619e-03
 -9.9630641e-05
 -3.2859048e-04
  5.1164749e-04
  6.7545351e-04
  2.1963572e-04
  5.0552888e-04
  2.4279923e-04
  6.6310534e-04
 -2.9036950e-04
 -3.9586637e-02
 -7.9784362e-04
  2.4480536e-04
  8.4220082e-05
  3.1426150e-04
 -1.6845443e-05
  8.4828600e-05
  2.0704123e-04
 -4.1716122e-03
  2.2369865e-04
 -4.3569226e-04
 -1.7744791e-05
  3.5796317e-04
 -2.1847489e-04
  8.7442208e-04
  1.9005654e-04
  3.0652089e-03
 -4.3903122e-04
  2.8410932e-04
  8.4368372e-04
  4.3347673e-04
 -2.0352660e-03
 -2.6848214e-04
 -8.9800573e-04
 -1.3193618e-04
 -3.1074477e-04
  2.0466755e-04
  1.4978876e-04
 -3.5365749e-04
 -8.2023034e-05
 -5.3915501e-05
  4.2929826e-04
 -1.3256508e-04
  1.9067767e-05
  1.5762383e-04
 -6.2612706e-04
 -1.8141432e-04
  3.4451194e-04
  2.3645522e-04
 -1.8919952e-02
  1.0483504e-04
 -1.4146564e-05
  3.9276321e-04
  6.0701037e-05
  6.3234131e-04
 -3.5433304e-02
  2.2109372e-04
 -6.5507151e-02
 -4.6032474e-05
  1.7331521e-03
  5.3312752e-04
 -3.9404820e-04
 -1.4666413e-04
  1.9263745e-04
  4.1908462e-04
  2.6357349e-04
 -1.5175295e-04
  2.0685680e-05
  3.4188712e-04
  2.3843482e-04
  3.9458784e-05
  1.2404530e-04
  1.8864602e-04
 -6.3619664e-06
 -1.7572599e-04
  8.7019209e-05
 -4.2568723e-04
  5.6984754e-05
 -9.6543270e-05
  2.1373310e-04
 -5.2708044e-04
 -2.8964930e-04
  4.3964700e-04
 -9.7370125e-02
  1.9186018e-03
 -2.2735825e-04
 -4.2894349e-04
 -7.8742480e-04
 -1.3856381e-03
  2.1641573e-04
 -5.1179848e-04
 -2.7297420e-04
 -1.2810971e-03
 -3.1913296e-04
 -5.7124667e-04
  1.8214356e-04
  3.4096380e-04
  8.1652228e-04
 -2.2632924e-01
  1.2874050e-01
  3.9109528e-01
 -5.3593008e-05
 -8.9456118e-04
  3.6657322e-02
 -6.4663647e-04
  1.0573630e+00
  3.2102633e-01
  3.0670664e-01
  2.9159167e-01
 -3.9296570e-01
  1.4524816e+00
  2.3606835e-01
  1.5120420e-01
  1.9169638e-01
  9.8490268e-01
  1.7461302e-02
  1.4720822e-04
 -1.4250727e-01
  2.7478093e-01
  1.0857980e+00
 -8.7926823e-01
  8.7851959e-01
  5.4701960e-01
 -5.4815006e-01
  1.3544075e-01
 -3.3401275e-01
  4.6184105e-01
 -5.0220388e-01
  2.7154899e-01
  3.6974955e-01
 -1.5814599e-01
 -3.3426297e-01
  6.5538353e-01
  7.9085737e-01
  6.8801481e-01
 -6.2254849e-03
  6.8564776e-05
 -2.4695657e-04
 -6.2470185e-04
 -1.1572698e+00
  1.7158370e-04
  3.2109413e-03
 -2.4819332e-01
  4.1393819e-04
  6.3390304e-05
  1.9271584e-04
  6.4186519e-04
  3.1103112e-04
 -1.3252323e-04
 -6.8851929e-05
 -1.2268656e-01
 -5.5362172e-02
 -2.9554096e-01
  6.2769318e-01
 -7.8092184e-04
  2.7338816e-03
  4.4788834e-02
 -1.8992873e-02
 -3.6021128e-02
  1.2390592e-04
 -7.6946744e-06
 -2.8935523e-04
  1.0165133e-03
 -1.1490046e-01
  1.8734476e-01
  2.2700016e-04
 -9.4637103e-02
 -1.9145290e-04
 -1.1598515e-04
 -2.1628249e-03
  9.0880878e-04
  5.0701138e-02
  5.7623920e-04
 -3.4031436e-01
  2.7776572e-05
  1.1126381e-01
 -1.1846990e-03
 -1.6999725e-01
 -2.2170856e-03
  6.0597149e-04
 -1.2102906e-04
 -5.4924929e-04
 -6.2810082e-04
  6.7839861e-02
 -7.4106865e-05
  3.3252017e-04
 -1.3158131e-05
  8.1634277e-04
 -2.3581683e-04
 -2.3886943e-04
  5.3942145e-04
 -5.1373383e-05
  4.7753594e-04
  2.0235815e-04
  2.0914752e-04
 -3.7461612e-04
 -1.3356184e-04
 -3.7210440e-05
 -5.6924560e-05
 -2.0487272e-04
 -5.0283998e-04
  8.9670328e-04
 -3.8375001e-06
  1.6612181e-04
  1.5136860e-04
  9.9248864e-05
 -6.2615913e-04
  2.3333874e-04
 -9.4357214e-04
 -4.8009062e-04
  1.1421158e-05
 -6.2887598e-04
 -1.3175761e-04
 -5.3263764e-04
  7.0544111e-04
  2.0181398e-04
 -7.9720636e-04
 -6.9916787e-05
 -2.9251588e-04
 -2.5653455e-04
  1.7705903e-04
  9.7673837e-05
 -1.9236562e-04
  3.4401266e-04
 -3.8499571e-04
  4.2623331e-05
 -4.6954333e-04
 -9.2975708e-05
 -4.8922503e-04
  3.6764465e-04
  6.9547835e-04
  2.6569352e-04
 -1.2289380e-05
  1.2400420e-04
  2.3174210e-04
  6.4927607e-04
 -8.0442114e-05
 -1.2693906e-03
  9.8644069e-04
  7.2041876e-06
 -8.6143916e-04
 -2.8194865e-04
 -1.4584810e-04
  3.6097110e-05
 -1.3292896e-05
  1.0052197e-04
 -1.3793200e-03
 -2.9214271e-04
 -2.1894659e-05
  6.4936059e-04
  1.0168975e-03
  5.3637405e-04
  1.4940332e-04
  2.9212050e-04
  1.0635018e-03
  4.0294410e-04
  3.3776675e-04
  6.9058317e-01
 -1.0774602e-03
 -4.6464487e-04
 -1.8592249e-04
 -1.4273514e-04
 -8.0999322e-05
 -5.8722892e-04
  1.9462997e-05
  6.6663699e-05
  2.0220815e-04
  5.4588472e-04
  2.8159170e-04
  1.9010267e-04
  3.1923111e-05
  1.4895980e-03
  1.4224097e-04
  4.3802283e-06
  7.6374345e-05
 -1.8872475e-03
 -4.5256878e-05
 -2.8743397e-04
  2.3426363e-04
  1.8797774e-04
 -7.9405500e-04
  5.4588617e-04
  7.5916667e-04
 -8.0278883e-04
  1.2618145e-04
  1.0293900e-03
 -3.8239869e-04
  1.5933414e-04
  1.9714567e-04
  1.8320553e-04
  1.2944591e-04
  2.2972038e-04
 -7.0414768e-05
 -3.9425818e-04
 -7.6980755e-04
  4.0663342e-04
  4.2947686e-06
  2.6860947e-04
 -1.7572475e-03
  2.3535581e-04
 -1.5664262e-04
  8.9919689e-04
  2.0099978e-04
 -6.5651309e-04
 -3.4333151e-04
 -1.4195428e-04
  5.9774064e-04
  2.0309172e-03
 -3.6308753e-05
  2.7434115e-05
  1.0061807e-03
 -9.9276229e-05
  4.6832069e-05
  3.0067074e-04
  3.6101099e-04
 -1.9046511e-04
  5.2662048e-04
 -2.1420507e-04
 -1.7014128e-04
 -7.7591697e-04
 -7.5516960e-05
 -2.5160759e-04
 -2.8706039e-05
  1.1241786e-04
  3.2297059e-04
 -5.8826100e-04
 -3.5017057e-04
 -9.4558905e-05
  1.7988522e-04
  9.5557887e-04
  3.5572489e-04
 -8.4063847e-04
 -1.8614514e-03
 -2.6195754e-05
 -4.3803643e-04
 -8.7929999e-05
 -1.0996533e-05
 -3.8477825e-04
 -8.2724597e-05
  2.5110089e-04
 -4.6006640e-05
 -1.2513201e-04
  4.5114156e-04
 -1.7352850e-04
 -4.5115966e-04
 -1.6138249e-04
 -7.3543470e-04
 -2.9868050e-04
  6.0642394e-04
  2.7169273e-04
  3.5894490e-04
  1.6406794e-04
 -2.4478446e-04
  1.1378494e-03
 -3.6937298e-04
  4.0016742e-04
  7.1053342e-05
  3.0950055e-04
  2.3798826e-04
 -8.5827993e-04
 -2.6857830e-04
 -2.5715519e-04
  1.8938827e-05
  3.8914039e-04
  8.0894984e-05
  7.6033245e-04
  2.0286845e-04
  6.3215423e-04
  1.1015185e-03
 -3.1695372e-04
 -1.4006253e-03
  9.8442240e-04
  8.9339080e-04
  4.5218895e-04
  1.2659960e-04
  1.4795622e-04
 -2.0225879e-04
  1.5974062e-04
  8.8414014e-04
  8.7923591e-04
 -5.6939462e-06
  5.0181343e-04
 -3.0756326e-04
 -2.9997432e-04
  1.6452660e-04
 -1.2901996e-03
  3.1073415e-04
  3.9304839e-04
 -1.7217315e-04
 -5.8913894e-04
 -4.6103229e-04
 -3.1952502e-04
  8.9769819e-06
  2.6403475e-05
  9.0241135e-04
  3.3320795e-04
 -5.5512844e-04
  1.4971985e-04
  2.4106195e-04
 -1.2481980e-04
  1.0880898e-03
  1.0091988e-03
 -8.7598964e-05
  1.6808269e-03
  3.1556096e-04
 -8.4617759e-06
 -4.7904992e-05
 -3.3643639e-05
 -6.5614464e-04
 -2.6207583e-04
 -1.7697320e-04
  8.5757783e-04
  1.7869963e-04
 -3.7941718e-04
 -1.6320356e-04
  2.3967003e-04
  1.7046311e-01
  1.0614174e-04
  1.2443146e-04
 -1.3716862e-03
  1.2912034e-04
 -1.0232162e-04
 -1.7799798e-04
  7.5136384e-05
 -1.9528819e-04
 -2.3075126e-04
  1.3088933e-03
  2.6260540e-04
  5.9878360e-04
  5.6070846e-01
  5.4309837e-04
  5.0132931e-04
  4.3975204e-04
  6.2109539e-06
  2.6333611e-04
 -4.9577469e-05
 -8.7176036e-04
  7.4121068e-05
  9.4478714e-01
 -6.2650695e-05
  1.2632748e+00
  1.9680148e+00
 -9.9256184e-05
  3.7102062e-02
 -2.7756835e-04
 -1.9923472e-01
 -5.4941535e-01
 -2.0758979e-04
 -8.3071934e-03
 -3.6586640e-05
  2.6966202e-01
 -2.3749180e-04
 -3.0352874e-04
 -4.3976601e-04
  3.2094594e-02
  1.0419060e-02
 -2.7497765e-05
  1.5419184e-05
  4.1618470e-02
  2.8478696e+00
 -9.2216361e-01
 -4.3125646e-04
  3.0742795e-04
  3.9342098e-04
  5.2512612e-04
 -8.4629573e-04
  5.1243224e+00
  4.1959737e-04
 -1.7422196e-04
  2.9589926e-04
 -1.6293969e-04
  3.4847835e-04
  5.3335041e-01
  8.9912218e-01
  4.4916024e+00
 -4.1795589e-05
  7.0967607e-02
  1.9079906e+00
  5.2677536e-01
 -9.1439066e-04
  2.1217146e-03
  6.6988921e-04
  5.4566724e-05
 -1.6125598e-05
  2.8275445e-04
  6.0413108e-04
 -2.5602055e-04
  4.8742157e-05
 -3.2889956e-04
 -6.6701911e-04
  1.3159304e-03
 -1.0059137e-04
 -3.1839198e-04
  7.5834332e-04
 -4.4455574e-04
 -9.3095127e-04
  3.3706817e-04
  3.2626043e-04
 -1.4216455e-03
  4.8064615e-04
 -6.6140579e-05
 -4.3955495e-04
 -4.6164871e-04
  1.0307504e-04
  9.4243981e-02
  1.4572100e-02
 -9.1072940e-04
 -1.1013504e-03
  8.2517855e-02
 -7.4549466e-03
 -2.4598168e-04
  9.1040204e-04
 -1.2847281e-04
  4.1178084e-04
  1.8866439e-04
 -3.1104486e-04
  6.6725406e-05
  6.0932478e-04
 -3.7994765e-04
 -1.3617848e-04
  2.0673640e-01
  1.2932273e+00
 -1.4350085e-03
  1.6583381e-03
  5.6846175e-02
 -1.2356950e-03
  3.4188306e-01
  2.8581120e-04
  7.1394054e-05
  3.1131427e-04
 -7.3413108e-04
 -5.0258677e-04
  5.0412840e-04
  2.5445703e-04
 -8.1593439e-04
  9.4797922e-04
  1.8277206e-03
  9.5950571e-05
  1.5720228e-03
 -1.6106759e-03
 -5.6581807e-01
 -4.1960120e-02
  4.7966011e-04
 -3.4849328e-04
  2.9630557e-04
  5.6940306e-04
 -8.9005451e-04
  1.8921852e-04
 -2.1792434e-03
 -3.6191073e-04
 -8.1732252e-04
  1.5067302e-03
  3.7010422e-03
  2.0423856e-01
 -3.7712621e-04
  1.7232254e-05
  5.2959584e-02
 -5.0674444e-01
  1.9504587e-05
 -3.6078657e-04
  6.3438865e-04
 -5.2301155e-05
  7.6725247e-04
 -4.4222601e-04
  9.4809011e-04
 -3.3194252e-04
 -1.8953366e-04
 -8.1487827e-04
  3.1184440e-04
  2.7412025e-06
 -2.0909715e-04
  1.3410529e-03
  6.2819901e-03
  9.2090115e-02
  6.3754272e-01
  8.4919368e-05
 -4.0133492e-04
 -1.7178601e-04
 -2.6691236e-04
  5.1404539e-05
 -1.8099652e-04
  4.1951127e-05
 -1.8529478e-04
 -3.6183759e-04
  3.0971023e-01
  4.6839844e-02
  4.3569511e-04
 -4.5547984e-04
 -1.6655096e-01
 -5.9942666e-02
  1.3989081e-02
 -6.4252934e-04
 -5.7443511e-04
  6.6781318e-04
  7.4253045e-04
  1.3816622e-05
 -4.6208446e-04
 -8.3537854e-04
 -1.1037046e-06
 -5.3303468e-04
  1.9040940e-04
  1.4627136e-03
  4.5453995e-01
 -2.1756176e-04
  3.2515922e-01
  2.2455628e-03
 -6.8112707e-04
  5.9319701e-04
  1.6614277e-04
  4.7325256e-04
  5.7971949e-04
 -1.5956287e-04
  1.4242703e-04
 -1.1669978e-04
 -5.3787901e-04
  3.9508269e-04
  8.0811016e-02
  2.2511262e-01
 -2.4271722e-01
 -7.5117528e-04
  4.0890081e-04
 -3.7307960e-01
  1.1573422e-01
 -3.9413443e-04
  2.5557127e-04
  3.1445608e-05
  1.0550867e-04
  2.6371714e-04
  2.3886765e-04
 -1.8771391e-04
 -1.0416028e-03
  3.0444111e-04
  3.4327233e-01
  3.8620701e-01
  5.3989250e-02
  1.9570983e-03
 -3.8409180e-05
 -6.2526055e-02
  5.5211264e-01
  5.0886883e-04
 -6.5271975e-05
  9.4833161e-04
  5.3345744e-04
  1.5563520e-03
  1.2056509e-04
  6.2847242e-04
 -3.2114040e-04
  5.4088293e-04
  1.6139593e-03
 -2.7777541e-01
  7.6886528e-04
  2.8413231e-04
  6.5892999e-04
  1.9025581e-01
 -1.0981985e-03
  1.7800348e-04
  1.5640429e-04
  7.7996176e-04
 -3.2149863e-01
 -1.5018630e-04
  1.3504914e-05
 -6.0277228e-04
 -1.0914820e-03
 -1.7744472e-03
 -7.7928562e-05
  5.4983026e-01
 -3.1171925e-03
  1.0328215e-04
 -6.0943048e-02
 -1.7099799e-01
  1.2867472e-01
 -9.7413734e-04
 -1.8122946e-04
 -7.1320555e-04
  1.5127865e-03
  2.2077249e-04
 -1.5422379e-04
  1.1687977e-03
  1.0759526e-04
 -1.8682451e-05
 -8.0780500e-01
 -8.6545110e-02
 -1.6190034e-01
 -5.4725479e-06
 -4.4163644e-02
 -5.9252465e-01
  3.5751602e-01
 -1.8112140e-04
 -1.8275674e-03
  3.7132390e-02
  2.2581557e-02
  1.3123871e-03
  3.4981611e-05
  1.8473295e-04
 -4.8132832e-04
 -2.0834576e-02
 -2.3479095e-02
  3.9314047e-02
  3.2286522e-01
 -5.0499046e-04
 -8.6058653e-04
  8.3488744e-04
  1.0486874e-03
  3.5878061e-04
 -5.3379062e-04
 -3.8067350e-04
 -2.2539079e-04
  1.0772371e-04
  2.8558369e-04
 -9.3661161e-05
 -1.7934125e-04
  6.6067631e-05
 -7.2127098e-01
 -1.6157293e-01
 -8.5059091e-02
 -5.0567724e-03
 -8.2099758e-04
 -2.7022824e-02
 -2.8656737e-04
  5.3132576e-04
 -6.7388423e-02
 -1.0873195e-04
  9.4928682e-02
  1.1716542e-03
  3.8727073e-04
 -6.6267146e-04
 -5.5882403e-05
  4.7681501e-04
  8.6708152e-01
  1.5222602e+00
  1.8487697e+00
  6.0317334e-04
  1.0204936e-01
 -4.1202750e-02
 -3.9760862e-04
 -3.5617486e-04
  2.3161380e-04
  3.9522223e-02
  1.4542850e-03
  4.1437292e-04
  7.9094601e-04
 -8.0701357e-05
 -6.2030241e-02
 -1.8661338e-01
 -1.2246540e+00
  9.9907458e-01
  3.8875014e-02
  2.3430592e-04
 -3.9752509e-02
 -1.8535277e-01
  2.2990553e-04
 -2.8977005e-04
  1.7176452e-04
  2.9003746e-03
  4.3408785e-04
 -1.4380883e-05
 -1.5454523e-04
 -1.2404120e-05
 -2.0410537e-04
  2.1009152e-01
  7.2881591e-01
 -6.8305455e-02
 -5.7777780e-01
 -1.4388395e-03
  1.2657819e-03
  1.4485372e-04
 -8.6102710e-04
 -1.6066707e-04
  5.7602825e-04
 -2.3435709e-01
  1.9264989e-01
  3.2464792e-05
  1.4830872e-03
  8.4753803e-05
 -2.2490801e-01
 -9.9883917e-05
 -1.0674234e-01
 -2.2590523e+00
 -8.5490517e-02
 -3.8009783e-04
 -2.3390283e-04
 -1.5813966e-01
  1.3005943e-03
  4.9387454e-04
 -7.3166995e-04
  2.0310397e-01
  2.4310492e-02
 -5.0574483e-05
  1.4738851e-04
 -6.6091592e-04
 -2.8018771e-05
 -2.2939902e-02
 -5.0853062e-01
  1.4911566e+00
  7.0797172e-03
  6.9777441e-04
 -3.3792749e-02
 -2.4285600e-01
 -3.9687419e-01
 -2.6653794e-04
 -2.4625121e-02
  6.6434085e-02
  3.8070595e-03
  1.2301926e-04
 -6.3628587e-04
 -1.5104009e-04
 -1.1136079e-04
  5.2211195e-01
 -1.8548119e+00
 -2.2451296e-01
 -4.7657928e-01
  4.6474047e-04
  4.3466175e-04
  2.5010892e-04
 -3.4007072e-03
  1.9022834e-04
  1.0731712e-02
 -2.5330256e-03
  9.7212367e-02
 -1.7890062e-04
 -2.9625828e-04
 -3.7248136e-04
  4.9155444e-04
 -2.4978554e-01
 -1.8009479e-01
 -1.9178138e+00
 -5.4878879e-01
 -9.4388874e-05
 -1.4164165e-04
 -1.7949133e-01
  8.4055687e-04
 -3.5325397e-04
 -1.9473013e-02
 -2.5916612e-05
 -5.4242217e-04
 -2.7799627e-04
 -1.8179179e-04
  2.6613998e-04
  2.0216213e-04
  1.2645033e-03
 -7.5415708e-02
  5.6051636e-01
  5.3960788e-01
  2.7634326e-04
  4.4423874e-04
 -3.7645692e-01
  7.8036980e-04
 -1.8262170e-04
  3.8413766e-03
  4.7884071e-03
  4.0130038e-02
 -6.4384606e-04
  2.1351472e-05
  8.3376589e-04
  6.9948111e-04
  1.3844411e-01
 -1.7714165e-01
  1.9084939e+00
  1.7677889e+00
 -1.5016109e-05
 -2.4642553e-02
 -3.2434717e-02
 -1.6185787e-01
  1.5458517e-04
 -2.6964627e-03
  7.2756931e-02
 -6.6168201e-03
  6.8948307e-04
  1.3294269e-04
  1.2540144e-05
  2.2369357e-04
 -6.8661675e-02
 -1.7542705e-02
 -5.2027184e-01
  3.0852156e-03
  4.6766491e-04
 -6.1282136e-02
 -6.5852247e-02
  2.8419937e-04
 -2.6087699e-04
  1.7796780e-03
 -1.0487951e-01
 -8.3241202e-02
  1.9954605e-06
  1.0587244e-03
 -1.4817584e-04
  1.1617474e-04
 -1.2569784e-04
  1.4815500e+00
  2.3435271e-01
  2.2574952e+00
 -2.7097843e-04
 -1.5785705e-01
 -5.2188861e-01
 -3.2549116e-01
  1.7521720e-04
 -7.9338803e-05
  9.3037903e-05
 -4.3420692e-04
  7.1570760e-04
 -3.8068218e-04
  6.8764493e-05
 -4.2835492e-04
 -3.4514982e-05
 -4.1774363e-04
 -4.5950301e-03
 -5.0866348e-04
  1.9796484e-05
 -2.8957802e-04
 -2.7957449e-03
 -4.6993420e-04
 -5.2470405e-04
 -4.0461338e-04
 -3.4418720e-04
  2.7817248e-05
 -7.5594289e-05
  6.6565990e-04
  1.8132836e-05
 -5.3890755e-05
  1.8839052e-04
  1.2279377e-01
  7.7404237e-01
 -3.9044000e-02
 -1.4907068e-03
 -1.2422670e-01
 -6.7667992e-05
  1.1635449e-03
 -4.2019272e-04
 -2.6981544e-04
 -7.0416885e-05
 -5.4257415e-04
  5.2136905e-04
 -2.2884338e-04
 -4.5199541e-04
 -2.0269169e-04
 -1.3133594e-01
 -5.7566124e-01
  6.5550244e-01
 -5.6045298e-02
  7.2541233e-04
 -4.6874746e-04
 -1.8937315e-01
 -2.7724186e-01
 -3.5679934e-04
 -1.6262755e-04
 -3.2406574e-04
  2.1728050e-04
 -3.8726762e-04
  9.3964807e-04
  8.7979104e-05
 -3.4887580e-05
  6.3848362e-05
  3.7146074e-04
 -4.0055880e-01
 -5.7919639e-01
 -2.8432571e-04
 -7.7395369e-03
 -7.4192276e-04
 -1.3085775e-02
  4.9201940e-04
  8.6794933e-04
  5.6864868e-04
  1.8179751e-04
 -2.1221400e-03
  2.1609392e-04
 -5.1531446e-04
  4.3901883e-04
  1.8876003e-02
  3.2108942e-01
 -1.7181329e-01
 -3.9603800e-04
 -2.4302522e-04
 -2.7602640e-01
 -1.3998309e-01
  8.2776393e-04
  3.9673192e-04
 -5.6074793e-04
  5.1626652e-05
 -1.3287220e-03
 -1.2618086e-04
  3.7149803e-04
 -4.8092632e-05
 -3.4972859e-04
 -1.8135193e-01
  2.9404892e-02
  1.5551897e-02
  3.2386959e-01
 -2.5860517e-04
 -4.8083774e-04
 -6.0764807e-01
 -2.0612696e-01
 -8.3324366e-04
  3.7456999e-04
  4.0808821e-04
 -3.6699981e-05
  2.3564065e-04
  5.0249022e-05
 -4.7447075e-04
  1.3138732e-04
  1.8624443e-03
  1.0786887e-02
 -1.1297306e+00
 -1.3222352e-02
 -7.0449559e-04
  4.0311861e-04
  6.5780582e-04
 -2.1166408e-01
  5.8856711e-04
  2.6835117e-04
  3.0102744e-04
 -2.4807785e-04
  1.9785335e-04
  5.4431282e-05
  1.3113418e-04
 -4.8513443e-04
 -8.5728796e-04
 -6.7506486e-01
  4.5550996e-01
  4.8938226e-03
  3.8403887e-04
 -1.7206709e-01
  6.2223471e-04
  4.9990159e-04
 -8.0554473e-04
 -3.9788819e-04
  6.3739694e-04
  3.1490982e-04
  3.9093362e-04
 -1.3244466e-04
  1.1173909e-04
 -1.3645837e-04
 -5.3811446e-04
  9.4865340e-01
  6.0597986e-01
 -1.2211218e-03
 -6.2978693e-04
 -4.7460754e-04
 -2.7228102e-01
 -5.7829107e-04
  1.0621902e-03
  6.7183189e-04
 -9.5188909e-05
  7.9415919e-04
 -4.8448515e-04
  9.7332020e-05
 -1.6433009e-04
 -6.0449267e-05
  9.8432659e-04
 -7.2414660e-01
 -3.0223352e-01
  2.0022399e-03
 -6.8220543e-06
  4.6698182e-04
 -1.0610782e+00
 -1.7672269e-01
 -1.8844004e-04
 -3.5192561e-04
 -2.0281665e-04
 -3.1058571e-05
  2.0898400e-04
 -1.9716949e-03
 -9.3631976e-04
 -7.6684146e-04
 -6.2909067e-02
 -2.5309090e-04
 -1.4632853e+00
 -2.2420917e-02
 -2.6500950e-04
 -5.3526837e-01
  9.6730068e-03
 -2.4615567e-02
  1.4841201e-04
  4.7018117e-04
  2.9891936e-04
  8.1721414e-03
  1.8129520e-04
  1.4734572e-04
  7.9759472e-04
  3.0901268e-04
  2.8781556e-05
 -1.5402033e+00
 -8.8158375e-01
 -1.3691844e+00
 -5.7982124e-02
 -1.4838642e-01
 -7.3866403e-01
  2.4664040e-01
 -1.2893884e-03
  1.9820270e-04
  5.4261799e-04
 -3.3653087e-03
 -4.2130709e-05
 -3.2688046e-04
  1.0656448e-04
  5.6022353e-04
  5.2127871e-06
  1.1821056e-02
 -6.9460446e-01
  2.3845775e-02
 -2.4643892e-05
  2.2434932e-01
 -3.1538725e-02
 -1.4092258e-01
  1.8122431e-04
  1.2820205e-04
 -4.3134612e-05
 -8.2210207e-04
  1.1183428e-04
  5.2507428e-05
 -3.8561484e-05
 -2.1998159e-05
  2.4567998e-04
  4.0373406e-01
 -6.7729584e-04
 -2.2539330e-01
  1.4080423e-04
  2.6623215e-04
 -5.1259180e-04
  1.1085953e-03
 -7.1950082e-04
  3.4423596e-05
  1.1223555e-03
 -3.8917526e-04
 -4.4288224e-04
  9.5068914e-05
 -1.8049736e-04
 -4.5067797e-04
 -9.1089845e-02
 -6.6754299e-01
  2.1400750e-02
  2.8292328e-01
  2.1253308e-04
 -2.3165572e-05
 -1.5994738e-04
 -6.6768128e-04
  1.2845587e-05
 -7.8769190e-05
  2.0839005e+00
 -4.2569108e-04
  2.2608337e-04
 -3.2711099e-04
  1.7726011e-04
 -1.8855771e-04
  4.6782102e-02
  1.4310249e+00
 -1.4762421e-02
 -1.4687902e+00
  2.8454143e-04
 -3.0044478e-01
 -2.3799594e-02
 -4.3216866e-04
  7.3084806e-04
  3.7328771e-04
 -6.0543616e-04
  1.1160925e-04
 -5.6016012e-05
  4.1430583e-04
  3.5465305e-04
  4.3841814e-05
 -2.0976183e-04
  2.5418644e+00
 -4.2191300e-01
 -2.0118661e+00
  3.0393124e-04
 -4.4141063e-05
 -6.3842559e-01
 -1.2168919e-04
  8.2975440e-04
 -2.8808738e-04
  9.7611151e-04
 -1.7072153e-04
  2.0249432e-04
  2.0105111e-04
  1.9580715e-03
 -4.2695546e-04
 -3.2769597e-01
 -2.3729231e+00
 -7.0400113e-01
  2.9260787e-05
 -1.5625276e-04
 -7.3416305e-01
 -7.5068265e-01
 -1.1546892e+00
  5.9656228e-04
  9.7523385e-04
  6.4087642e-04
  2.7216745e-05
  2.3474285e-04
 -1.1735305e-04
  7.9959893e-04
