nep4_charge1 2 Te Pb 
cutoff 8 4 73 8
n_max 4 4
basis_size 8 8
l_max 4 2 0
ANN 30 0
 -6.3951832e-01
  1.4108185e+00
 -1.1097951e+00
  1.0816069e+00
  6.6723931e-01
  2.0415026e-01
  6.4528662e-01
  4.5210916e-01
 -2.3568761e+00
 -7.4702919e-01
  2.8089049e+00
  3.2991571e+00
  3.9044935e-01
  1.3435993e+00
  7.8236496e-01
  3.9859298e-01
 -1.9162589e+00
 -8.8961393e-01
  5.9271502e-01
  7.1754867e-01
 -2.7869928e-01
  3.9028424e-01
 -3.8547224e-01
 -5.0952703e-01
 -1.0397644e+00
  1.6580187e+00
 -7.0964217e-01
 -6.5640455e-01
  8.6957538e-01
  7.3003668e-01
 -1.0991113e-01
 -8.9099658e-01
 -2.7328098e-01
  1.8719818e-01
 -9.2548519e-01
  6.8850856e-04
  9.7817212e-01
 -7.8209484e-01
 -1.4194758e+00
 -2.1785194e-01
  5.0611669e-01
 -9.1819122e-02
 -8.4689760e-01
  3.0603153e-01
  7.1746200e-02
 -3.8001889e-01
 -1.7429476e+00
  9.6343005e-01
  2.2298191e-01
 -4.5816019e-01
  3.8514949e-02
 -6.9015032e-01
 -7.3415804e-01
  1.0013171e+00
 -3.2120979e+00
 -9.6682334e-01
  4.4360802e-01
  3.0714616e-01
  6.5004462e-03
  8.3559018e-01
  1.2674179e+00
 -1.7300084e+00
 -4.4663379e-01
 -9.0915263e-01
  1.5046847e+00
 -2.6645282e-01
 -6.0340655e-01
 -1.5988270e-02
 -2.1843076e+00
 -2.8387520e+00
 -4.6842593e-01
 -5.6541479e-01
  1.7897961e+00
  8.5766655e-01
  1.4025416e+00
 -7.9135889e-01
  1.7235164e-01
 -7.3991382e-01
 -2.4424334e+00
 -3.0028096e-01
  8.5654706e-02
  2.4477902e-01
  6.9273269e-01
  1.5316375e+00
  9.5256889e-01
  4.4598255e+00
  2.6330523e+00
 -3.2124634e+00
 -2.7494952e-01
  1.9116138e+00
 -5.8735555e-01
 -1.0141448e-01
 -2.9087767e-01
 -2.1705272e+00
 -5.6117249e-01
  1.0968201e+00
 -6.0810006e-01
  8.5754281e-01
 -1.6103410e+00
 -3.0239463e-01
  2.6180029e+00
 -1.3153582e+00
  1.7129067e+00
  3.9866540e-01
  6.1940581e-01
  3.6528498e-01
  1.1526471e+00
 -2.0331831e+00
 -4.1712159e-01
 -1.1717913e-01
  5.9862155e-01
  2.7739018e-02
  6.6165060e-02
 -9.1404349e-01
  6.3332111e-01
 -2.5436234e-01
 -5.2207034e-02
 -1.0813135e+00
  1.1959434e+00
  3.8297859e-01
 -6.9411084e-02
  1.3309325e+00
  9.8742783e-01
 -6.9298565e-01
 -1.7907701e+00
  2.4415487e-01
 -3.2089558e-01
  1.2331613e-01
 -1.0737114e+00
 -1.1872005e+00
  4.3282467e-01
  1.1179479e+00
  9.3669349e-01
 -6.5354729e-01
 -1.0739194e-01
  6.4939201e-01
 -2.0348172e+00
  5.1838315e-01
 -9.8591042e-01
 -1.2383735e+00
 -1.9238348e-01
 -1.5000696e+00
  7.0193315e-01
  8.0993354e-01
 -2.4572968e+00
 -4.5005038e-01
 -2.0804580e-01
  8.1400466e-01
  1.8618112e+00
  4.6687674e-02
  1.1621205e-01
 -6.0219353e-01
 -4.4840437e-01
 -3.7767479e-01
  6.7184842e-01
 -7.7873543e-02
  3.5979721e-01
 -8.9273858e-01
  4.5285657e-01
 -2.5315741e-01
  1.2344537e+00
 -1.5734638e+00
  4.7144815e-01
 -5.7254162e-02
 -4.1446704e-01
 -1.2720729e-01
  1.0044874e+00
  1.3855140e+00
 -4.0758511e-01
  2.3758874e+00
  2.5987864e-01
 -2.1222169e-02
 -6.1550999e-01
 -2.1273689e-01
  4.1109830e-01
  2.8524876e+00
  9.2123234e-01
  3.9263898e-01
  3.4716123e-01
  3.1243178e-01
 -4.1082539e-03
  1.6809757e+00
  1.4830089e+00
  7.8447706e-01
  1.8472888e-01
 -4.6940309e-01
 -1.4562271e+00
 -7.7498510e-02
  2.4664967e+00
 -2.6048026e+00
 -4.1457778e-01
  2.7992755e-01
 -5.6281173e-01
  6.7358416e-01
  2.3066800e+00
 -1.6323014e+00
 -1.0463666e+00
  6.2775159e-01
 -1.3039513e+00
  1.8437447e-01
 -1.0305073e+00
 -1.0572473e-01
 -9.3299645e-01
  6.0553402e-01
  6.4079213e-01
 -5.5044258e-01
  1.0946102e+00
  1.3452195e+00
 -1.4074310e+00
  1.1208001e-01
  3.1616050e-01
  1.0279188e-01
  1.2126731e+00
  1.1873281e-01
 -1.8133128e+00
  1.2761655e+00
 -1.3074591e+00
 -5.6820649e-01
 -1.4598762e+00
 -2.1364620e+00
 -1.2907628e+00
  3.1729370e-02
  4.7635257e-01
  5.0010562e-01
  3.0921302e-03
 -1.3156765e+00
 -2.9091057e-01
  2.2749697e-01
  4.9189356e-01
 -6.3368380e-01
 -1.2577385e+00
  4.9579459e-01
 -1.0277479e-01
 -1.2595255e+00
  6.7551041e-01
 -2.5173810e-01
  1.0801169e+00
 -2.2080687e-01
  1.5809449e+00
  4.9281421e-01
  2.8896266e-01
  7.6998287e-01
  2.8174458e-02
 -1.1976026e-01
  1.2016047e+00
 -1.4590091e+00
  6.3684964e-01
  9.0449387e-01
 -5.6395203e-01
 -1.3479607e+00
 -3.2299045e-01
 -2.3460630e-01
  6.9978970e-01
 -7.8129882e-01
 -2.6746112e-01
 -8.2775491e-01
  1.3111216e+00
  2.2194264e+00
 -4.0245992e-01
 -1.5728592e+00
  8.1432271e-01
  5.1766854e-02
  1.5110850e-01
  2.6061293e-01
 -3.7095144e-02
 -1.1303793e+00
 -1.7145026e-01
 -1.4417168e+00
  1.2337542e+00
  1.5982841e+00
  1.3391203e+00
 -1.6584529e-01
  8.8018203e-01
  7.0128009e-02
  8.3747727e-01
  7.2792000e-01
  1.1845674e-01
 -3.5634253e-02
 -4.8410594e-01
 -9.6523261e-01
  8.7421274e-01
  1.5292675e+00
 -7.2920609e-01
 -1.9473964e+00
  6.7381030e-01
  5.7575059e-01
 -1.8403754e+00
 -9.2435330e-01
 -5.4464161e-01
 -1.7330340e-01
  3.9735806e-01
  4.3685663e-01
 -8.4159815e-01
 -5.1443763e-02
 -6.1535871e-01
 -8.7550586e-01
  3.2710257e-01
  1.0295180e+00
  4.3043232e-01
  7.2957718e-01
 -5.5557412e-01
 -1.2999701e+00
 -3.0614585e-02
 -6.8942505e-01
  9.3182677e-01
 -4.6804720e-01
 -9.4057256e-01
 -9.7240233e-01
  1.6816255e+00
  5.6341380e-01
  2.0909595e+00
 -1.2315992e+00
 -2.3361343e-01
  1.7482505e+00
 -3.6678085e-01
  1.5178637e-01
 -3.7088099e-01
 -4.3165612e-01
  1.1717014e+00
  1.4493851e-01
  3.6933020e-01
  2.0036991e-01
 -2.3766179e+00
 -2.6469046e-01
 -7.1941137e-01
  5.9765899e-01
  7.5609750e-01
 -6.0367811e-01
 -1.2850057e-01
 -7.1158582e-01
 -1.3268678e-01
  6.8743758e-02
  3.1305540e-01
  2.6967815e-01
  2.4080503e-01
 -1.4587839e+00
 -4.4179249e-01
 -1.9429842e+00
  1.6004236e+00
  1.3177451e+00
 -4.0345713e-01
  2.5317487e-01
  8.2672012e-01
 -5.3778619e-01
 -1.3425591e+00
  8.4475750e-01
  2.6801583e-01
  1.4485546e+00
 -5.7532823e-01
 -1.6020881e+00
  5.9056997e-01
  2.1048076e+00
 -7.1324281e-02
 -3.5146165e-01
 -3.8239315e-01
 -3.7196562e-01
  5.9478140e-01
  2.8281865e+00
  4.2445999e-01
 -1.1472031e-01
 -4.0055957e-02
 -4.8492461e-01
 -3.8339281e-01
 -1.9922917e-01
 -9.5565546e-01
  2.5185201e-01
  2.1587501e+00
  1.6493578e+00
 -1.4551270e-02
 -1.2328558e-01
 -4.3948054e-02
  2.7660549e+00
  1.0438397e+00
 -1.3898102e+00
  9.3228954e-01
 -8.1073380e-01
 -3.7063748e-01
 -2.3063047e-01
 -5.9694570e-01
 -5.9066212e-01
  9.8270452e-01
  1.0792770e+00
 -1.9777533e+00
 -3.1806397e-01
 -8.7359530e-01
  6.9936770e-01
 -8.8811105e-01
  3.0171570e-01
 -1.4315277e+00
 -7.1440095e-01
 -1.4826915e+00
 -5.1448518e-01
 -2.5639653e-01
 -5.1272613e-01
  3.4365380e-01
  6.8474042e-01
  1.4253877e+00
 -6.4563447e-01
  4.2105520e-01
 -2.4520206e-01
  6.7928380e-01
  2.2936258e+00
  1.4542969e+00
  6.3435650e-01
  8.1986839e-01
 -8.0716640e-01
  1.5058755e+00
  3.5258171e-01
 -9.6106327e-01
  6.8086050e-02
 -7.1688461e-01
 -4.5825320e-01
 -3.5601294e-01
 -2.8359345e-01
  8.7998569e-01
 -3.7369904e-01
 -1.6112459e-01
  8.3546869e-02
 -3.0340096e-01
  1.3847746e+00
 -7.8262305e-01
  1.2653634e-01
  3.4500459e-01
 -7.6317966e-01
  3.7647080e-01
 -4.1208145e-01
 -3.7063205e-01
  1.7920178e+00
 -1.1192755e+00
  1.4021497e+00
 -1.3628390e+00
 -9.8538095e-01
 -1.4912200e-01
  1.6852036e+00
  2.7882046e-01
  1.5533150e+00
  2.0712316e+00
 -1.7444305e+00
 -8.3649039e-02
 -1.8358611e+00
 -1.1098329e+00
 -1.7199709e+00
 -1.2425864e+00
  2.5758600e+00
 -1.7207425e+00
 -1.2246544e-01
  8.0242252e-01
  7.9876322e-01
  1.5562861e+00
  9.7959852e-01
 -1.4133708e+00
 -1.1609362e+00
 -4.7309986e-01
  1.6953707e+00
 -2.7994883e-01
 -1.7886443e+00
 -2.4541178e+00
 -8.3933479e-01
 -5.6404334e-01
  3.3047683e+00
  7.9351470e-02
 -8.4880672e-02
  8.2041496e-01
  1.7274083e-01
  4.2783052e-01
  1.3813368e+00
  2.2630596e+00
 -1.1215883e+00
 -1.1349483e+00
 -1.3403778e-01
 -6.9357061e-01
  8.4723163e-01
  2.4614716e+00
 -8.8367152e-01
 -2.4935861e+00
  1.9022721e+00
 -5.4908991e-01
  1.5528573e+00
  2.1208122e+00
 -2.1254621e+00
  9.7682208e-01
 -2.6217404e-01
 -4.7444409e-01
  1.1826445e+00
  5.7547156e-02
  5.0981928e-02
 -8.3961111e-01
  1.4456369e+00
 -2.1890096e-01
  6.1739050e-03
 -3.0696702e-01
 -2.2203228e-01
  7.5573170e-01
 -6.5526098e-01
 -5.9545344e-01
 -6.9861394e-01
 -1.5532619e-01
  1.7081600e+00
  5.7004952e-01
 -1.8039442e+00
 -2.6951298e-01
 -1.2499753e-02
  3.7849686e-01
 -8.6911029e-01
 -2.3176605e-01
  1.1440011e+00
 -1.9264676e-02
  2.3962884e-01
  2.8213022e+00
 -2.2002044e-01
 -1.3174556e-01
  1.0769256e+00
  1.2880139e+00
  6.3240385e-01
 -1.6693072e+00
 -1.9917190e-02
  3.7267067e-02
  1.2835820e+00
 -7.0378470e-01
  4.9744236e-01
 -9.0960848e-01
  1.3469189e-01
  1.7600030e+00
 -1.3324924e+00
 -1.2101742e+00
  9.6009947e-02
 -1.9614384e+00
 -4.2442632e-01
 -5.8189869e-01
 -2.5577855e+00
 -1.6201207e-01
  1.6741310e+00
 -2.2470421e-01
 -1.5328516e+00
  8.6440396e-01
 -3.2942671e-01
  4.0192136e-01
 -7.9572433e-01
  2.0847608e-01
  1.3911500e+00
 -6.6107041e-01
 -1.4244338e+00
 -1.1811863e+00
  1.4832307e+00
  7.3003483e-01
  8.2019806e-01
 -8.1203496e-01
 -1.9849615e-01
  1.6477550e+00
 -1.1452099e+00
 -3.0395837e+00
  1.0322041e-01
 -3.3165333e+00
  3.9083415e-01
 -7.1809620e-01
  1.3794651e+00
 -2.2516730e+00
  1.8802337e-01
  6.4502662e-01
 -1.0558527e-01
  4.3419740e-01
 -4.7678456e-01
  6.2971115e-01
 -1.1534842e+00
  2.5396973e-01
 -3.7547007e-01
  1.9579172e+00
 -3.3750525e-01
  1.0884131e-01
 -4.1665637e-01
  7.4750729e-02
 -1.2155479e+00
  1.5653698e-01
  1.4745197e+00
 -2.2927959e-02
  6.3270998e-01
  1.4695616e+00
  8.5162067e-01
  7.1860075e-02
  3.8051149e-01
  5.9333169e-01
  1.9010820e+00
  1.4192747e-01
  1.7578695e+00
  6.9111097e-01
  1.4196166e+00
  1.1094453e+00
  1.0309561e-01
 -1.2500302e-01
  6.5680251e-02
 -3.2648134e-01
 -9.4749850e-01
 -7.4055284e-01
  5.1076454e-01
 -1.9251783e+00
 -7.1642745e-01
 -7.8794646e-01
 -4.5944646e-01
  3.9513546e-01
  7.9629040e-01
  1.1475825e+00
  6.9461718e-02
 -2.6469547e-02
  7.7183193e-01
  4.7354072e-01
  9.7846299e-01
  1.1004958e+00
  4.7874162e-01
  3.6640337e-01
 -2.4276249e+00
 -1.5061170e+00
 -1.3807250e+00
 -4.3076509e-01
  3.0791640e-01
  2.0638166e-01
  4.1995764e-01
  1.0391992e+00
 -1.5152863e+00
  2.5486797e-02
  1.5873651e-01
  1.8035355e+00
 -5.5375129e-01
 -4.8855090e+00
  1.1672355e-01
  1.1212771e+00
 -9.5716858e-01
  9.0282422e-01
 -6.6253829e-01
 -5.4557508e-01
 -3.8602522e-01
 -5.1317722e-01
  1.7516973e+00
 -8.8548940e-01
 -1.6933779e+00
 -4.4614041e-01
 -4.7905542e-02
 -1.8215194e+00
 -9.7219199e-01
  8.2475942e-01
 -1.7464547e-01
  2.6814029e-01
  1.8915369e-01
 -2.6839024e-01
  1.4968562e+00
 -9.5828921e-02
 -1.1862342e+00
 -8.2891375e-01
  2.6712117e-01
 -2.8526223e+00
  3.4679547e-01
  2.7773499e+00
  2.0971413e+00
  3.0345806e-01
  1.9319322e+00
 -1.0677353e+00
  1.2795947e+00
 -1.0081958e+00
 -2.0586274e+00
 -1.9749633e+00
 -1.7567654e+00
  2.6893532e-01
  1.1251807e+00
  9.3522918e-01
 -1.2710591e-01
 -6.0833591e-01
 -8.0581582e-01
 -1.7388927e+00
  2.2580306e-01
 -6.9800353e-01
  2.8700373e-01
  4.6874395e-01
 -1.0405774e+00
  1.8920174e+00
  3.5721084e-01
  1.4257528e+00
  2.9493600e-01
  9.7628796e-01
  1.0809106e-01
 -9.1717345e-01
 -7.4850523e-01
 -6.7166638e-01
 -3.5643807e-01
 -3.6861953e-01
  1.0034229e+00
  7.7974713e-01
 -2.2901077e+00
  9.9225014e-01
  1.7200111e+00
  2.5571964e+00
 -1.9932399e-02
 -3.2648593e-01
 -8.8042837e-01
  3.7134767e-01
  4.4000065e-01
 -8.1870630e-02
  1.0450853e+00
  1.8736042e+00
 -9.5466721e-01
  9.9510789e-01
 -4.4519109e-01
 -1.4023069e-01
 -1.1982379e+00
 -4.5396864e-02
 -4.3729548e+00
  1.9794464e+00
  8.0829102e-01
  1.5071559e+00
  3.8254726e-01
 -1.6456498e-01
 -1.5704386e-01
 -1.4421382e+00
 -9.2483521e-01
  6.4365309e-01
 -1.6433747e+00
 -1.2790090e+00
  1.9411330e+00
 -3.9493141e-01
  7.9318076e-02
  2.8450515e-05
 -1.0662487e+00
  7.2288042e-01
  2.1622607e-01
  3.4786743e-01
  2.4457851e-01
  7.5743683e-02
 -2.6222317e-02
 -5.5912173e-01
  1.4722342e+00
  7.2942466e-01
 -2.2602420e+00
  1.5980659e+00
  7.5174177e-01
  1.8018361e+00
  5.5915153e-01
 -6.9682486e-02
 -2.2411053e-01
 -1.7966633e+00
  4.3976507e-01
 -1.0259185e+00
  7.3480064e-01
 -5.5671090e-01
  2.6691636e-01
  1.2285881e-01
  9.0632051e-01
  6.9566667e-01
 -1.5523579e+00
 -3.4258464e-01
 -3.0951250e-01
  3.7898979e-01
 -5.7148267e-02
  9.1027898e-01
  1.6831477e+00
 -6.1891466e-01
  9.9095476e-01
  5.2071649e-01
  1.4971490e+00
  2.8182294e+00
 -1.1871923e-01
 -1.4126320e-01
 -2.0361476e-01
  1.7462636e+00
 -1.2018136e-01
  1.4242103e+00
  9.7311550e-01
  7.6091748e-01
  2.4911597e+00
  1.1351956e+00
 -1.4801755e+00
  1.4828532e+00
  1.3469251e+00
  8.6679333e-01
 -8.0147970e-01
 -4.1829437e-01
  1.0585768e+00
 -8.1845474e-01
 -7.7807176e-01
  1.2597195e+00
  9.3135720e-01
  1.2351522e+00
 -9.8724908e-01
 -1.4387423e-01
 -1.8989449e+00
 -1.2793311e+00
  1.9334385e-01
 -4.4426563e-01
 -8.8523644e-01
  9.2557633e-01
  4.3150090e-02
  2.2565317e+00
 -1.0521036e+00
 -1.6093099e-01
  2.4845662e+00
 -1.9226264e+00
 -1.4499241e+00
 -3.4885353e-01
  1.2778049e+00
  8.0811942e-01
 -3.8411918e-01
  2.1455810e+00
  3.5904035e-01
  3.7085161e+00
 -3.1241310e-01
 -1.7203680e+00
  5.9102327e-01
  1.8293615e-01
 -1.8803436e+00
 -9.6471447e-01
  3.7245068e-01
 -4.6349487e-01
 -2.3786011e+00
  7.8913248e-01
  2.0027666e+00
  9.4168800e-01
  8.0771869e-01
 -1.4658262e+00
  1.0000021e+00
  1.4456992e-01
 -4.6378508e-01
 -2.4152730e-01
  2.3531516e+00
  9.3979931e-01
 -2.7039632e-01
 -1.5640278e-01
  8.9146107e-01
  3.0386239e-01
  7.1278238e-01
  7.7819020e-01
 -7.5090742e-01
  1.3324629e+00
  9.7660966e-02
 -1.8026079e+00
  6.6951841e-01
 -3.3104470e+00
  1.7303962e+00
 -1.1770012e+00
  1.1635208e+00
  4.0170574e-01
  1.3111625e+00
 -4.5512173e-01
 -1.2813314e+00
  8.2695240e-01
 -2.8100061e+00
 -5.6966209e-01
  7.2561485e-01
  1.0480865e+00
  9.6081179e-01
 -3.0311939e-01
 -6.3574278e-01
  8.4416091e-01
 -5.7055086e-01
 -1.6431824e+00
 -1.1049325e+00
 -1.0300398e+00
  7.6590575e-02
  1.1569718e+00
  2.2524273e+00
 -7.1502417e-01
  5.2550024e-01
  9.6966720e-01
 -5.6202865e-01
 -2.8896609e-01
  1.6700101e+00
 -1.1299858e+00
 -9.4222164e-01
  5.1112241e-01
 -2.6994017e-01
 -8.8847822e-01
 -1.5037334e-01
 -1.0709409e+00
 -2.2966495e-01
 -8.7418988e-02
 -1.0951322e+00
 -2.0721276e+00
 -7.3310596e-01
 -8.8820398e-01
 -1.2491375e+00
  1.1307904e+00
  1.1014843e+00
 -2.0961142e+00
  1.1372414e+00
  1.0074292e+00
 -1.2205319e+00
  1.5575448e+00
  1.6641444e+00
  4.5630008e-01
 -4.8412179e-04
 -1.3036804e+00
  5.0628420e-02
  3.2110170e-01
  1.3937380e+00
  2.5126703e+00
 -1.4260870e+00
 -1.9795766e+00
 -3.1305218e-01
 -5.1408309e-01
  1.8279974e-01
  2.2878966e+00
 -1.4932865e+00
 -2.8577806e-02
  6.7336863e-01
  1.4563847e+00
  2.2700303e+00
  1.3225828e-01
  1.7659709e+00
 -3.7740186e-01
  8.4291285e-01
 -4.1438097e-01
 -7.1999329e-01
 -4.9689227e-01
 -2.8682232e-01
 -9.0423040e-02
  5.6743574e-01
  2.2965530e-01
  1.9053237e+00
 -8.6816531e-01
  1.6709940e+00
  8.8748050e-01
  1.0279267e-01
 -1.8532600e-01
 -4.8018536e-01
  7.8470653e-01
 -1.2466413e+00
  1.5293176e+00
  1.8885707e+00
 -9.3321699e-01
 -5.4214382e-01
  4.6128085e-01
 -9.7338462e-01
 -1.3787856e+00
 -7.7034855e-01
 -1.2424890e-01
 -1.1393841e-01
  1.2791191e+00
 -8.9908481e-02
  6.0604370e-01
 -1.8707931e+00
 -4.9301001e-01
  3.3502740e-01
 -4.7680593e-01
  3.3518428e-01
 -1.0008374e+00
 -6.5397263e-01
  1.9529377e-01
 -5.3395338e-02
 -5.1630288e-01
 -5.7729578e-01
  3.7628749e-01
 -1.1523678e+00
  5.3750277e-01
 -6.8354720e-01
 -8.8800812e-01
  1.8365835e+00
 -2.8517243e-01
  2.6385757e-01
  2.7598682e-01
 -1.9234478e+00
  2.7010864e-02
  1.1725134e+00
  3.3618376e+00
  4.3839189e-01
  7.4309713e-01
 -6.1207838e-02
  3.2539803e-01
  8.3873636e-01
 -1.5554091e-01
 -5.9349090e-01
  1.7135110e-01
  6.4452988e-01
 -8.3752072e-01
 -5.2255487e-01
 -1.4157468e-01
 -7.9747081e-02
 -2.1200523e-01
  4.1132084e-01
  2.7146241e-01
 -1.1867939e+00
  1.0320210e-01
  2.2413938e-01
 -1.1632633e-01
  1.4287698e+00
  1.5497637e-01
 -5.4772002e-01
  5.0236344e-01
 -2.0169669e-01
 -3.6319941e-01
  2.0967390e-01
 -1.2484632e-01
  5.9846632e-02
 -2.8572965e-01
  2.8501067e-01
 -1.5390719e+00
 -9.8659533e-01
  2.9972985e+00
 -1.4922414e+00
 -3.9258584e-01
 -3.6124483e-01
  6.7842835e-01
  4.6237355e-01
 -4.5508206e-01
  2.2964579e-01
  2.4173915e+00
 -1.9594166e+00
  5.0312275e-01
  2.9855803e-01
 -4.9543169e-01
  9.5042676e-01
 -2.2912374e+00
 -9.5109707e-01
  2.4728975e-01
 -4.5122400e-01
  1.3590166e-01
  2.8978488e-01
  3.3361912e-01
 -4.6685925e-01
 -3.5043538e-01
 -7.0168710e-01
  8.7430817e-01
  1.7031264e-01
  1.4023999e+00
  2.4771671e+00
  3.0914333e-01
  9.4345444e-01
  1.6076823e-01
 -6.7675388e-01
 -1.5746932e+00
 -7.2359151e-01
  3.4826300e+00
 -1.0996243e+00
 -1.4478681e+00
 -2.8755865e-01
  7.3210782e-01
 -5.0701356e-01
 -1.9247748e-01
  2.2916679e+00
  1.3526848e-01
 -1.8432405e+00
  1.0806928e+00
 -1.8468319e-01
  6.2150329e-01
 -5.2945709e-01
 -8.2089502e-01
  1.6481625e-01
  5.6111395e-01
  3.8237613e-01
  2.0668490e+00
  1.0598716e+00
 -1.2430199e+00
  9.2892510e-01
 -2.5983393e-02
 -4.3152592e-01
 -4.0465927e-01
 -2.5488300e+00
  7.7036923e-01
 -7.7557735e-02
  2.7066832e+00
 -6.3474929e-01
 -4.3744880e-01
 -4.5150617e-01
 -7.1830237e-01
  2.0529687e+00
 -1.9645905e+00
 -1.0773829e+00
  3.2952845e+00
  9.8634982e-01
  1.5733615e+00
 -1.7778498e+00
  1.0922910e+00
 -7.2967625e-01
 -1.9593334e+00
  1.3049878e+00
  3.2422726e+00
 -3.1487826e-02
 -2.5643742e+00
 -5.7911146e-01
 -1.6705623e+00
  1.6177282e+00
 -2.6374316e+00
  2.5127137e-01
  8.2903886e-03
 -2.2285576e-01
 -6.8058765e-01
 -1.2891679e-01
 -2.3003442e+00
 -2.4730790e+00
 -5.3863108e-01
 -7.3325127e-01
  3.0969542e-01
  4.9653524e-01
  9.4844407e-01
 -1.0267233e+00
  6.7470312e-01
 -7.1583742e-01
 -1.2984565e+00
  9.1417223e-02
 -5.5492717e-01
 -5.8855820e-01
  2.0447706e-01
 -1.8035870e+00
 -5.9547120e-01
 -2.0127493e-01
  1.0931069e+00
  1.2125330e+00
 -1.6303617e-01
 -2.0275474e+00
  2.9351428e-01
 -2.1536429e-01
 -1.8872334e+00
 -1.9432053e-01
  2.8625005e-01
 -4.7185969e-02
  1.1734136e-01
  1.7267239e+00
  6.8915421e-01
  1.3556077e+00
 -1.1935254e+00
  1.3443627e+00
 -1.2545772e-01
  5.6842369e-01
 -3.4249431e-01
 -2.9650581e-01
 -1.8156816e-01
  1.1417273e-01
  5.4496074e-01
  3.4697923e-01
 -8.7087160e-01
  1.2607530e+00
 -1.4823819e-02
 -4.7088152e-01
  2.1738756e-02
  6.3588351e-01
  6.5921970e-02
  8.3681621e-02
 -6.9455552e-01
  2.2699878e-02
 -7.8332394e-01
  1.4706110e+00
 -6.4558005e-01
 -2.2936459e+00
 -9.4593912e-01
  1.1228598e+00
  9.5243035e-03
 -1.2501599e+00
 -3.2001038e+00
  2.9232541e-01
  1.1594781e+00
  1.3562714e+00
 -3.5638723e-01
  3.3080882e-01
 -7.7085412e-01
 -1.2420332e-01
 -2.8520194e-01
 -6.7383897e-01
 -2.8273773e-01
  5.0061452e-03
 -1.3064805e+00
  1.4581203e-01
  4.9685070e-01
  1.7013626e+00
  3.5697657e-01
  6.7931890e-01
 -9.7459030e-01
  2.3457267e+00
  1.5067277e+00
 -6.6297501e-01
 -1.7277795e+00
 -2.3563950e-01
  9.4715244e-01
 -5.5380887e-01
  1.5461689e+00
  1.9420083e+00
 -3.7591538e-01
 -6.3313717e-01
  1.7096792e+00
  4.7358474e-01
  5.9481174e-01
  7.8981441e-01
  2.0060735e+00
  1.9523047e-01
 -1.0149870e+00
 -1.1333702e+00
  9.0263728e-03
  2.9896584e+00
  2.3567567e+00
  2.7492395e-01
 -6.2199426e-01
  3.4451687e-01
  3.6085197e-01
 -1.5532607e-01
 -1.6951954e-01
 -2.5622091e+00
 -9.6313395e-02
  2.8294365e+00
 -8.6027610e-01
  2.1076834e+00
 -2.2841766e-01
  1.5893651e+00
 -2.5932064e-02
 -4.9290657e-01
 -7.3770130e-01
  1.8995467e-01
  1.2923150e+00
 -1.1166778e-02
  2.2053747e+00
 -9.1171557e-01
 -3.4489210e+00
 -3.9682606e-01
 -2.2431929e-02
 -1.4025630e+00
 -1.0031610e+00
 -1.1633140e+00
 -1.3946238e-02
  2.3043141e+00
 -1.3173597e+00
 -1.6615946e+00
 -9.6248406e-01
 -2.9071069e-01
  2.5639334e-01
 -6.7166746e-02
 -2.5071909e+00
  1.6144630e+00
  1.8251530e+00
 -3.7293322e+00
  5.1242542e-01
 -8.3101326e-01
 -1.6680628e-01
  2.3370078e+00
 -2.1434023e+00
 -1.3272995e+00
  1.6065793e+00
  9.6336567e-01
 -1.1681598e+00
  2.8830507e-01
 -1.6543686e+00
  1.5230534e+00
  8.0892313e-01
  6.1704743e-01
  4.2319852e-01
  2.2921291e-01
 -8.4903145e-01
  5.0622112e-01
 -2.5584271e+00
 -1.8806777e+00
  5.5587536e-01
  2.1504252e+00
  1.1232512e+00
  2.6077731e+00
  2.5087762e-01
  3.3154491e-01
  4.2578211e-01
 -3.0521476e-01
  1.1731628e-01
 -1.4798455e+00
  3.8288730e-01
  2.7808683e+00
 -1.1864604e+00
  8.6603612e-01
 -8.2336748e-01
 -1.5576581e+00
  3.5916221e-01
  2.5287187e-01
 -1.2499616e+00
 -7.5357825e-01
  6.9022201e-02
  3.6701995e-01
 -6.5518922e-01
  2.3938639e+00
  1.3252102e-02
  1.6740909e+00
 -6.7235476e-01
  1.2952965e+00
  1.4453825e-01
 -4.5588890e-01
  1.0800155e+00
  4.0625361e-01
 -1.4625124e-02
  1.2786211e-01
  4.4825262e-01
 -1.1555524e+00
 -1.7608404e+00
 -1.1519068e+00
  2.9764297e+00
  1.8090625e+00
 -3.5121173e-01
 -3.6433375e-01
  2.4123061e+00
  2.0374024e-01
  2.0702626e-01
 -9.3837894e-02
 -2.1523199e+00
  2.3871240e-01
  5.0420797e-01
 -1.1442775e+00
 -1.2920330e-01
  6.4981043e-01
 -1.8316178e-01
 -1.0965801e-01
  6.6080916e-01
 -3.1710851e-01
  1.3668536e+00
 -2.3296018e-01
  5.1301438e-01
  2.5697351e-01
 -9.9919415e-01
  4.1544083e-01
 -9.7310585e-01
  2.3712637e-02
  1.4444588e+00
 -1.2569319e-01
  5.5780309e-01
  5.2613255e-02
  9.8812771e-01
 -4.3320474e-01
 -6.6002399e-01
  5.6413904e-02
 -4.9169138e-01
  1.2046436e+00
  6.1318910e-01
  1.8379432e+00
 -7.0669097e-01
 -8.4846401e-01
 -1.8446478e+00
  1.1853658e+00
  1.4436737e-01
  2.3001525e-01
 -2.1924129e+00
  1.2055776e+00
  5.2059263e-01
  1.1766319e+00
 -6.7210579e-01
 -4.3706304e-01
 -2.8519291e-01
  1.8928051e-01
  1.6165240e+00
 -1.9508426e-01
 -2.7195850e-01
  3.7260190e-01
 -2.0749781e+00
 -7.9190254e-01
  1.3541435e+00
  3.0269104e-01
  2.2627022e+00
 -1.0640992e+00
 -9.3106693e-01
  5.9346223e-01
 -5.6948328e-01
 -1.1036355e+00
  8.3241329e-02
  2.8073782e-01
  4.6592969e-01
  4.0742967e-01
  1.5335189e+00
  1.5751625e+00
 -1.2406671e-01
 -1.6764207e+00
 -3.0260961e+00
  4.1233122e-02
  1.3304334e+00
 -8.2699525e-01
  1.2727730e+00
 -3.2359323e-01
  1.6807312e+00
 -3.4308091e-02
 -1.5918817e-01
 -3.0351570e-01
 -5.5769324e-01
 -1.0335441e+00
  2.9514647e-01
 -3.0883930e+00
  2.0453098e+00
 -1.6906201e+00
  3.7900475e-01
  9.9067396e-01
 -4.2852019e-03
  4.8955023e-02
 -4.1043320e-01
  5.8802050e-01
 -2.6176472e+00
  2.6173267e-01
 -9.8286092e-01
 -5.7688248e-01
 -7.9305965e-01
  2.6271534e+00
 -2.9136948e-03
 -7.9822177e-01
  4.2020795e-01
 -2.8623405e-01
 -2.8091916e-01
 -4.2836407e-01
 -4.0773460e-01
 -2.3510300e-02
  1.1253618e-01
  3.5860041e-01
  1.5270947e+00
 -4.1100162e-01
 -4.7940812e-01
  6.2110400e-01
 -1.3315592e+00
  1.7472665e+00
 -2.6400189e+00
 -1.0907391e+00
  7.2206330e-01
 -1.4610767e+00
 -3.0731943e-01
 -2.4698050e-01
  9.6046555e-01
  1.7077512e+00
  2.4224167e+00
 -6.8397987e-01
  5.2071709e-02
  2.1361634e-01
  9.2772925e-01
  4.0715021e-01
 -3.6739931e-01
  2.6914781e-01
 -1.3244901e+00
  1.0908259e+00
 -4.6011275e-01
  3.6447278e-01
  7.4450785e-01
  1.2370327e-01
  1.0180758e+00
  2.5470459e+00
 -2.2891259e+00
 -1.3461843e-01
 -2.6785183e+00
 -1.9970225e-01
  3.7988886e-01
 -6.8156993e-01
 -1.8067679e+00
  1.4166334e+00
 -1.2934712e+00
 -2.9332542e+00
  1.1671078e+00
  9.0764105e-01
 -1.6811467e+00
  7.7131815e-02
 -5.9821022e-01
  2.3846788e+00
  1.3338031e+00
 -4.2203795e-02
 -1.2794492e-02
 -3.1398636e-01
  8.7871689e-01
 -8.1572139e-01
  7.5899583e-01
  3.0298313e-02
  1.5511066e+00
  1.4880778e+00
  7.8565896e-01
 -2.6565689e-01
 -1.7471012e-01
 -4.3889368e-01
 -2.5304101e+00
 -2.4993677e-01
 -9.9262410e-01
  9.1335738e-01
 -5.8327740e-01
 -2.1940587e+00
 -1.2911835e+00
  4.9134293e-01
  1.2056919e+00
 -2.7952376e-01
 -8.6372733e-01
 -1.2847124e-01
  6.3518643e-01
  1.2401071e+00
  5.6099795e-02
 -2.6370484e-01
  1.6148539e+00
  1.3546687e+00
 -1.6395599e+00
  2.5456402e+00
 -9.9726075e-01
 -5.6103182e-01
  3.1937891e-01
  1.0077252e+00
 -6.0446340e-01
 -2.0354106e+00
 -6.3314426e-01
 -6.7977518e-01
 -1.2261098e-01
  4.7227544e-01
  1.2258112e-01
 -3.3350859e+00
  8.7570328e-01
 -4.2304847e-01
 -3.9689565e-01
 -1.3574536e+00
  9.1521822e-02
  1.0305854e+00
  1.2860285e-01
  4.8050129e-01
 -6.5043044e-01
  1.8386519e+00
 -4.0955502e-01
 -3.2465670e-01
  1.4728388e+00
  3.1764966e-01
 -1.4698598e+00
 -1.7206970e-01
 -1.0768453e+00
  1.1289599e+00
 -2.8760621e-01
 -8.9163238e-01
  6.3270003e-01
  7.7404660e-01
 -6.7159069e-01
 -1.4219896e-01
 -7.4009800e-01
 -2.1365008e-01
  8.3127898e-01
 -7.6460022e-01
 -2.4917305e-01
  2.6248280e-02
  2.3948889e+00
  3.0643529e-01
 -2.2562253e+00
 -9.2650944e-01
 -5.3940094e-01
  1.4703833e+00
 -9.4359517e-01
 -3.0481711e-01
  6.9452244e-01
 -1.2570719e+00
 -1.3325188e-01
  9.0316254e-01
  2.2672112e+00
 -6.8998188e-02
 -1.0250554e+00
 -1.8931587e-01
  2.6412138e-01
 -2.9565686e-01
 -3.5125741e-01
 -7.3603833e-01
 -1.5462041e+00
  2.0888610e+00
 -4.5328822e-02
 -1.3177830e+00
 -2.5651616e-01
  1.4304010e+00
  2.8732746e+00
  1.5667650e+00
  1.2081087e+00
 -1.0313399e+00
  1.7906221e+00
 -3.4847701e+00
 -1.8212404e-02
  9.9935615e-01
 -1.8602750e-01
  7.8427052e-01
  1.4170907e+00
 -1.2832639e+00
  3.2733071e-01
 -5.9900862e-01
  6.5973151e-01
 -8.4406054e-01
 -1.1715300e-01
  1.1771797e+00
 -7.3994026e-02
 -4.5190179e-01
  5.1117867e-02
  2.9234821e-01
  1.7185292e+00
 -3.7825744e+00
  1.2024409e+00
 -3.6047816e-01
  5.4637158e-01
  1.3652632e+00
 -1.0534489e+00
  8.0492395e-01
 -2.2124951e+00
  2.1960225e+00
  1.5694405e-01
 -4.8042867e-01
  6.3261610e-01
 -8.8928419e-01
 -1.4534764e+00
  3.3050296e+00
  1.2327598e+00
  1.3042505e+00
 -3.3798335e+00
 -2.3832469e+00
 -2.7393823e+00
 -7.2321320e-01
 -2.0961151e-01
  2.1606967e-01
  1.2927407e+00
  4.6809360e-02
 -1.8740065e+00
 -1.9277743e+00
  1.0201354e+00
  7.7790216e-02
  3.1961626e-01
 -2.7823923e+00
 -1.5083041e+00
  5.9011883e-01
 -5.4953307e-01
  1.6481128e+00
  2.3030653e+00
  1.1603938e+00
 -4.6562146e-02
  6.8325418e-01
  1.3998486e-01
 -3.5422277e-01
 -1.1589022e+00
 -1.4779609e+00
  1.4299430e+00
 -5.8267587e-01
 -5.0103790e-01
  8.1822254e-02
 -1.0547527e+00
 -4.8154762e-01
 -9.2583008e-02
  1.7237546e+00
 -5.3293508e-01
  1.9019901e+00
  6.4398497e-01
  7.6508957e-01
  5.1562315e-01
 -1.0656234e+00
  5.2994448e-01
  5.5540238e-02
  2.3604640e-01
 -2.4929216e-02
  5.6051411e-02
 -9.3027055e-02
  4.6124977e-01
 -3.3355001e-01
  6.3153934e-01
  1.2655209e+00
  4.9596924e-01
 -5.9511125e-01
  9.7904373e-03
 -3.2400304e-01
 -1.3936428e+00
 -2.3437612e-01
  1.5895915e+00
 -1.3396965e-01
 -6.4288330e-01
 -1.1022532e+00
  2.9287535e-01
 -9.7458646e-02
 -1.3971759e-01
 -1.7977328e+00
  6.5400451e-01
  1.2214942e-01
  1.2217288e+00
  4.7074446e-01
  1.2219891e-01
  5.1826593e-02
  9.6166211e-01
  3.2705197e+00
 -1.0874135e+00
 -1.4689608e+00
  6.4550650e-01
  7.1039033e-01
 -1.7195016e+00
  1.2153801e+00
  1.6141526e+00
  7.7481133e-01
 -1.8402689e+00
  5.4127127e-01
  3.9369389e-01
 -3.7103191e-01
 -3.1276253e-01
  6.1018705e-01
 -6.0679638e-01
 -9.7272271e-01
 -9.7257024e-01
  3.2573450e-01
 -4.5034119e-01
 -3.9012054e-01
 -7.6010875e-02
  5.6374061e-01
 -3.8909587e-01
  1.1636709e+00
  6.2301952e-01
 -6.0869348e-01
  6.1613359e-02
  6.1203462e-01
 -1.8011647e-01
  5.8169830e-01
  1.7013989e-01
 -4.0631524e-01
 -1.3430364e+00
  7.3349851e-01
  4.6770501e-01
 -1.5769960e+00
 -1.8506350e-01
 -1.7210132e+00
 -2.4494103e-01
 -2.6048124e-01
 -6.3827825e-01
  1.2040974e+00
  2.5156834e+00
  5.7934481e-01
 -1.6716428e+00
 -9.5604080e-01
 -1.5926046e+00
  1.2942412e+00
 -2.6287472e-01
 -2.6059633e-01
  1.7257161e-01
  1.2880008e-02
  1.9170274e-01
 -4.0559947e-01
 -1.3004333e+00
 -4.2580232e-01
  8.5311598e-01
  7.1089017e-01
 -3.3961955e-01
  2.8210849e-01
  9.8575097e-01
  3.0754524e-01
  2.0665393e+00
  1.1769321e-01
 -3.7340459e-01
 -3.4427509e-01
  1.3072926e+00
 -4.3950355e-01
  6.9265530e-02
 -4.4497421e-01
  3.0529413e-01
 -3.9409336e-01
 -1.7345624e+00
  1.4694093e+00
  9.6906453e-01
  2.5237006e-01
 -3.3171228e-01
  1.8432895e+00
  4.1666979e-01
  1.5865784e+00
  6.4706957e-01
  5.8758599e-01
  1.4602292e+00
 -1.0133047e+00
  2.7012780e-01
 -4.4059741e-01
 -6.9425082e-01
  2.1704433e+00
 -1.0905575e-01
 -1.7620600e+00
 -1.8257182e+00
  6.3225269e-01
  8.0950648e-01
  1.0018630e-01
 -3.7952015e-01
 -1.3537787e+00
  8.4350640e-01
  9.9820894e-01
 -7.7235681e-01
  4.0260395e-01
  1.1805816e-01
  4.7409731e-01
 -3.2729292e-01
 -4.2125684e-01
 -1.5816936e+00
 -1.7976137e-02
 -8.4101069e-01
 -1.1922368e+00
  1.6763070e-01
  1.8285710e+00
  1.3023024e+00
 -8.9960808e-01
  8.9603126e-01
  1.4698789e+00
  9.4146347e-01
 -1.1694242e+00
  2.7960701e+00
 -9.5324856e-01
  8.4875405e-01
  9.8143560e-01
  2.7265094e-02
 -5.5313293e-02
 -7.9949158e-01
  8.7860990e-01
  2.2439441e-01
 -1.7684309e-01
  2.6470194e+00
 -1.0977037e-01
  2.3719911e-01
  6.2302370e-02
  2.5646207e-01
 -5.6087202e-01
 -1.6498340e+00
 -5.1018190e-01
  8.3675933e-01
 -2.8445103e+00
 -8.5418493e-01
 -1.7411215e+00
 -4.3607163e+00
  1.2075254e+00
 -1.5012836e+00
 -1.2099224e+00
  1.6127146e+00
  2.8756031e-01
 -8.5055465e-01
  1.4010562e+00
 -1.2701359e-01
 -2.6243892e-01
  8.0847508e-01
 -2.6114443e-01
  1.1012850e+00
  1.1216785e+00
  2.5658810e-01
 -1.1964376e+00
  1.4160278e+00
  4.0304475e-02
 -2.9455388e-01
  8.3399564e-03
  1.9303979e-01
 -6.6624022e-01
 -1.1510738e+00
 -1.1761520e+00
 -1.3532273e+00
 -4.3061897e-01
  2.4653456e+00
  1.0273752e+00
  6.1122245e-01
  4.4185820e-01
  2.1496849e-01
 -6.4177728e-01
 -1.5625277e+00
 -1.2441386e+00
 -3.4405890e-01
  2.0156171e+00
  6.9939482e-01
 -4.4792393e-01
 -2.1645159e-02
 -6.3046551e-01
 -4.2584321e-01
 -4.3761009e-01
 -6.3298595e-01
 -1.0375410e+00
  1.2597868e+00
 -1.3078879e+00
 -6.9609642e-01
  2.3752100e+00
 -3.6427417e-01
  5.4889226e-01
  1.3074231e+00
  2.6490045e-01
 -1.7636637e-01
 -2.7819434e-01
 -1.0977272e+00
  5.8110374e-01
  5.2712238e-01
  1.1572492e+00
 -2.8279099e-01
  1.1761646e+00
  4.7367746e-01
 -1.2207534e-01
  2.1885867e+00
 -7.4913138e-01
  6.6203040e-01
 -8.8612223e-01
  1.8711225e+00
 -1.0398169e+00
 -4.4150633e-01
 -2.5175754e-02
  1.4064057e-01
  1.5872945e-01
  9.8537922e-01
 -2.6484507e-01
 -2.2285359e-01
 -7.7582872e-01
  5.8433485e-01
 -5.8822119e-01
 -6.8667138e-01
 -4.2198765e-01
  3.6249349e-01
  1.7418928e+00
  3.5195398e-01
  3.0477448e+00
 -7.0119900e-01
  1.2501670e-01
  1.5523126e+00
  3.6355197e-01
  1.2867808e+00
 -7.5251900e-02
 -1.4635448e+00
 -4.0023968e-01
 -1.3261610e+00
 -1.7673407e+00
 -4.9717808e-01
 -1.4217126e+00
  1.0383568e+00
 -5.2225339e-01
 -7.7783805e-01
  2.5898033e-01
  2.1555328e+00
  5.4614954e-03
 -1.1828808e-01
 -1.2763190e+00
  1.2545027e+00
 -2.4255409e+00
  1.3403537e+00
  1.5191562e+00
 -2.0947354e-02
  1.7176704e+00
 -7.3655796e-01
 -2.0109214e-01
 -6.6504896e-01
  7.4107242e-01
 -4.7455385e-01
 -6.6354358e-01
  4.4660124e-01
 -4.3931141e-01
 -1.2892868e-01
  1.3728595e+00
 -1.2755280e+00
  7.8695399e-01
 -1.1754324e+00
 -1.6850937e-02
 -8.0260718e-01
  1.1918825e+00
  8.0065858e-01
 -1.3599480e+00
  1.2168907e+00
  1.5443410e+00
  9.0330225e-01
  4.2015821e-01
 -7.2470266e-01
 -1.3091741e+00
  7.3862590e-02
  1.4421798e+00
 -2.7815605e-02
  1.4475342e+00
 -1.8678672e+00
 -8.8471729e-01
 -7.0118970e-01
  2.2613609e+00
 -5.3181934e-01
  6.7649573e-01
 -1.1009043e+00
  3.9043108e-01
 -7.7550739e-01
  5.7314378e-01
 -1.8205889e-01
 -3.8470054e-01
 -3.5068369e+00
 -7.9803938e-01
 -6.6655463e-01
 -1.2114050e+00
 -5.2512199e-01
 -2.9497659e-01
  1.9846404e-01
  4.9032995e-01
 -1.4105027e+00
  4.2541993e-01
  4.6208326e-02
  1.7854549e-01
 -4.4102930e-02
  3.5561691e-03
 -3.1744683e-01
  1.4737406e-02
 -2.0947999e-01
  3.8526732e-01
 -6.1581540e-01
 -5.0851226e-01
  6.3931221e-01
 -1.3435812e+00
 -6.4001167e-01
 -3.2610595e-01
 -4.9583900e-01
 -6.4191663e-01
  5.8620960e-01
  5.4287696e-01
  6.9959611e-01
 -2.9461486e-02
 -5.7229485e-02
  7.5153992e-02
  2.3768146e-01
  1.1494273e+00
  5.8715981e-01
  1.8150386e-01
 -8.1290603e-02
  1.4038661e-01
  3.1886840e-01
  2.3365174e-01
  2.6706944e+00
  2.3637247e+00
  8.9064926e-02
 -6.2164128e-01
  1.6094002e+00
  2.0105062e+00
  1.0879973e+00
 -1.4716430e+00
 -2.7981824e-01
 -2.4404163e+00
  2.7271354e+00
  3.5165802e-01
 -9.8515421e-01
  1.4303602e-01
 -7.9564929e-02
  1.4920889e-01
 -2.1592504e-03
  8.6348295e-01
 -9.1532457e-01
 -2.4011185e+00
 -1.3347000e+00
 -1.3226795e+00
  1.2673892e+00
  7.0819384e-01
  3.0595276e-01
  5.2956843e-01
  1.3629513e+00
  2.0334547e+00
 -5.2741951e-01
 -2.0939130e-01
  8.0284512e-01
 -6.9704807e-01
  9.2630252e-02
 -1.0583944e+00
  3.0956626e-01
 -3.9956915e-01
  8.7479585e-01
 -9.1029412e-01
  2.0544371e-01
  1.6788049e-01
 -1.6302872e+00
 -8.1093073e-02
  1.8125387e+00
 -1.1801820e+00
  1.1779907e-01
  6.7978156e-01
  2.3524563e+00
  1.0380716e+00
 -8.7696862e-01
 -9.1638273e-01
 -1.2764430e-01
  3.2416740e-01
 -3.7723628e-01
  1.6668746e-01
 -1.5362867e+00
  2.4821723e+00
 -4.7804716e-01
 -1.2413241e+00
  6.8357778e-01
 -1.0032109e+00
  4.8438194e-01
  1.0925523e+00
  2.2643438e-02
  1.1755328e+00
  9.3643814e-01
 -5.2340865e-01
  2.0233805e+00
  8.9818776e-01
 -2.7622702e+00
  1.5520069e-01
  4.0025464e-01
 -7.0532966e-01
  1.0508881e-01
  1.5840330e+00
  2.7284904e+00
  1.0964448e+00
 -2.7193850e-01
 -4.3871987e-01
  1.1162301e+00
 -1.6349764e+00
 -6.2954688e-01
 -4.1442007e-01
 -7.7707082e-01
  2.2999587e-02
 -1.3469487e-01
  9.6652699e-01
 -1.0135024e+00
  1.5158765e-01
 -5.6201082e-01
  7.3120528e-01
 -6.5132648e-01
  8.5247952e-01
  3.8924925e-02
  1.4876051e+00
 -1.5571842e+00
 -3.4601357e+00
 -6.1023062e-01
 -9.4424230e-01
  4.7833002e-01
 -7.6017183e-01
  1.1131569e+00
 -6.8220653e-02
 -1.9067760e+00
  9.4689202e-01
  1.9047174e-01
 -3.6266935e-01
  7.4983549e-01
 -7.9173565e-02
 -1.5634218e+00
 -1.2250675e-01
 -5.9336826e-02
 -9.4533861e-01
  1.0811977e+00
  1.1971327e+00
  8.1751919e-01
 -6.3272864e-01
 -1.1418037e-01
 -5.8064401e-01
 -2.7297613e-01
  1.3598025e+00
 -5.7387376e-01
 -5.2834544e-03
  1.3580801e+00
 -9.4024801e-01
 -8.8379008e-01
  8.5837704e-01
 -3.9904469e-01
  7.9880059e-01
  1.3109379e-01
  1.0187771e+00
  1.0998925e+00
  1.0162114e+00
 -2.2443206e+00
  1.8778164e+00
  3.4059620e-01
 -1.0318481e+00
  7.9909897e-01
 -1.4421451e-01
  1.4119335e+00
 -1.7570814e-01
  1.4982909e-01
  1.3735476e+00
  1.6974120e-01
 -1.6891695e+00
  4.9342167e-02
  2.5264305e-01
 -1.6390976e+00
 -9.1126466e-01
  3.0081117e+00
  9.6902573e-01
 -1.7273150e-01
 -1.1270808e+00
  4.4744748e-01
  1.1639109e-01
  3.0879138e+00
 -1.0867636e+00
  2.1525266e+00
  1.5533091e-01
  7.0787214e-02
  5.4481250e-01
  1.5963258e+00
 -7.0267826e-01
 -1.7389485e+00
 -2.3779752e+00
  6.0648459e-01
  1.3492082e+00
 -5.8277911e-01
  4.4550210e-01
 -6.6541499e-01
  2.9586649e-01
 -2.6073316e-01
  2.0100718e+00
  4.6965724e-01
  1.2340074e+00
 -9.5562208e-01
  1.9134628e+00
  3.3348870e-01
 -2.1138754e+00
 -2.4304400e-01
  1.4261518e+00
  2.4730790e-01
  4.4659081e-01
  1.6537658e+00
  3.3241026e-02
 -1.6265342e+00
 -4.1395319e-01
  1.8393208e+00
 -2.2709595e-02
  4.0426263e-01
 -1.5251808e+00
  6.5020837e-02
  3.0023512e-01
  3.4166944e+00
  1.6072490e+00
 -9.4249833e-01
 -1.1264023e-01
 -1.3750365e-01
 -1.1396253e+00
  1.7728832e-01
  5.4167038e-01
 -2.1554902e+00
 -4.2387024e-01
 -2.0353580e+00
 -3.9539334e-01
  7.0422590e-01
 -6.5355951e-01
 -1.6574501e-01
 -3.1383365e-01
 -8.0515879e-01
 -1.4031173e+00
  1.8690401e+00
 -3.6333784e-01
 -9.1373670e-01
  7.0228034e-01
 -2.6376912e-01
 -1.0320468e-01
 -1.0002785e+00
  1.8954161e+00
 -3.2727680e-01
 -8.0115503e-01
  7.9732561e-01
  1.3910420e+00
  6.5077388e-01
 -1.8583233e+00
 -3.6067934e+00
 -3.9427769e-03
  1.2889101e-01
 -3.9124772e-01
  7.3004109e-01
 -6.7749000e-01
 -2.9555638e+00
 -9.9888027e-02
 -1.6607574e+00
 -8.4282115e-02
  1.6767774e+00
  3.1549950e+00
  7.1039647e-01
  6.2171239e-01
  8.8950682e-01
 -4.1184598e-01
  1.3944012e+00
 -5.8548544e-02
  8.1235111e-02
  8.7913013e-01
  1.1132965e-01
 -9.8244488e-01
  1.4525180e+00
  1.5926468e+00
 -2.2793163e-01
 -2.6918051e+00
  1.6279599e-01
  1.5395648e+00
  2.8414324e-01
  2.6430872e-01
  6.4754176e-01
  4.9249422e-02
 -1.7713939e-01
 -1.5865240e+00
 -1.6918911e-01
  1.5890555e+00
  5.5642080e-01
 -1.6767764e+00
  7.1244635e-02
  3.6669308e-01
 -8.1589168e-01
 -1.1126413e+00
  2.4259810e+00
  1.2744118e+00
 -5.8336896e-01
  7.7610090e-02
  1.2714764e-01
 -6.2733555e-01
  2.2368371e+00
 -1.5857899e+00
 -1.1161101e-01
 -9.6900964e-01
 -1.0716103e+00
  5.9047943e-01
  5.7747996e-01
 -2.8921852e-02
  1.0853626e-01
  6.6988301e-01
  1.3439895e+00
  2.6323253e-01
  5.0847363e-01
  1.1756812e+00
 -1.6793637e+00
  5.0243485e-01
  5.2461117e-03
 -9.3121600e-01
  1.2778211e-01
  3.2907460e-02
  2.0894434e+00
 -1.1986170e+00
 -4.0313652e-01
  5.3194535e-01
  7.2107506e-01
 -3.0224606e-01
  7.0053071e-01
 -9.3311566e-01
 -1.5970398e+00
  3.2600588e-01
 -2.8961262e-01
 -5.9523433e-01
  1.2366933e+00
 -3.7948743e-01
 -1.6237876e-01
  1.6797449e-01
  1.4471495e-01
 -7.9815283e-02
 -4.5914942e-01
  8.7237358e-01
  1.0394331e+00
 -1.1980984e+00
  5.5164814e-01
  3.4361082e-01
  1.0664810e+00
 -2.8737092e-01
 -2.3850706e+00
  1.0034670e-01
 -2.6671570e-02
 -9.7752970e-01
  6.1009890e-01
 -4.6869540e-01
  3.0170476e-01
  3.3323264e-01
  7.3812097e-01
 -1.2068956e+00
  2.1282573e+00
 -8.1833780e-01
  4.1981155e-01
 -1.6494628e+00
  4.9458966e-01
  1.0559723e+00
  3.0998791e-02
 -4.4089067e-01
 -5.5191302e-01
 -1.4856076e+00
  7.7945881e-02
 -5.1733706e-02
  5.0700432e-01
 -1.1627390e+00
  5.1300502e-01
  3.9887559e-01
 -4.7741568e-01
 -6.3842483e-02
  1.1991913e+00
 -7.7839673e-01
 -3.7938350e-01
  1.5687969e+00
  7.1133667e-01
 -2.9608437e-01
 -6.4257830e-01
 -2.1677299e+00
  4.7522035e-01
  7.8422701e-01
 -1.8734897e+00
 -3.2496470e-01
  1.9641203e+00
  3.8659349e-01
 -3.1313404e-02
 -1.2257552e+00
  1.7445830e-01
  1.7445830e-01
  1.7445830e-01
  1.7445830e-01
  1.7445830e-01
  3.1867151e+00
  3.1867151e+00
  3.1867151e+00
  3.1867151e+00
  3.1867151e+00
  1.6190689e+00
  1.6190689e+00
  1.6190689e+00
  1.6190689e+00
  1.6190689e+00
  6.9877112e-01
  6.9877112e-01
  6.9877112e-01
  6.9877112e-01
  6.9877112e-01
  2.2210346e-01
  2.2210346e-01
  2.2210346e-01
  2.2210346e-01
  2.2210346e-01
  9.7094488e+00
  9.7094488e+00
  9.7094488e+00
  9.7094488e+00
  9.7094488e+00
