nep3 3 Mo W Se 
cutoff 5 5 20 20
n_max 8 8
basis_size 12 8
l_max 4 2 0
ANN 50 0
  6.8346924e-01
 -1.0113603e+00
  1.8706116e-01
 -1.1954007e+00
 -6.5458959e-01
  1.2905797e-01
  6.4621526e-01
  3.1626639e-01
 -1.7718025e+00
 -7.1061581e-01
  3.8242599e-01
 -2.9642468e-02
 -1.2871903e-01
  9.1167700e-01
 -3.4497116e+00
 -6.4740665e-02
  2.6635394e-01
  2.9454163e-01
  8.2153179e-02
 -5.0762653e+00
  8.4286237e-01
 -2.2338467e+00
 -1.1702756e+00
 -2.1250603e+00
 -2.5033838e-01
 -1.0362744e+00
  1.8813753e+00
  4.6456428e-03
 -3.2283282e-01
  4.8184404e-01
  3.6197830e-02
 -3.0385062e-01
  2.3565108e-01
 -1.3060287e-02
 -2.7883676e-01
 -8.9116442e-01
  2.9188206e-03
 -6.7425036e-01
  5.3217202e-01
  6.1669427e-01
 -2.3774524e+00
 -9.4674182e-01
 -3.7217112e+00
 -1.2367027e+00
 -9.8003400e-04
 -3.6835577e-03
 -1.9741235e-02
 -7.5445108e-02
 -1.6423701e-01
  1.1888513e-02
 -2.8563133e-01
  9.2252367e-04
 -3.0393583e-01
  1.3845836e-01
  1.7402589e-01
  6.0717016e-01
  9.3787152e-01
  4.9690329e-02
 -6.0726815e-01
  4.1855270e-01
 -1.0962234e+00
  4.7229165e-03
 -7.5533015e-01
  6.8167314e-02
  4.5357827e-02
 -4.1605577e-02
 -6.1447769e-03
  2.0468242e-02
  5.1278162e+00
 -3.5174184e-02
  1.1377472e-01
  1.9194387e-02
  1.0570789e-01
 -2.1474918e-02
  4.8168942e-01
 -9.6066141e-01
  1.6252492e-02
  1.5565811e-01
  1.5840061e-01
  6.1596189e-02
 -2.0977894e-03
  6.4209002e-01
 -4.5487174e-01
 -3.3742115e-02
  2.3083422e-02
  8.4913801e-03
  7.6890066e-02
 -1.1737661e-01
  3.7704823e-03
  2.4653967e-03
  8.2578021e-01
 -2.7108207e-01
  5.4831062e-02
 -2.3200661e-02
 -1.0854433e+00
  1.8122572e-01
 -1.4338294e+00
 -1.6028916e-02
 -1.9497726e-02
  3.7193328e-02
  1.1164135e-01
  5.6990206e-02
  2.8260475e-02
  1.1363970e-02
  4.9601980e-02
 -1.0499163e-02
 -8.1734285e-02
 -4.0196985e-02
 -1.5882207e-01
 -2.8174899e+00
  2.2635590e-01
  2.4760652e+00
  1.2831680e+00
  5.1973939e-01
  1.5662048e+00
  8.8804543e-01
 -1.4193351e+00
 -1.2249717e+00
 -9.2613757e-01
  1.7735722e-02
  9.5105731e-01
  2.9318328e+00
 -3.2259142e+00
 -3.6771290e-02
  7.0448798e-01
  2.8674516e-01
 -6.1296248e-01
 -2.6711469e+00
  6.3154751e-01
  6.5131670e-01
 -8.4603542e-01
  1.3107269e+00
  2.0585437e-01
  1.6612580e+00
 -3.8254413e-01
  2.0008156e-01
  1.5741092e-01
  6.3486391e-01
 -2.7639349e+00
  1.2402586e+00
  1.2078559e-01
  8.5739918e-02
 -6.1218375e-01
 -3.2716572e-01
  6.4915973e-01
  5.3478414e-01
  2.1507484e-01
 -8.8896686e-01
 -7.7239686e-01
  1.0059215e+00
  1.4032313e-01
 -1.5728612e+00
 -4.7492705e-02
 -1.8973287e-02
 -5.6821561e-01
 -3.1400621e-02
 -7.4178779e-01
  8.2772440e-01
  5.7809955e-01
 -3.5721745e-02
  7.3979700e-01
  6.8628484e-01
  8.4304190e-01
  1.1841286e-01
  7.6302326e-01
  7.5051956e-02
 -7.2516656e-01
  2.3690903e-01
  4.5874923e-02
 -3.3852283e-03
 -1.2586676e+00
  1.9160962e-01
  1.6459535e-01
  1.6933348e-02
  1.9456806e-02
 -8.0532841e-02
 -7.0735611e-02
  3.9519124e-02
  1.9520701e-01
  5.1062357e-02
  1.4475200e-01
 -3.5345595e-02
  1.3823186e-01
  1.8922177e-01
 -6.0325068e-01
 -8.9095205e-01
  1.4167447e-02
  4.7585815e-01
 -8.9372613e-02
  2.0623860e-01
  1.3409536e-01
 -7.1986273e-02
 -5.0729521e-02
 -2.8076264e-01
 -1.9401346e-01
 -1.3028033e-01
  7.7185422e-02
 -2.5818588e-02
  6.5617017e-02
 -7.4301474e-02
 -3.7655675e-01
  1.2618724e-01
 -2.4556963e-02
 -6.3991152e-02
 -6.4879894e-01
  1.7585927e-03
  1.9316536e-01
  4.0550552e-02
 -1.7968865e-01
  6.4411998e-02
 -4.8157498e-02
  9.4432056e-02
 -3.6691688e-02
 -5.4355852e-02
  8.4335558e-02
 -1.5620822e-01
 -2.3655836e-01
  1.9872792e-02
  1.6721290e+00
 -4.9445528e-01
  4.2694747e-01
  8.3748862e-02
 -1.7810585e-01
 -6.8113491e-02
  2.3842874e-01
 -5.0669122e-02
  2.8233537e-01
  3.3076778e-02
 -4.8085958e-01
  1.2240554e-01
  2.5074687e-02
 -3.8170829e-04
 -1.4166203e-01
  6.1362430e-02
 -2.7194517e+00
 -5.7866252e-03
  2.7730348e-02
 -1.2662342e-01
  3.9178904e-02
  2.5718382e-02
 -9.7750261e-02
  7.1947156e-03
 -2.0411471e-03
 -1.7796768e-01
 -2.6285142e-01
  2.6362471e-02
  1.4171252e-02
 -3.2865390e-01
 -2.2719124e-01
 -1.0867182e-01
 -1.0713167e-01
 -1.9655807e-01
  3.6302920e-02
 -2.9978795e+00
 -1.0564752e-01
 -4.4005480e-02
  6.5421700e-01
  1.9781104e-01
  3.6803484e-02
  1.0662456e-02
  6.9534898e-02
 -5.1813729e-02
 -1.8695433e-02
  1.4264653e-02
  2.4688009e-02
  4.8153374e-02
  9.4540976e-03
  7.0039757e-02
 -3.4148224e-02
 -1.6429016e-01
 -1.1036600e-01
  7.5544534e+00
 -1.1621675e-01
  1.9119523e-01
 -1.4764357e+00
 -5.0598276e-01
 -1.0350063e+00
 -5.5408788e-01
  1.8587240e+00
 -1.3274070e-02
  4.1716903e-01
 -2.2184979e-02
  1.3472780e+00
 -4.9740034e-01
  3.3490409e-03
 -3.3052381e-02
  6.4940199e-02
  2.9175600e-02
  7.1671122e-01
  2.0403713e-02
  2.0400476e-02
  1.3153059e+00
 -3.9368570e-03
  4.5929909e-01
 -2.5320925e-02
 -4.1166712e-03
  5.0617278e-02
  1.0306408e-01
 -1.3749843e+00
 -4.6117334e-03
  3.0874485e-01
 -8.3189261e-01
  3.7983120e-03
  1.4027530e-02
  1.3038924e-02
  1.0507571e-02
  1.1614187e+00
  1.7753777e-01
  5.7125848e-02
  1.8889251e+00
  5.0838089e-01
  2.3364337e-01
  1.1817127e-02
  9.2204614e-03
  9.5271605e-01
  1.0524507e-02
 -1.7902337e-01
  4.3239448e-02
 -9.2074916e-02
  9.7663857e-02
  5.7627399e-02
 -2.3700049e-02
  6.2049415e-02
 -3.9999288e-02
 -2.4454417e+00
 -4.5322191e-02
 -9.7933990e-01
 -5.1600497e-02
 -4.3534848e-01
 -6.0058765e-02
  6.8943512e-01
 -2.2437648e-01
  5.8484621e-02
  1.5707151e-03
  4.9895447e-02
  1.8365917e-01
  7.3374420e-02
  5.4356194e-01
  1.0779992e-02
  2.5306588e-01
  2.3903280e-01
 -1.3020435e-01
  2.2170585e-01
  9.4736093e-01
 -1.0716908e-01
 -3.5836875e-02
 -4.9131501e-01
 -4.3365565e-01
 -7.2674081e-02
  1.2011290e-02
  2.5078413e-01
  1.4422730e+00
  4.9767858e-01
  6.8399173e-01
  5.0563522e-02
 -3.8172486e-01
 -7.2810844e-02
 -2.1172695e-01
  9.4910480e-02
 -3.4309432e-01
  9.1831946e-01
  2.9728502e-01
 -6.3738775e-01
 -3.5978588e-01
 -3.7796423e-01
 -2.5347069e-02
  1.0568043e-01
  3.9405173e-01
  1.1093677e-01
  1.3252121e-02
  8.2168525e-01
  3.8988203e-02
 -1.8802598e-01
  1.8298967e-01
 -1.2418896e-01
  2.4443019e-02
 -5.0134027e-01
 -4.3150708e-03
 -1.1848466e-02
 -4.7171775e-01
 -7.1743888e-01
 -1.9485598e+00
  7.1554375e-01
  3.0740675e-01
 -6.7374372e-01
 -4.8141441e-01
 -4.7710752e-01
  3.8697633e-01
 -2.4584565e-01
 -2.3760583e-01
  1.4523778e+00
 -7.2116965e-01
  1.0536100e+00
  1.0107138e-01
 -5.2365601e-01
  4.8229986e-01
  3.7301126e-01
  4.2240173e-02
 -1.8051500e-02
  8.1821144e-01
  3.3851376e-01
 -2.1863607e-01
  1.0690975e-01
 -1.3550578e-01
 -2.1039006e-01
 -4.9675912e-02
 -1.1231647e-01
  3.6779281e-01
  2.3272184e-01
  1.9694506e+00
  2.2089840e-01
  4.1629286e-03
  1.2170595e-01
  3.8500622e-01
  1.7772688e-01
 -6.4361101e-01
 -5.2266989e-02
 -7.4304885e-01
 -5.6244427e-01
  6.2662190e-01
  3.8730435e-02
  6.6123948e-02
 -4.0522099e-02
 -5.5128258e-02
 -3.2608423e-01
 -7.9467371e-02
 -7.0050246e-01
  2.1226864e-02
  1.8511835e-01
 -2.1843790e-01
  7.3350155e-01
  3.7743282e-01
 -4.2486209e-01
  1.0053428e+00
  3.1630996e-01
 -1.7275001e+00
  5.0944275e-01
 -1.6326377e+00
  3.3339842e-03
  9.1920651e-02
  2.9931310e-01
  1.4248842e-02
  3.2988366e-01
  2.9474659e-02
 -4.0630741e+00
  2.2683309e-02
  6.7912275e-03
 -1.7600657e-01
 -5.6665108e-02
 -2.1260212e-01
 -8.6331628e-03
 -6.6602342e-03
  6.3520306e-01
 -1.8164235e+00
  1.1207994e-02
  1.0148088e-02
 -2.7356967e-01
 -9.9197268e-02
 -3.1915272e-03
  2.7698046e-03
 -1.3899343e+00
 -1.0212719e-02
 -1.8544594e+00
 -3.6435941e-01
  1.0990205e-01
 -6.3359387e-02
  1.0297711e-01
  2.2746375e-02
  1.7883508e-01
  3.3901546e+00
 -5.2135217e-01
 -2.2799201e+00
 -1.4997386e+00
  4.2304146e-01
 -8.1721652e-01
 -1.9970372e-01
 -3.4633002e-01
 -6.3079372e-02
  1.1291395e-02
  3.2191016e-02
 -1.2544841e-02
 -9.2186574e-03
 -1.1264926e-02
  3.8878772e-02
 -6.7442656e-02
 -2.0310208e-02
 -4.9171969e-01
 -2.1972977e-01
  4.9834839e-01
 -4.6149158e-01
  1.1855214e+00
 -1.7395420e+00
  2.0232232e-01
 -5.6105617e-02
 -2.8689072e-01
 -1.0699216e-01
 -1.4423622e-01
  9.9219128e-02
 -1.3359284e-01
 -8.8346824e-03
 -5.2031279e-03
  1.6763988e-01
 -5.4292749e-03
  3.3238526e-02
 -6.2500954e-02
 -2.0792486e-01
 -2.8395346e-01
 -1.9604117e-02
 -1.8558316e-01
 -2.6606485e-01
  2.5597841e-02
 -6.7960232e-02
  1.0634627e-01
 -1.3090969e-02
 -2.7233031e-01
 -4.8866838e-02
 -3.5317513e-01
 -3.4658331e-02
  4.9060899e-01
 -1.6474169e-01
 -4.8359594e-01
  6.0414687e-02
  2.7474633e-01
  4.8296753e-01
  8.3985269e-02
  1.2615316e-01
 -6.7636496e-01
  7.4249007e-02
  1.2614212e-02
 -2.0980670e-01
 -4.0614983e-01
  5.7550661e-02
  8.2838935e-01
 -4.6992037e-02
 -7.2201014e-02
  1.9190398e-01
  8.2349963e-02
 -2.1702328e-01
 -1.1683818e-02
 -1.3818991e-02
  1.0889306e+00
  3.2912251e-01
  1.2850572e+00
  6.4791679e-01
 -4.9374223e-01
 -9.3001878e-01
 -3.7177432e-02
  2.4970880e-01
  1.3645513e+00
  1.2702016e+00
  1.9102678e+00
 -1.1613942e-01
 -3.0641155e+00
  1.7480187e+00
  1.3776027e-01
 -1.9299179e-01
 -2.4194221e-01
 -7.7231303e-02
 -2.1300683e+00
  9.7874343e-02
 -2.8220971e+00
 -6.0631782e-01
  9.7990490e-02
  3.6855382e-01
  1.2542979e-02
  2.0773239e-01
 -2.4972439e-01
  4.5678180e-01
 -8.0472827e-01
 -1.5151033e+00
 -3.5692564e-01
 -4.4751397e-01
  8.6590238e-02
 -6.6987723e-02
 -2.3785958e+00
  2.6493876e+00
 -2.7721047e+00
 -7.8349900e-01
 -6.1431921e-01
 -1.5828267e+00
  2.7717587e-01
  7.6906985e-01
  1.3201247e+00
 -9.4281393e-01
 -8.5627228e-01
  9.3108714e-02
  1.0208462e-01
 -5.7167864e-01
  1.9755144e-01
 -1.1909676e-01
 -2.4250805e-01
 -5.4928590e-02
 -1.5312167e-01
  1.2538804e+00
  1.8446960e-01
 -8.6380020e-03
 -2.3030450e-03
  2.9716551e-01
  7.8072818e-03
 -1.2808610e-02
 -5.3981576e-02
 -1.4939880e-01
 -3.6326784e-03
 -1.2813857e-02
  2.9631196e-02
  3.7952464e-02
 -3.0285059e-02
  1.0243650e-02
  7.4778544e-04
 -4.7535494e-02
  1.6003506e-02
  2.1844474e-04
 -1.7198515e-01
 -1.1566427e-02
 -1.4164570e-02
 -3.0249517e-02
 -3.6476277e-02
 -1.2541796e-01
  2.2197660e-02
  5.7248183e-02
 -3.8297635e-02
  5.1009879e-02
  2.8677518e-02
  2.5704272e-02
 -4.6945818e-02
 -3.8032990e-02
  1.1667614e-02
  3.5093904e-02
  6.1511353e-02
 -7.4462265e-02
 -1.3177679e-01
  2.3029814e+00
 -4.5741340e-03
  3.5603266e-02
  2.3852900e-01
 -1.3697352e-01
  2.7788585e-02
 -4.7124557e-02
 -9.6168631e-01
  8.2738195e-03
 -3.2952257e-02
 -9.9818241e-03
 -3.6713738e-02
  7.5658292e-02
 -4.2587996e-02
 -5.9475802e-02
  6.1718408e-02
 -4.0148124e-02
 -1.8898308e+00
 -3.6445424e-01
  9.5971167e-02
  6.0855146e-02
 -4.7842529e-01
 -1.1989537e-01
 -2.8091991e-01
 -1.9316767e+00
 -1.2313153e+00
  4.5626141e-02
  4.4286553e-02
 -1.3306048e-02
 -1.4962490e-01
  1.8136758e-02
  1.9922478e-01
 -3.1677939e-02
 -3.2950026e-01
 -1.0763232e-01
 -1.9487588e-02
 -2.4577545e-02
 -1.1498203e+00
 -2.4971248e-01
  5.4427877e-02
  2.1422304e-01
 -5.8740276e-01
 -3.9307636e-01
 -2.6677242e-01
  2.9032180e-02
  9.7482592e-01
  3.1508435e-02
 -1.8040311e-01
 -4.0900484e-01
 -9.7478747e-02
  2.6277113e-01
 -8.3870530e-02
 -1.4587575e-01
  5.0077212e-01
 -1.1444157e+00
  1.6718625e-01
 -7.8178518e-02
  3.5072520e+00
 -1.6642112e-01
  1.0640854e+00
  2.2964199e-01
 -4.7642704e-02
  1.2047781e-01
 -2.8408138e-02
 -3.7922570e-01
  1.2301033e-01
  1.5131639e-01
 -1.5876918e-01
 -5.8489963e-02
  5.3478472e-02
 -7.3531233e-02
 -1.4596136e+00
  9.2374325e-01
 -2.4795134e+00
  2.0437787e-01
 -5.6371266e-01
  4.9159583e-01
  1.1923975e-02
 -6.3732035e-02
 -7.3032945e-01
 -1.2975668e-02
  1.0358486e-01
  2.0953779e-01
  2.4457221e-01
  2.7120009e-01
  2.5239664e-01
  6.5393239e-02
  5.5110403e-03
 -9.4260648e-03
  9.8595805e-02
 -2.9560140e-01
  1.1558196e-02
 -3.4914594e-02
  7.2961915e-03
  3.2657307e-02
 -1.4847250e-01
  9.5450774e-02
  2.8563827e-02
 -8.1905164e-04
  6.4341813e-02
 -3.8083583e-02
  4.9320035e-02
 -3.9916494e-01
 -7.8567542e-02
 -3.3971477e-02
  5.4308601e-02
  3.3607790e-01
 -2.4806932e-01
  7.8097260e-01
  1.4305018e-01
  4.0280569e-01
  1.0537260e-01
 -3.2088995e-02
 -5.4943275e-01
  6.8057850e-02
  7.9558909e-01
 -1.1802402e-02
 -2.0677151e-02
  9.2075236e-02
 -4.0828530e-02
  7.8125149e-02
  5.6568958e-02
 -9.0834260e-02
  2.3097202e-02
 -2.1517325e-02
 -2.4508441e-02
 -5.5848950e-01
 -3.0520663e-01
 -1.6076277e-01
 -3.4297997e-01
  1.1887722e-01
  1.0056624e+00
  3.2513011e-02
 -5.3424042e-01
  2.1441320e-01
 -9.1840827e-01
 -4.8577499e-02
  1.0813829e-01
  7.7002426e-03
  2.3043492e-01
 -5.0439608e-01
 -6.0033596e-01
 -4.8831608e-03
 -2.3911756e-01
 -3.1300339e-01
 -3.9356012e-02
 -6.6399854e-01
 -7.0467943e-01
  1.2950382e-01
 -5.1066631e-01
 -2.4106156e-02
  3.2680646e-02
 -7.3358618e-02
 -1.2775838e-02
  6.2619537e-01
  1.1997496e+00
  4.4244042e-01
  3.0268160e-01
  8.6811632e-02
  7.3320448e-02
  4.3956375e-01
 -4.2305374e-01
 -2.0521806e-04
  3.5504930e-02
 -9.4377518e-01
  6.9993770e-01
  7.9226330e-02
  1.6754007e-01
  3.3946660e-01
  6.6834219e-02
  1.1100405e-01
  2.6731316e-02
 -9.2894548e-01
 -4.6523061e-01
 -8.5540757e-02
 -5.1399484e-02
 -7.0321018e-01
 -1.6546053e-01
  4.3770427e-01
  1.5016969e+00
 -1.0887345e+00
  5.7320285e-01
 -6.5444005e-01
 -1.3832902e+00
 -3.7686387e-01
  2.2239609e+00
 -4.2350116e-01
 -1.2984909e+00
  2.6159942e-01
 -1.0499378e-01
 -1.5387549e-01
  9.7781261e-03
  1.7586167e-01
  7.3811090e-01
 -4.8913859e-02
  3.6467213e-02
  6.1350010e-02
 -6.1548507e-01
 -5.5973446e-01
  1.5312000e-01
 -2.0363924e-01
 -5.5376552e-02
  5.6565446e-01
  2.3034116e-02
 -1.3015584e+00
 -3.3700734e-01
  1.7153853e-01
 -9.5770818e-01
 -7.1916483e-02
  7.3977429e-01
  9.5571065e-01
  5.9255153e-02
  3.6046070e-01
 -7.1220659e-03
 -1.5898907e-01
 -2.1226599e+00
  1.0687058e+00
  6.7661059e-01
 -5.0475252e-01
 -1.1416501e+00
  2.2191933e-01
  1.2855633e+00
 -7.8492209e-02
  2.2314689e+00
  1.1179650e-02
  8.9714795e-02
 -5.6566435e-01
 -7.8215986e-02
  1.9759810e-02
  1.1521072e-01
 -1.2524469e-01
 -2.4809234e-01
  6.7249846e-01
  1.4319789e+00
 -1.0144188e+00
 -1.0156848e+00
  2.9152778e-01
  1.5738386e+00
 -3.2085028e-01
  5.0074494e-01
  1.6429518e-01
 -1.4525815e+00
 -3.1392850e-02
 -6.7101717e-03
 -1.8547099e-02
  4.3266329e-01
  1.7507413e-02
  1.5395978e-01
  9.1212235e-02
  6.3091554e-02
  1.1402864e+00
  4.7915459e-02
  1.7311926e-01
  4.4446550e-02
 -8.7195849e-01
 -4.0831700e-02
  9.6662939e-03
 -2.2103559e-02
 -1.5770448e-02
 -1.3603961e-01
  2.4249612e-01
  3.9010102e-01
 -4.7885600e-01
  2.1958308e-02
 -4.3073294e-01
 -1.0398868e-01
  7.0602804e-02
 -6.3212469e-02
  1.4742941e-02
 -1.2115878e+00
  7.2781995e-02
  1.5964659e-01
 -1.7984964e-01
 -6.5910265e-02
 -5.3952479e-01
  9.9523503e-01
 -5.2445284e-03
  3.8704142e-01
 -5.0653305e-02
  9.3237786e-03
 -2.3552366e-02
 -2.1169280e-01
  3.9748289e-02
  4.0214438e-02
  5.3623233e-02
  2.7363238e-01
  1.9566920e+00
 -8.4670670e-02
  1.5037225e-02
 -1.2504305e-01
 -5.4715786e-02
 -1.5246269e-01
 -3.0583916e-02
  1.5072523e-01
 -6.3596861e-03
 -1.3348304e-02
 -7.5474352e-02
 -1.3752562e-01
  1.2703989e-02
  3.8602550e-02
  1.0305754e-02
  2.6606318e-02
  4.4560160e-02
 -1.7802961e-01
  9.6018966e-03
  1.8498111e-03
  2.1488089e-02
  1.0981224e-04
 -6.2665649e-02
 -7.7425592e-02
 -3.8675312e-02
 -9.0077564e-02
  6.1561354e-04
  2.3425562e-02
 -7.0372131e-03
  2.6077716e-02
  5.7393655e-02
 -1.4341936e-02
  2.8997499e-02
  6.8385080e-03
 -3.2808155e-02
  3.7767675e-02
 -1.0930806e+00
  1.0174442e-02
  5.2767895e-02
 -4.3928819e-03
 -8.5329235e-02
  1.7329249e-01
 -7.6682828e-02
 -4.5634177e-02
 -3.5369109e-02
  2.4329539e-02
  2.4083095e-02
  8.0165923e-02
  2.2774044e-01
  6.3879885e-02
  1.5907455e-02
  5.9957586e-02
 -2.1567630e-02
 -2.7457261e-02
  4.0341310e-02
  6.6914493e-01
 -2.5348106e-02
 -3.4493485e-03
 -4.5811910e-02
 -1.8016241e-01
 -1.6257236e-02
 -2.4922404e-02
 -2.7300915e-02
  3.2840736e-02
  5.4904319e-02
 -1.0741764e-01
 -5.9211306e-02
  1.5874280e-02
 -1.1677275e-02
  9.5971338e-03
 -6.8556434e-01
 -5.6043241e-02
  1.1684209e-02
 -8.6770967e-02
  2.4589794e-02
 -1.9775672e-02
  1.7862229e-02
  2.3853330e-02
  1.0187156e-01
  6.4914919e-02
  1.1851879e-02
  1.2459571e-02
 -1.6144595e-01
 -4.3026660e-02
 -1.4136155e+00
  7.0423573e-02
  7.0001334e-02
 -1.4184213e-01
 -2.2924203e-02
 -3.1768474e-01
 -8.5582677e-04
  5.2300459e-03
 -5.5720542e-02
  2.1037260e-01
  1.0769904e-01
 -1.2310996e-01
 -4.0877759e-02
  2.5931668e-02
 -7.1271010e-02
  1.9248394e-02
 -7.6760501e-02
 -3.0697485e-02
 -1.0127342e-01
 -5.7380021e-02
  1.2048515e-02
 -1.7498447e-01
  1.1506336e-02
  1.5413914e-02
  3.8634215e-02
  1.1327372e+00
 -7.4482447e-01
  9.3572009e-01
 -3.5702151e-01
  1.3047417e+00
  2.3238645e-01
  2.8351066e-01
  5.8486229e-01
 -1.8661672e-01
 -5.3124118e-01
  1.9133285e-01
  4.1232515e-02
 -3.0661547e-01
  3.4168595e-01
 -2.9110428e-02
  6.3047566e-02
  1.6690135e-01
 -4.2215396e-02
 -7.9354778e-02
 -8.4733963e-02
 -6.6750512e-02
 -1.3557656e-01
 -2.0360681e-01
  3.0589232e-01
 -7.6697081e-02
 -1.2305667e-01
  7.3344015e-02
 -5.6067181e-01
 -8.7125373e-01
 -3.6426443e-01
  1.1283261e-01
 -1.1123489e-01
 -1.0078614e+00
  1.5767079e-02
  3.1293176e-02
  1.0092096e-01
  1.1082532e+00
 -1.3044154e-02
 -1.1321176e-01
  5.9184217e-01
 -6.1899312e-02
 -3.4134334e-01
  1.2663618e-01
 -2.1208580e-01
 -3.2271397e-01
  5.2413188e-02
  1.5603684e-01
 -4.3065533e-01
 -4.8505002e-01
 -1.1457182e-02
  3.8824990e-01
  2.0721266e-03
 -6.3760328e-01
  2.9509153e-02
 -2.7805077e-02
  1.7039844e+00
 -6.4799184e-01
  1.4714119e+00
  4.5889404e-01
  6.4434307e-03
 -6.2026620e-02
 -7.6848753e-02
  4.6811298e-02
 -9.5364578e-02
  3.5955828e-02
  3.2172902e-03
  2.1133865e-01
  5.5845406e-02
  2.8603777e-02
 -1.3589509e-01
 -2.9960763e-02
 -4.8376289e-03
 -2.0338197e-01
 -9.6799262e-02
 -4.6114147e-02
 -3.5920151e-02
 -9.6249595e-02
  2.5075709e-02
 -2.9050999e-03
 -1.5140795e-02
 -2.8777145e-02
  5.9032347e-02
 -8.1377532e-03
 -1.1554258e-01
  3.3378262e-02
 -1.8302662e-02
  5.6939441e-01
 -3.3304356e-02
  6.4549014e-02
  5.2131865e-02
 -4.9839903e-02
 -1.8485917e-01
  5.3148860e-01
  9.3679421e-02
  1.2624700e-02
 -1.4726084e-01
  6.8133242e-02
  5.5733547e-02
  7.6922350e-02
 -5.9547976e-02
  6.4539565e-03
  1.1580006e-01
 -2.0925739e-01
 -2.1696098e-02
  7.5579666e-02
 -3.5708770e-02
  7.0121922e-02
  1.4186255e-04
  3.2005914e-02
 -5.3171343e-01
 -7.0388526e-01
  6.4057009e-03
  6.8123519e-01
 -5.8374353e-02
 -2.6337631e-02
 -9.7197205e-02
  1.1735493e-01
 -7.9728335e-02
  6.6032410e-02
  6.7969836e-02
  1.0613787e-02
  1.9328171e-01
 -2.0692233e-02
 -1.2585157e-02
  1.2761660e-01
 -3.2726530e-02
  9.1501348e-02
  3.6479201e-02
  3.6576793e-02
  8.4290123e-03
  2.7947994e-02
 -9.3284480e-02
 -2.5673628e-02
 -1.0065529e-02
  1.8578623e-03
 -6.3647050e-03
  8.8158026e-02
  1.2503041e-01
  1.1439045e-01
 -6.8725564e-02
 -4.2854147e-03
 -2.4400329e-02
  1.2191985e-02
  7.8586094e-02
  9.4591713e-01
 -4.5811325e-01
 -2.6923636e-02
  1.6200187e-02
  2.5854471e-01
 -2.5006907e-02
 -1.3193239e-01
  7.9738021e-02
 -5.2608490e-02
  4.1822024e-02
 -2.4303552e-03
  1.2461045e-01
 -6.1392941e-02
  6.1943419e-02
  7.9623424e-05
 -1.4208334e-02
  1.0600166e-01
  4.7366239e-02
  4.6696752e-02
 -1.7959675e-02
  8.8982563e-03
 -6.5015793e-01
  9.5917568e-02
 -2.2814269e-01
 -4.2351417e-02
  6.6145353e-02
  4.1512915e-01
  3.5863598e-03
 -7.1003154e-02
  2.1389082e-01
  6.7078464e-02
  5.3726274e-01
  9.5000237e-02
 -8.6868763e-02
  1.4461917e-01
 -1.6022008e-02
  1.7544255e-02
 -2.9539898e-02
 -6.1834896e-01
 -5.0533529e-02
 -6.9613475e-03
 -2.3869897e-01
 -1.2915459e-01
 -3.3162615e-01
 -1.6168104e-02
 -5.0523555e-01
  7.4095361e-02
 -3.3906397e-01
 -5.0695676e-01
  3.3274046e-01
  4.6722025e-01
  3.2062542e-02
  2.2490529e-02
  2.1037346e-01
  5.0606364e-03
 -4.4046170e-01
  8.6099170e-02
  1.2689061e-02
  6.9359347e-02
  2.2661416e-01
  2.5938290e-01
 -5.3476334e-02
 -3.2596922e-01
  3.8858708e-02
 -1.7550606e-02
  3.6416583e-02
 -3.8196462e-01
 -2.7294325e-02
 -1.6804295e-02
 -1.9319561e-01
 -4.4966584e-01
  4.3276180e-02
  4.1101086e-01
  5.2513517e-02
  2.4798496e+00
 -2.2775671e-01
 -3.8267627e-01
  4.0370040e-02
  2.1013603e-02
  2.1191873e-01
  1.0140924e-01
 -1.7399266e-02
 -9.8044388e-03
 -7.1178041e-03
  1.6041873e-01
 -4.0335721e-01
 -5.7307374e-02
 -2.5277026e-04
 -5.2545324e-02
 -1.8530890e-01
  9.1074500e-03
  8.3466315e-01
 -7.7866048e-02
  3.0909933e-02
 -1.1602442e-01
  5.2493297e-02
  1.1957409e-02
  7.2081899e-03
  1.7053426e-03
 -9.4196476e-02
  2.8287263e+00
 -3.5884408e-03
  1.6557358e-03
  6.7768410e-02
 -2.8361890e-03
 -4.7764461e-02
 -2.0165572e-02
  1.7635737e-01
  9.7195663e-02
 -5.3807169e-01
  6.3306469e-01
  4.1977558e-01
 -8.0690920e-01
  1.6064343e-01
  3.3005472e-02
 -3.6182262e-02
  5.1773146e-02
  7.6315105e-03
 -7.0639051e-02
 -2.2030321e-01
 -1.5701187e-01
  4.6339847e-02
 -1.0064492e-01
  3.2099698e-02
  5.7249770e-02
  4.0171184e-02
  3.8334649e-02
 -7.2073795e-02
  3.0749756e-01
 -5.3648036e-02
  2.6241598e-01
 -9.4067074e-02
 -3.7484908e-01
  1.4361195e-02
  7.7822953e-02
 -3.8285498e-03
  5.2030876e-02
  1.1539508e-01
  1.4864570e-01
 -4.6406992e-02
 -2.1408962e-01
  3.1640850e-02
 -9.1182053e-02
 -1.7139638e-02
  5.6222444e-03
  1.1510735e-02
 -8.8986821e-02
 -1.2221734e-01
  4.7159288e-02
  1.3565476e-01
 -3.0589467e-02
  7.0785247e-03
  4.7197551e-02
  1.2913205e-01
  6.6715531e-02
  2.8551538e-02
  9.4754668e-03
  2.5402838e-01
 -5.9886094e-02
 -3.5082031e-02
 -1.2930339e-02
  5.0931878e-02
 -4.8021111e-01
 -7.2160977e-01
  2.3159906e-02
  9.9235155e-02
 -6.9237173e-02
 -1.3876587e-02
  4.7345278e-03
  4.8877109e-02
 -4.4521396e-03
 -3.8522568e-02
  3.0867351e-02
  4.4452369e-02
  4.2890649e-02
 -2.2622980e-02
  1.3209987e-01
 -9.8035306e-02
  4.1966930e-02
  5.7419196e-02
  9.9442548e-01
  3.1769662e+00
  1.8395564e-01
  2.1662095e-01
 -1.0395323e+00
  1.0116065e+00
 -9.0561971e-02
  1.3920659e+00
 -1.7092988e-02
  2.4874702e-02
  6.7396182e-01
  3.9577097e-02
  2.2830749e-01
  1.7038687e-01
 -4.3890941e-01
  7.6187007e-02
  2.7013555e-01
 -6.0519282e-02
  4.4833389e-01
  2.9534718e-01
 -3.9584160e-02
  6.7759186e-02
  1.3012138e-01
 -2.9122874e-01
  5.6681152e-02
  1.9987395e-01
  5.3323591e-01
 -4.3388620e-02
 -4.2391336e-01
  4.4370178e-02
 -5.1272351e-02
 -2.3201771e+00
  6.5729606e-01
  2.6804698e-01
 -1.6457802e-01
  2.2886142e-01
 -9.5061731e-01
  6.3578524e-02
 -5.3336340e-01
  3.9206100e-01
 -1.6606661e+00
 -1.0137331e+00
  1.0616971e-01
  1.1629059e+00
 -2.1966171e-02
 -2.6759235e-02
  2.6446896e-02
 -7.3819794e-04
  4.8850693e-02
  1.1992107e-01
  1.8218964e-02
 -3.9038897e-02
  1.5929893e-02
 -1.5997954e-01
 -1.0459545e+00
  1.3793172e-01
  7.5264764e-01
  8.6340165e-01
 -7.8597635e-02
 -5.2985579e-01
 -4.0067610e-01
 -1.4789039e-01
  1.0757391e+00
  3.9740447e-02
  7.2793536e-02
  4.8036303e-02
  6.0320318e-02
 -7.8052253e-02
 -8.3720076e-01
 -7.8153070e-03
  4.6783932e-02
 -5.9916351e-02
 -2.7978957e-01
  2.3768321e-01
 -7.8925437e-01
 -1.8555672e-01
 -6.0403246e-02
 -3.9099310e-02
 -8.6241364e-02
 -5.9321970e-03
  2.2449180e-01
  2.7374964e+00
  7.6199406e-01
  9.6982592e-01
 -2.1568140e-02
 -5.3566033e-01
 -4.0860847e-01
  3.3676273e-01
  2.6857486e+00
 -5.7484686e-01
  3.2068723e-01
 -2.3571458e-01
  1.0953016e+00
 -4.5343626e-02
 -6.6894257e-01
 -5.9974170e-01
 -2.8788498e-01
  1.7505939e-01
 -1.2811891e+00
 -1.4587650e-01
  8.2328999e-01
 -1.6794284e-04
 -2.6806191e-02
  2.6827198e-01
  1.5688024e-02
  5.3142127e-02
 -1.0774902e-01
 -2.7599981e-01
 -1.1233119e-01
 -1.0741733e+00
  1.7664061e+00
 -5.9763187e-01
  2.2980464e+00
  3.6375731e-01
  9.6655339e-02
  5.1395100e-01
 -3.4747255e+00
  1.0740980e-02
 -1.4231644e+00
  3.7645132e-03
  1.8798060e+00
  1.2712057e+00
 -1.3162883e-02
 -6.1644841e-02
 -1.4527896e-03
 -8.3527789e-02
  8.0140457e-02
 -3.7335134e-01
 -1.3372513e-02
  6.7446135e-02
 -7.1471334e-03
 -3.6481193e-01
 -3.0591916e-03
 -8.1712520e-03
 -1.5547853e-02
 -8.4654391e-03
  2.4465449e-01
 -1.6664176e-01
  4.1491827e-01
  2.3514590e+00
  5.5636723e-02
  6.7540862e-02
  3.1688266e-02
  2.2161251e-01
  3.8614368e-01
  7.9825357e-02
  1.5640073e-01
  1.7796096e+00
 -1.8887718e+00
 -4.7167891e-01
  1.5154555e-02
 -6.2720485e-02
 -8.2992949e-05
 -7.1882293e-02
 -1.0852346e-01
 -7.7723309e-02
 -1.0085213e-01
 -4.3510258e-02
 -6.0685132e-02
  4.4333294e-02
  1.5686010e-03
  1.5817797e-01
  9.7318131e-01
  1.6387552e-02
  1.7641100e+00
  1.8905194e-02
  3.3872081e-03
  2.4550863e-01
 -7.0949101e-01
  2.3330314e-01
 -2.6964173e-01
  4.0214047e-02
  3.3392642e-02
  4.8544389e-01
 -5.8949143e-03
  4.3130791e-01
 -3.7784162e-01
  5.9722853e-01
 -1.8545221e-01
  4.8516404e-02
  1.1006166e-01
  1.0211331e-01
  5.6377983e-01
  7.4710630e-02
 -4.0717921e-01
 -1.0258708e-02
  1.4740491e-01
  2.5569248e-01
  1.9914414e-01
  3.2313070e-01
  5.4128069e-01
  3.3000663e-01
  2.1413933e-01
 -3.0777860e-01
 -5.7600069e-01
  3.6992130e-01
  4.2503562e-02
 -2.8479424e-01
 -1.1738025e-01
  1.2051626e-01
 -1.3192905e-01
  2.0215046e-02
  2.5594148e-01
 -1.8506998e-01
 -6.2458503e-01
 -2.2075254e-02
 -3.1058586e-01
 -7.1965456e-02
  4.7739205e-01
  4.9833325e-03
  4.3075923e-02
 -6.0249884e-03
 -1.2937694e-02
  2.4484201e-01
  4.1293981e-03
  1.7919199e-01
  2.4375612e-02
 -5.5457324e-01
 -1.6692996e-01
  1.2754202e-01
  2.8861597e-02
 -8.7624956e-03
 -1.0950005e-02
  2.1729422e-01
 -4.2571142e-02
  1.4495036e-02
 -6.2206075e-02
 -1.7035046e-01
  1.8910828e-01
  9.9807806e-02
 -1.1904795e-02
 -9.2548929e-02
  2.2452418e-04
  6.3874163e-02
 -1.3113091e-02
  5.5143889e-02
  7.8875169e-02
  1.7082553e-02
  2.6019990e-01
 -3.3407055e-02
 -1.0250285e-01
 -1.1860559e-01
  2.2430135e-02
 -2.4073524e-02
 -1.0479523e-01
 -5.6603823e-02
 -3.2067541e-02
 -3.9064065e-02
 -2.7405481e+00
 -8.4694475e-02
 -3.0744869e-01
  6.7767682e-03
 -1.1579971e-02
 -3.5435882e-01
  9.3814299e-02
  2.1272305e-02
  6.6049421e-01
 -4.5505397e-02
 -1.0210007e-01
 -3.8205080e-02
 -1.4242797e-01
  4.4134469e-03
  2.0100638e-02
 -4.2172696e-02
 -1.8718695e-02
  3.5799935e-02
  8.6733410e-03
  3.6379254e-01
  7.2066337e-02
 -3.2793477e-02
 -8.7038362e-03
  5.5697642e-02
 -1.3361642e-01
  3.9920066e-02
 -3.1589562e-01
 -6.7515508e-03
 -5.8697771e-02
  3.0518585e-01
  5.2619143e-03
 -3.1121375e-02
 -5.5197351e-02
 -1.8499494e-02
 -1.5272257e-01
  1.6288358e-01
  5.8996867e-02
 -5.5772401e-03
 -4.5118958e-02
 -2.0325070e-02
  1.0475786e-02
 -1.2259666e-02
 -1.4802180e-02
 -8.6532244e-03
  5.4056719e-02
 -2.1691397e-02
  4.3154567e-02
 -1.8146614e-02
  1.6363734e-02
  7.5679040e-03
 -3.5914049e-02
  1.7400306e-01
 -5.2479617e-02
  2.1478776e-03
  4.0067948e-02
 -3.1112323e-02
  1.4370291e-02
  2.0534050e-02
 -1.1046892e-02
  9.4093573e-01
 -6.7524195e-02
  1.2361035e-01
  4.2286757e-02
  8.9585856e-02
  4.0894225e-01
  7.5895311e-03
  1.5100695e-01
  6.9402598e-02
  1.8376987e-01
  1.6074595e-01
  1.0216938e-01
  7.8560352e-02
  2.8674209e-03
  5.9238128e-02
 -5.9622223e-05
  6.1271630e-02
  4.4247091e-02
 -2.2342065e-03
  2.6968665e-02
  4.8594046e-02
 -9.9531549e-01
  1.9756779e-02
  5.9153795e-02
  1.0973336e-03
 -2.2470253e-03
  6.5505333e-02
 -4.8478991e-02
 -1.5884981e-02
  8.3529942e-02
 -9.8516447e-03
 -3.0976322e-03
  1.7464548e-01
  6.0055178e-02
 -7.6110166e-01
  9.4839390e-03
  2.7412649e-02
 -4.8460238e-02
 -2.6528218e-01
 -3.6087312e-02
 -3.0015640e-02
  1.4007345e-02
  3.9843805e-02
  6.9732489e-03
 -7.7123478e-02
  2.3101373e-02
 -3.6967114e-02
 -3.9356761e-02
  1.0507904e-01
 -6.1356783e-02
 -1.2383732e-01
  3.3595327e-02
  2.6359428e-02
 -3.4021242e-03
  3.5154095e+00
  1.2708625e-01
  4.2877160e-04
 -2.1916686e-01
 -1.8261699e-03
 -5.2859075e-03
  1.7661251e-02
  1.3088909e-02
 -4.1114897e-02
 -3.7909210e-02
  3.1467699e-03
 -3.5464665e-01
  2.7877504e-02
  5.4409705e-02
  1.5782185e-01
 -7.4141562e-01
 -2.0306630e-02
  5.5405760e-01
 -1.0267836e+00
  6.9508268e-03
  4.8872894e-01
 -3.1423837e-01
 -2.3210873e-01
  3.1705189e-01
  1.0209361e+00
  1.0931066e-01
 -1.8795513e-01
 -1.5437569e-01
  4.9950323e-01
  1.5818538e-02
 -1.0353412e-01
  4.9427983e-01
 -3.2630485e-01
 -1.1722148e-02
  7.6881252e-02
 -7.0323426e-01
 -2.1758968e-01
 -3.4063827e-02
 -2.1105945e-01
 -4.8561409e-02
 -3.5931104e-01
 -6.6458352e-02
  1.0669826e-01
 -3.6482635e-01
  3.8918197e-01
  4.9089846e-01
  4.9683593e-02
 -2.1021795e-02
  9.3638249e-02
  3.1780505e-01
  3.5955023e-02
  3.4339505e-01
  9.3614233e-01
 -4.2711094e-02
  4.6981648e-01
 -5.8846420e-01
  1.2157407e-01
 -4.5018356e-02
 -5.6678798e-02
  9.8087795e-02
 -1.1781000e-01
 -1.8049280e-01
 -5.3074247e-01
 -3.6084365e-02
 -3.7346888e-02
  2.4204960e-01
 -2.0743462e-01
  2.8391834e-02
 -2.9060565e-02
  2.9791852e-03
 -5.4833472e-02
  1.0415204e-01
  1.7673048e-01
  1.6367507e+00
  2.3298700e+00
 -5.6014794e-01
  1.0483220e-02
 -3.1101863e+00
 -1.9458604e+00
 -1.7570413e+00
 -3.3670920e-03
  2.3585024e+00
 -2.3752010e-01
 -1.5856307e+00
  1.6798136e+00
 -1.9743922e+00
  8.7112952e-03
 -7.0701696e-02
 -2.5086409e-01
 -1.6139589e-01
  1.2936035e-01
 -7.1070671e-01
 -2.0478018e-01
 -1.3307035e-01
  9.4780433e-01
 -3.1389847e-02
 -7.8502499e-02
  4.0013051e-01
  3.4722760e-02
 -1.1091895e+00
 -1.6596638e-01
 -1.3221139e+00
  2.7371374e-01
 -1.7116030e+00
 -7.0736997e-02
 -5.8905501e-02
 -8.5913194e-03
  9.2734843e-01
  3.2522526e-01
 -2.2014098e-01
 -2.5914930e-02
 -1.5724394e+00
  2.0907436e-01
 -8.2219429e-03
  2.2935126e-02
 -6.4861052e-02
  3.5636723e-02
 -4.4915903e-02
  1.1524340e-02
  3.6176217e-01
 -9.7193301e-02
 -7.7270550e-01
  1.8245319e-01
 -2.5605547e-01
 -1.8446747e-02
  1.2332907e-02
  2.0059397e-02
 -3.5501532e-02
 -4.8318110e-02
 -1.8481135e-02
  8.6870138e-03
 -1.6055999e-02
  4.3300670e-02
 -2.2492786e-01
  3.4069307e-02
 -3.1284098e-02
 -6.7875884e-02
 -5.3206556e-02
  1.3013432e-02
  2.9974857e-02
 -1.1555544e-01
 -1.4361975e-01
  9.2212193e-02
 -1.9352208e-01
 -1.4085193e-01
  1.1062481e-02
  3.0975924e-03
  1.9182509e-02
 -7.5976551e-03
  1.3809978e-02
 -1.0965179e-01
 -2.5441058e-02
  4.0847275e-02
  6.6154180e-03
 -1.1022341e-02
 -6.8631828e-02
 -4.0039819e-02
 -1.2893577e-01
 -8.2864640e-03
 -1.3913369e-01
  8.9575022e-02
 -5.6504268e-02
  1.9066837e-02
  6.0835462e-02
 -1.8728295e-01
  8.0413252e-02
 -3.0509932e-02
  3.1916041e-02
 -5.3137220e-02
 -2.3135094e-01
  1.7159376e-01
 -7.2524929e-03
  8.9943521e-03
 -5.4767717e-02
  7.4752700e-03
 -3.1009814e-02
 -9.1010286e-03
 -2.9001974e-02
 -4.6689779e-02
 -9.0651155e-01
  6.9047374e-01
 -8.7427676e-01
  1.0738403e+00
  1.7877791e+00
  6.6025220e-02
  1.3242291e-01
 -1.7085955e-01
 -4.7756076e-01
  1.0768023e-01
 -6.3038319e-01
 -2.9287678e-01
  4.2301483e-02
 -3.3046432e-02
  1.2779082e+00
 -5.9056634e-01
 -1.8054204e+00
 -1.2284983e-01
 -2.3090777e-01
 -2.8673270e-01
  1.2107300e-01
  4.9026106e-02
  4.6406764e-01
 -3.3183321e-02
 -2.9665807e-01
  6.4656988e-02
  3.8552068e-03
 -1.5917818e-01
 -9.6963739e-01
 -1.1488036e+00
 -3.3397275e-01
 -9.7886190e-02
  3.5202292e-01
  2.4140309e-01
 -1.7623469e-01
  1.5774496e+00
 -1.8599369e-02
 -5.9969622e-01
 -4.5467186e-01
 -1.8463521e-03
  3.0800451e-02
 -8.2758105e-01
  3.6866334e-01
 -4.6119082e-01
  4.9055003e-02
 -2.4719618e-03
 -1.2438317e-01
 -3.8140845e-01
  1.7761262e-01
 -1.5547320e-01
  2.7276069e-01
 -3.0719396e-01
 -3.0709910e-01
 -7.4548304e-02
  1.2392288e+00
  4.4885520e-02
 -3.2441100e-01
 -2.1567657e+00
 -2.1014664e+00
  1.0524170e+00
 -1.7015798e+00
 -1.5669535e+00
  2.5200091e-02
  5.0924969e-01
 -1.6658151e-01
 -6.7853659e-02
  1.1516102e-01
  2.2520757e+00
 -4.0598831e-01
  2.1641587e-01
  2.0250548e-03
 -1.2857498e-02
 -2.6306922e-02
 -4.4735840e-01
  1.4313986e+00
 -7.6144660e-01
  3.3577625e-02
 -6.6109282e-01
  2.5116664e-01
 -3.5684273e-01
  4.5573467e-01
 -8.4499121e-02
  2.0419669e+00
  1.3089089e-01
  8.3053380e-02
  2.6112702e+00
  1.3357827e-01
  2.8130835e-01
  2.2240998e-02
  1.1497947e+00
  1.1936299e+00
 -2.3966303e+00
  1.9544859e+00
  3.2373819e-01
  1.3802888e+00
 -4.8185308e-02
 -6.8706259e-02
 -3.1727999e-02
 -1.2447844e+00
  4.4102734e-04
  1.5756722e-01
  1.6033334e-01
  1.0694107e+00
  1.5936601e-01
 -2.2012374e-01
 -1.2046624e-02
 -2.9930061e-02
 -4.8694376e-02
  7.9869822e-02
  1.7052028e-02
  3.4369260e-02
 -9.4322100e-02
  8.6134446e-01
 -4.0655768e-01
  1.5693849e-02
  2.2420251e-01
 -1.0423190e-01
 -1.1186016e-01
  7.5690704e-03
  2.9257786e-02
  1.5349326e-01
  1.2680800e-01
  3.4874231e-03
 -1.6390484e-02
  3.8045555e-02
  1.7158285e-01
  6.8823351e-03
 -1.8357491e-01
 -1.9560596e-03
  6.7797713e-02
  1.0400662e-01
  7.1704420e-03
  1.0737804e-02
  1.0765661e-01
  1.7033821e-01
 -4.7534168e-02
  3.1358334e-03
  8.2090110e-02
  2.9698838e-02
  6.5862417e-02
 -1.2408461e-02
 -2.8785881e-02
  9.6294515e-02
  1.3747159e-03
 -3.2464083e-02
  9.8645482e-03
  3.4501501e-03
 -2.1045740e-01
 -2.3141216e-02
 -4.3552332e-03
  4.9627842e-03
  1.2422707e-03
  5.4454334e-02
  1.2266672e-02
 -1.0993285e-01
 -6.2443562e-02
 -4.1038059e-02
 -8.1111836e-01
 -5.3214937e-02
 -5.0944343e-02
 -9.1015920e-04
  1.8438183e-02
 -8.9925063e-01
  6.8308234e-02
 -1.2947533e+00
  1.0112954e-01
  1.8042367e-02
  6.6500455e-01
  5.5264074e-01
  3.1038249e-01
  4.3546621e-02
  1.7627592e-01
 -4.8796326e-02
  7.8419149e-03
  8.3187185e-02
  5.3647887e-02
  3.0687597e-01
  3.6157761e-03
 -1.9195735e-02
  1.1822735e-01
 -6.8173558e-03
 -1.6158900e-01
 -3.6442176e-02
  6.9089495e-02
 -5.2782483e-02
 -8.1208948e-04
 -2.8168049e-02
  2.3067163e-01
  4.3347916e-03
 -2.2481440e-01
  1.1204333e-01
 -3.8890701e-02
  1.1328656e-02
 -7.5959072e-02
  2.8286290e-01
  4.4875387e-03
  2.6857761e-01
 -3.0308065e-01
  1.5787622e-01
  9.3429543e-02
 -6.1743934e-02
 -5.7403213e-01
 -4.7421122e-01
  2.8870814e-02
  1.6460543e-02
 -1.4548936e-01
 -9.2815375e-03
  2.4954535e-02
  2.3926022e-02
 -1.8530838e-02
 -1.8003080e-02
  2.8404243e-02
 -1.7196311e-02
 -2.8542556e-02
  1.7105532e+00
  2.7820420e-02
  2.7716677e+00
 -1.5126966e-01
 -1.5051214e-02
 -3.8241163e-02
  6.8921857e-02
  8.1379496e-02
  6.4753182e-03
  1.3594274e-01
 -3.4079477e-01
 -1.9255118e-02
  4.6447098e-02
  1.5376266e-02
  2.3433352e-03
 -6.9469370e-02
  4.1781440e-02
  2.4905741e-02
 -4.9362399e-02
  8.0484767e-03
  1.8802574e-02
 -2.1663867e-02
  8.9994393e-02
 -3.5959467e-02
 -1.1893959e-01
  7.6132603e-02
 -1.1960039e-01
  1.0016901e-01
  3.4713626e-02
  4.0029928e-02
 -3.0750232e-02
  3.4775354e-02
  4.2328738e-02
 -1.3609617e-02
 -4.4023227e-03
 -9.1030829e-02
 -1.5099080e-02
  6.5568276e-02
 -1.2073568e+00
  3.9319559e-03
 -1.9392937e-02
 -8.5846514e-02
 -3.6045963e-01
 -4.3751910e-02
  3.1939410e-02
 -3.4190055e-03
  2.0580441e-03
 -2.2353709e-02
  9.5744256e-04
  1.2278109e-01
 -1.7697832e-01
  2.1783568e-02
  3.1555828e-01
 -7.6495267e-02
 -4.1719887e-02
 -9.9237040e-03
  4.1964290e-01
 -1.2556360e+00
 -1.4429346e+00
  4.5822099e-02
  2.4071632e-01
 -4.5408204e-01
 -1.2439903e-01
  8.4721065e-01
  1.0346264e-02
  2.8513354e-01
 -2.7352843e-01
  1.9848552e-03
  8.0873750e-02
 -2.6555769e-03
  1.9953279e-02
 -1.8487902e-02
 -9.8683484e-02
  1.2554017e-01
  2.8462213e-01
 -4.4470474e-01
 -1.1114334e-02
  2.4138901e-02
 -4.1419744e-02
 -3.4114551e-03
 -5.0522525e-02
  3.3713141e-01
  4.6106514e-01
 -2.1614556e-01
 -2.6553032e-01
 -6.2302961e-03
 -5.9224050e-02
 -2.8987736e-03
 -7.1570843e-02
 -3.2667436e-02
 -2.2540744e-02
 -3.2511774e-01
 -4.1334212e-01
 -2.8764626e-01
  1.0148922e-01
 -1.7247786e-01
  8.9954464e-03
 -1.5362455e-01
  4.1726828e-01
 -3.4566931e-03
  7.4411470e-01
 -4.4680979e-02
  3.3095215e-02
 -1.9840778e-01
  3.6569096e-02
 -4.0874090e-03
 -1.6109848e-01
 -3.1462351e-03
 -5.2874357e-02
  3.6200639e-02
 -9.6816576e-01
 -1.0328507e+00
 -4.6492308e-02
  1.3097774e+00
  6.2067693e-01
 -6.9971472e-01
  2.2636992e-03
  9.9024447e-03
 -2.0055993e+00
  8.4775329e-02
 -3.7714612e-04
 -4.0315915e-02
  1.7585868e-02
  6.5833487e-02
 -2.1769421e-01
 -4.0201902e-02
 -4.9133081e-02
 -1.1840861e-01
 -2.0572037e-01
  1.0314369e-01
  2.5568247e-02
  1.3192178e-01
  2.3006080e-01
 -3.2630157e-02
  1.3175881e-02
  3.4296340e-01
  4.7347143e-02
  5.6478288e-02
  3.3044323e-01
  4.4871073e-02
  5.6984305e-01
  1.0557977e+00
 -2.6921815e-01
 -6.0050480e-02
 -1.3648997e-01
 -8.2935743e-02
 -2.0600227e-01
 -1.9890623e+00
  9.6412992e-01
 -3.4811482e-01
  3.7695307e-02
  1.5536338e-01
 -2.0364674e-02
  4.9110718e-02
 -5.5768415e-02
  1.4878219e-02
 -3.4628905e-02
  5.8358483e-02
 -1.9107331e-02
  4.4302039e-02
  4.8404232e-02
 -4.4158794e-02
  8.0596153e-03
  4.6752434e-02
 -4.1794485e-01
 -5.4742730e-01
 -1.3743317e+00
 -4.5523076e+00
  3.5799402e-01
  8.3784992e-01
 -8.3771282e-01
 -1.6211773e+00
 -1.7162330e+00
 -4.5273346e-01
 -1.1870547e-01
  1.9829636e-03
 -1.7836951e+00
  2.4962685e+00
  1.9028652e-01
  4.2520412e-03
  6.1702371e-01
 -4.7884606e-02
 -1.0079627e-02
 -3.6983885e-02
  6.4272577e-01
 -8.1696165e-01
 -1.8103769e+00
 -1.5293889e+00
 -3.4497079e-02
  1.2629037e+00
 -1.2241439e+00
  1.7344138e-01
 -4.0974513e-01
 -1.5478601e-01
  8.5142004e-01
 -1.4490534e+00
 -8.0469847e-01
 -1.4173651e+00
  1.1819882e-02
 -6.7316592e-02
  1.2033446e+00
  5.5631302e-02
  8.9021057e-01
 -5.4080832e-01
  2.4120741e+00
 -4.4378221e-01
  1.2285236e+00
  3.3728901e-02
 -1.2437874e-01
  2.6555438e-02
 -6.2544429e-01
  6.9071520e-03
 -1.9219557e+00
 -5.8698963e-02
  3.7827376e-01
 -6.1359322e-01
 -5.9704918e-02
 -4.8249058e-02
  1.3894826e+00
 -6.2181754e-03
 -6.4432240e-01
 -7.7327895e-01
 -5.5219197e-01
  1.6394657e-01
  6.1867557e-02
  6.9066502e-02
 -2.8767899e-01
 -9.9516325e-02
  2.8012207e-02
  8.3029200e-04
  6.8291701e-02
 -3.4802294e-01
 -7.0256144e-02
  2.5563797e-01
  1.5425192e-01
 -2.2460455e-01
  5.0852460e-01
 -2.7110714e-02
 -3.2260332e-01
 -1.0252513e+00
 -2.2009886e-03
  6.8079656e-01
 -4.6823923e-02
  4.8497605e-01
  5.7420705e-02
 -4.1840798e-01
  3.4550227e-02
  4.9329732e-02
  5.8041394e-01
 -5.8391410e-01
 -3.7719496e-02
  6.6839653e-05
 -4.6399230e-01
 -8.6510636e-02
 -2.6447883e-01
 -1.4193331e-02
  2.5278860e-01
 -6.5942967e-01
 -5.7902340e-02
 -2.0503816e-01
  2.5629652e-01
  5.4812390e-01
 -2.8192189e-02
  6.0964048e-02
  1.4600489e-02
  8.2723517e-03
  2.9327390e-01
  9.3539774e-02
 -5.0337136e-01
  1.2054215e-01
 -3.4644142e-02
 -1.3921076e-01
 -6.5291204e-02
  1.9352227e-03
 -8.7044485e-02
 -8.8470235e-02
 -8.2297601e-02
  4.9409520e-02
 -1.1238782e-01
  2.1246197e-02
 -9.5859244e-02
  3.0924685e-02
  6.2819749e-02
  2.4409033e-04
  3.4563195e-02
 -1.7926468e-01
 -3.1973936e-02
  4.7049522e-03
  5.0997902e-03
 -5.1053278e-03
  4.5455405e-03
  7.0156969e-02
 -3.8257666e-02
  1.3718052e-01
  7.5177117e-03
  3.1182265e-03
 -5.3792107e-03
 -3.0058216e-02
  1.1908784e-02
 -1.8598604e-01
 -4.2955883e-02
 -3.0985810e-03
 -4.6476670e-02
  3.0056238e-02
 -1.9005353e-02
 -1.2129682e-02
  2.5717827e-02
 -1.7974425e-02
  3.8252058e-03
  5.0836839e-02
 -6.3244868e-03
 -3.2723984e-01
 -4.2450875e-02
  1.4238336e-02
  1.4888559e-01
 -6.7391843e-03
  1.3824049e-02
  3.6004238e-02
 -1.6858289e-03
  7.1748411e-03
  1.2201368e-02
 -6.0504925e-02
 -4.3036053e-03
  4.8296254e-02
 -1.8124362e-02
  3.3212006e-02
 -3.8810275e-02
  1.2245630e-02
  5.8554202e-02
  2.5005279e-02
 -4.2854253e-02
 -1.5178972e-02
 -1.8748369e-02
  5.6421254e-02
  9.0268411e-02
  3.1321160e-02
 -8.6787991e-02
  7.8663174e-03
 -3.3530682e-02
 -1.5919960e-01
 -2.4951246e-02
  7.6362692e-02
  2.6593994e-02
 -3.0246852e-02
  1.5174654e-02
 -7.0164427e-02
  5.2009694e-02
  3.1516630e-02
  7.4705947e-04
  1.0572742e-01
 -9.4738372e-02
 -9.9107832e-02
  1.4534442e-02
 -3.9216787e-02
 -1.8427787e-02
 -2.2779115e-01
 -4.8698224e-02
  4.0921737e-03
  5.1134553e-02
  5.4075759e-02
  5.8629354e-03
  2.0024779e-01
 -3.9890498e-02
 -9.8968685e-02
 -3.7159417e-02
 -1.5035404e-01
 -3.4699517e-03
 -3.0141694e-03
  1.2219608e-02
 -7.6909411e-01
  8.4420275e-03
 -1.6044633e-02
  1.4608704e-02
 -1.9537870e-02
 -3.8750060e-02
  5.1315427e-02
 -1.0401205e-02
 -5.0053239e-02
  9.0583181e-04
  1.7806385e-02
  1.6879151e+00
 -3.8146898e-02
 -1.3476228e-02
  1.0878052e-02
  4.0246248e-02
 -6.1634447e-02
 -1.4722814e-01
 -2.3821667e-02
 -5.6581184e-02
 -1.5730895e-01
 -4.1273355e-02
  6.9773778e-02
  6.1935782e-02
 -1.0253906e-02
 -2.3201117e-01
 -2.4035053e-02
  1.5631507e-01
  7.9659984e-02
 -1.1058887e-01
  1.7080297e-01
 -3.3901270e-02
 -5.0301798e-02
  1.5764803e-02
  6.6543212e-03
 -1.4200521e-02
  1.9182442e-02
  1.0879068e-01
  2.0120483e-02
  5.6541711e-02
 -1.9525738e-03
  3.5384372e-02
 -7.3392965e-02
 -3.4873396e-02
  3.2627136e-02
 -7.3383331e-02
 -6.2809256e-03
  4.4370964e-03
 -3.1382538e-02
 -1.8280707e-02
 -1.5219579e-02
  1.7365724e-02
 -5.5323709e-02
 -1.6034040e+00
 -8.8092908e-02
  1.1841970e-01
  7.9014841e-03
 -1.2720916e-01
  6.5148093e-02
  1.5452947e-01
  1.1174858e-02
  5.8245357e-02
 -5.5578467e-02
  1.1839415e-01
  2.0362228e-02
 -9.3362555e-03
 -5.2130420e-02
  5.4791495e-02
  2.4374403e-02
  4.3444343e-02
 -2.1541314e-01
 -4.5221645e-02
 -8.3250962e-02
  2.6627192e-01
 -2.2765981e-02
  4.4935901e-02
 -1.1436997e-01
  5.9651501e-02
 -1.2067556e-02
 -3.5470661e-02
 -1.9249689e-02
 -1.4409980e-01
  5.3840972e-02
 -1.2872395e-01
  1.6617037e-01
 -7.3388955e-03
  3.8310472e-02
  2.3211896e-02
  8.3869264e-02
 -1.4850977e-03
 -5.5861931e-02
 -1.4436929e-02
 -9.1457844e-02
  2.0697607e-02
 -2.8412178e-02
  4.7106761e-02
 -2.3078231e-02
 -3.2477837e-02
 -1.8104715e-02
  5.5250302e-02
  4.1844264e-02
 -4.0906429e-02
  2.9908229e-02
 -1.2291884e-01
  4.2720933e-02
  1.3326050e-02
 -3.8804352e-02
  3.6782503e-02
 -8.7042283e-03
 -1.9792179e-02
  6.4324312e-02
  8.8002183e-02
  7.6163299e-02
 -1.4212986e-02
  6.8547808e-02
 -2.0791741e-02
  4.2404462e-02
 -5.2010957e-03
 -1.0914082e-01
  2.0344377e-02
 -5.3985751e-01
  1.0427988e+00
 -5.1998609e-01
  4.0269449e-01
 -4.4851094e-01
 -2.3519309e-01
 -3.8443796e-02
 -2.7899411e-01
  6.9925771e-03
  8.4113792e-02
 -1.5981328e-01
  2.9530949e-03
  2.0438775e-02
 -4.4497764e-03
 -1.4426703e-02
  5.9669199e-03
  7.6121733e-02
  1.6069787e-02
  7.7363342e-02
 -4.3176614e-02
  5.9919715e-02
  4.6974245e-01
  7.3699635e-03
 -7.0710885e-03
  1.5020698e-01
 -5.6494659e-01
 -8.1093371e-02
  1.4158235e-01
 -1.5775710e-01
  2.4012400e-02
  3.5676803e-02
 -4.5861319e-01
  2.3250183e-02
  6.7120388e-02
 -1.0198054e+00
 -4.6044406e-02
  8.5993834e-02
 -8.8413782e-02
  7.7970259e-02
 -9.0076573e-02
  3.1738070e-01
  2.7681626e-02
 -4.1953903e-02
 -2.7855020e-03
  2.4091397e-01
  4.0172979e-02
  6.3231927e-03
  5.1838264e-02
 -1.3580905e-02
  8.4070086e-02
 -2.7397031e-01
  1.2741992e-02
 -9.6806869e-02
 -8.6253071e-01
  2.9689897e-02
  1.0342802e+00
  4.7856644e-02
  1.4672824e+00
  1.1926166e-02
  4.8767580e-03
  6.8399638e-02
 -5.1437281e-02
  3.6134047e-04
 -4.2219060e-03
  4.5305721e-02
  6.9847487e-02
 -1.2755598e-02
 -1.4838977e-01
  1.1236154e-02
  1.3070254e-01
  1.1518809e-02
 -7.6154452e-03
 -1.2458482e-01
 -4.5179777e-02
  2.6086718e-03
 -3.4992188e-02
 -4.7441128e-01
 -1.7660035e-02
 -4.6470996e-02
  3.4817345e-02
 -1.8492678e-02
  2.2514720e-01
 -2.5578234e-02
 -3.8961388e-02
 -1.1591507e-01
 -7.9217784e-02
  8.7763667e-02
 -5.3106092e-02
 -4.6825767e-02
  2.1182849e-01
  2.6639947e-01
 -1.3161124e-01
 -1.1843184e-02
 -1.2970855e-02
  4.0940535e-01
  3.9045108e-03
  1.8626753e-02
 -2.2351091e-01
  8.8211924e-02
 -1.5114567e-03
  9.4623253e-02
 -1.3230954e-01
  2.2831252e-02
 -5.5575784e-02
  2.0373210e-03
 -1.8092852e-02
  2.1006703e-02
  7.8563106e-01
 -2.5164434e-01
  1.2597965e+00
 -8.0552936e-01
 -9.7814864e-03
 -4.3566698e-01
 -2.9460293e-01
  2.6511475e-01
 -2.9384427e+00
  8.5993081e-02
 -5.1085943e-01
 -2.7979111e-02
  1.9511041e-01
 -1.3816853e-01
 -1.2749248e+00
  3.9842707e-01
 -7.9486012e-02
  1.1251861e-01
  4.0375385e-03
  7.1696740e-01
  2.4783602e-01
  3.4949541e-01
  3.6094273e-03
  1.5278224e+00
 -3.2667693e-02
 -2.7781143e+00
  4.7898844e-01
  7.8406709e-01
 -7.4837691e-01
  9.1414887e-01
 -1.2325187e+00
 -2.2078734e-03
 -5.5707771e-01
  2.1734371e+00
 -6.9674477e-02
 -5.6252521e-01
  1.9083601e+00
 -6.3626632e-02
 -1.1653022e-01
 -5.9382562e-02
  1.8270780e+00
  2.5965726e-02
  8.8414067e-01
 -6.8465084e-01
  6.8895864e-01
 -2.1081622e-01
 -7.2246045e-02
 -7.3709160e-01
 -6.8183744e-01
 -9.0860808e-01
 -1.9703095e-01
  2.5487412e-02
 -2.1531777e-01
  2.7943602e-01
  1.1355405e-01
  6.9436848e-02
  2.7796668e-01
  8.5432500e-01
 -9.5341660e-02
 -5.6991551e-02
 -1.3396868e-01
  1.9651081e-02
  2.0197216e-01
  9.8343760e-02
 -3.2166034e-01
 -8.3643481e-02
 -4.6752524e-02
 -9.2813782e-03
 -1.5425087e-02
 -1.2163651e-01
 -3.3027530e-01
  1.7068055e-02
 -1.0553425e-01
 -3.0934678e-02
  6.3551508e-02
  8.1725818e-01
  7.6713882e-02
 -4.3010298e-02
  4.0812728e-01
 -8.4566269e-03
  5.3586274e-01
 -1.3303690e-02
 -2.3099735e-01
 -8.7191947e-02
 -3.5025100e-03
 -1.6916344e-01
  5.5348194e-01
 -6.8493816e-03
 -1.2634446e-01
 -5.2589852e-02
 -3.7612971e-02
  8.0988772e-02
 -1.6439109e-01
  4.1804785e-01
 -2.9966717e-03
 -5.2306722e-03
  3.0298182e-03
  5.4162196e-03
  2.4868859e-02
 -1.2958819e-02
  8.2794952e+00
  5.5806267e-01
  1.0394958e-01
 -9.4974166e-01
 -9.0742874e-01
  2.2845665e-01
  1.0936908e+00
 -1.0019524e-01
 -1.3813177e-01
  6.1803186e-01
 -1.0668807e-01
  1.0781854e-01
  1.4977305e-01
  1.0149305e-01
 -1.1774181e-01
 -1.0444862e-01
 -4.1686016e-01
  9.6085769e-01
  1.1453214e-01
  2.1214953e-01
 -1.1939554e-01
  1.0090762e-01
  1.6226077e-01
 -4.2663297e-01
  1.3123854e-01
  1.9198982e+00
 -1.0521871e-01
 -6.6978002e-01
  6.4598191e-01
 -2.1163464e-01
 -2.3048444e+00
  4.8461813e-01
 -1.2264304e-01
  3.7130351e+00
 -1.2608416e+00
  6.8438566e-01
 -1.1464265e-01
 -1.1339045e-01
  1.5153697e-01
  3.6075242e+00
  1.0107334e-01
 -1.2565582e-01
 -1.5955144e-01
 -1.1376706e-01
 -2.4080127e-01
  2.5502124e-01
 -2.3460969e-01
  1.3586787e+00
  7.7593857e-01
  1.3996381e-01
 -2.2662833e-01
  6.2451971e-01
 -1.8131593e-01
 -1.0660533e+00
  2.3473792e+00
  1.1759351e-01
 -1.6476643e-01
  3.5374329e+00
  1.4420730e+00
  2.3554817e-01
  4.7847503e-01
  1.2738436e+00
 -9.1897869e-01
 -1.7722095e+00
  1.0265771e-01
 -1.4702608e-01
  1.9930288e-01
 -1.2373836e-01
 -1.4011988e-01
 -1.1695902e+00
  9.0403551e-01
  1.0469630e-01
  4.6800895e+00
  1.2598300e+00
 -1.2240172e-01
 -2.9519451e+00
  2.0164523e-01
  4.9950776e-01
 -1.3256000e-01
  8.8146675e-01
  7.8707290e-01
  1.6315998e+00
 -3.2907075e-01
 -1.3092786e-01
  1.5270220e-01
  1.3008946e-01
 -1.0478424e-01
  2.2006180e+00
 -1.6345230e-01
 -1.0026696e-01
  1.9241109e+00
  3.8803011e-01
  1.1310522e-01
  2.2082605e+00
  4.0059999e-01
 -1.1316161e-01
  1.0520504e-01
  1.3312700e+00
 -1.8529153e-01
 -6.3839662e-01
 -1.3258897e+00
  1.9438660e-01
  3.5514781e-01
  1.1764353e-01
  2.0820270e+00
 -2.2237030e-01
  1.0715197e-01
  4.4490293e-01
  3.0588827e+00
  8.5109705e-01
  1.3351437e-01
  2.4486332e+00
  1.2263610e-01
 -1.0213081e-01
  3.8653803e-01
  5.3891438e-01
  1.3284258e+00
  5.6645268e-01
  1.3560121e-01
  1.2894808e-01
  2.3152034e+00
  1.0523939e-01
 -4.3972498e-01
  1.4260179e+00
  2.1639717e+00
 -1.8291295e+00
  5.1766056e-01
 -1.4863148e-01
 -1.3021810e-01
  1.3620844e-01
  1.1204201e-01
 -4.4900954e-01
  1.5595162e-01
  8.8151515e-01
  1.2011594e-01
  6.4313740e-01
  2.0008132e-01
 -5.6953400e-01
 -1.3264886e-01
 -1.5353760e-01
  2.4616358e-01
  1.0094691e-01
 -5.8015394e-01
 -2.3389208e+00
  1.3156186e+00
  5.1400220e-01
  1.2443268e-01
  4.2475906e-01
 -1.0750858e-01
  1.1479148e-01
  1.0640410e+00
  1.6935192e+00
  1.9446446e+00
 -1.1846558e+00
  1.4256121e-01
 -2.2929302e-01
  1.3979492e-01
 -1.1512300e-01
 -1.2505080e+00
 -6.0111117e-01
  3.7579486e-01
  1.2995555e+00
  9.9087650e-01
  1.1095764e-01
 -1.2575975e-01
 -1.1905930e-01
  1.8047678e-01
 -1.1020021e-01
  1.7540991e-01
 -8.2282817e-01
 -3.3068734e-01
  1.0100081e-01
 -1.0538663e-01
  2.1729951e-01
  2.7659571e+00
 -1.0675453e-01
 -1.0319176e-01
  1.2201252e-01
 -2.2821236e+00
 -1.2841653e+00
  1.0289675e+00
  1.0500100e-01
  2.2445357e-01
 -1.2228327e-01
  1.3501084e-01
  1.6059852e-01
 -1.0794726e-01
 -4.9033365e-01
 -2.7329141e-01
  4.0622929e-01
 -1.2763122e-01
  1.0508735e-01
 -1.6437064e-01
  3.3742893e-01
  1.0665030e-01
  4.8251832e-01
  8.9479095e-01
  8.9287269e-01
 -1.1317815e+00
  1.2796281e-01
  1.7520165e-01
 -2.2908974e+00
  1.9560924e-01
 -1.2158757e-01
  7.7812618e-01
 -2.5289879e+00
 -2.8456273e+00
 -2.0159860e+00
 -3.0247587e-01
  3.8529250e-01
  2.4384120e-01
  2.3599657e-01
  2.2543490e-01
 -1.4140223e-01
 -1.5904776e+00
  2.6765745e+00
 -1.8882078e-01
 -1.0828638e-01
  1.1071233e-01
  1.4139299e-01
  1.3681561e-01
 -1.5352997e-01
  3.5209033e-01
 -1.7707995e+00
  1.6318809e+00
  1.5998068e+00
 -6.9286811e-01
  1.3852321e-01
  1.0657979e-01
 -1.2810576e-01
  1.0510856e-01
  1.5776855e+00
 -3.0634601e+00
 -1.5898337e+00
  3.7171629e-01
  1.0049141e-01
  1.4409035e-01
 -1.2116842e+00
 -1.0928763e-01
 -2.3974261e-01
 -2.5730392e-01
 -7.2365296e-01
  1.8826112e-01
 -1.8069485e+00
 -1.3476498e-01
 -1.2019954e-01
  1.0415889e-01
 -1.1464545e-01
 -1.2749234e-01
 -1.6345030e-01
  4.3101990e-01
  1.0771243e-01
  1.2107939e-01
  1.0195803e-01
 -1.0101683e-01
  2.3884338e-01
  2.7106500e-01
 -3.5734421e-01
 -1.5229768e-01
 -8.9056849e-01
  1.9516771e+00
  2.1287472e+00
  1.1077288e-01
  1.0738925e-01
 -1.1841307e+00
 -1.5479335e-01
 -2.0389917e-01
  1.3213022e-01
 -5.6572735e-01
  6.2844932e-01
  5.2478796e-01
 -1.5929767e-01
  1.1522936e-01
 -1.3949645e-01
 -1.1921600e-01
  1.7091030e-01
  1.0132052e-01
  7.2117329e-01
  1.1190616e-01
  8.2290626e-01
  1.0118864e-01
  3.1460133e-01
  1.0224396e-01
 -2.6133704e-01
 -1.1389432e+00
 -5.3378719e-01
 -1.1430089e+00
 -2.0075085e+00
  4.4972038e-01
 -1.3388902e-01
 -3.7044907e-01
  3.1088157e+00
 -1.1773698e-01
 -9.1484523e-01
  1.0529371e-01
  2.7812068e+00
 -2.9464236e-01
  2.3735794e-01
  1.2363993e-01
  2.0056322e-01
  2.0586182e-01
  1.4041799e-01
  1.1497778e-01
 -1.0375945e-01
 -1.5930271e+00
  1.4516553e-01
 -4.7796726e-01
  1.2317788e-01
 -1.4286841e-01
 -1.3834050e-01
 -2.0494944e-01
 -7.3744446e-01
  1.5506056e-01
  1.6596469e-01
  1.0117286e+00
 -3.2901549e-01
 -1.0218286e-01
 -1.1222962e-01
 -1.7581871e+00
 -1.1595564e-01
 -1.0360900e-01
 -1.2070810e+00
  9.0270579e-01
  2.8123026e+00
 -2.6960418e+00
 -4.9132740e-01
  1.0231180e-01
  3.1529126e-01
  1.0905847e-01
 -5.8107948e-01
  5.7795948e-01
 -7.3990017e-01
 -2.3023636e+00
  4.4877830e+00
  2.4628708e-01
 -1.6452721e-01
  6.9428146e-01
 -1.4003074e-01
 -3.1650403e-01
  2.8356794e-01
  9.6361560e-01
 -2.2032681e+00
  6.1886919e-01
 -1.3375621e-01
  1.5347296e-01
 -1.3887435e+00
  2.6352441e-01
 -1.3845678e-01
 -7.5368726e-01
  1.7688645e-01
 -5.4591727e-01
 -1.0844569e-01
  2.9294127e-01
  6.3330221e-01
 -1.0512910e-01
 -2.2650743e-01
 -4.2099217e-01
  3.1828666e+00
  1.5376425e+00
  6.1623359e-01
 -2.0884421e-01
  1.3216273e-01
 -1.4781287e-01
  3.0670303e-01
  9.6002418e-01
  1.1723632e-01
  1.1793372e-01
 -8.0470097e-01
  1.0035975e+00
 -1.6856354e-01
  1.9024563e-01
 -1.7790982e-01
  1.8329079e-01
 -1.3575825e-01
  1.3986215e-01
  1.0236084e-01
 -3.7427303e-01
 -2.4865623e+00
  2.3957927e+00
  3.7051925e-01
 -2.7649793e-01
  4.6726367e-01
  3.2494804e-01
 -1.4261052e-01
  1.1450256e-01
 -1.7931142e-01
 -3.0591538e+00
  9.4438064e-01
  2.0246246e-01
 -1.5637666e-01
  1.0197362e-01
 -1.3960397e-01
 -1.2007530e-01
  1.5430693e-01
 -3.5937972e+00
 -1.0163643e+00
  9.0828294e-01
  1.0190741e-01
 -1.4864036e-01
 -8.3909541e-01
 -1.7740473e-01
  2.3421144e-01
  2.8641456e-01
 -1.5588661e+00
 -2.6044397e+00
 -8.1915331e-01
 -1.0275723e-01
  1.1264440e-01
  3.0170560e+00
 -1.0376569e-01
  1.5491064e-01
  3.1684619e-01
 -1.8655494e+00
  9.5350683e-01
  6.2075740e-01
  1.1402005e-01
 -1.0250461e-01
  9.6861798e-01
  1.3436070e-01
  1.0182445e-01
 -1.8320453e-01
 -1.2998809e+00
 -4.1585296e-01
 -1.5212468e+00
  4.2620477e-01
 -1.0897169e-01
  6.4518863e-01
  1.0462915e-01
 -1.0132371e-01
 -3.8104615e-01
 -1.9052615e+00
  4.3242112e-01
  1.3149225e+00
 -1.2111227e-01
  1.1158278e-01
  3.4659770e-01
 -1.0219634e-01
 -1.7870314e-01
  1.0129589e-01
  1.2428955e+00
  5.5404431e-01
  1.0131595e+00
  2.2827247e-01
  4.6764001e-01
  6.8666565e-01
  1.6392899e-01
 -4.1266507e-01
  1.4389588e-01
  4.2460880e-01
 -2.4811441e-01
 -2.1869145e-01
  1.0076024e-01
 -1.4129192e-01
  1.2109530e-01
 -1.2150525e-01
 -1.4387627e-01
  1.7997468e-01
  5.6790292e-01
  9.6500927e-01
  1.3069699e+00
  1.8564576e-01
  3.1780049e-01
  5.1003939e-01
 -1.7742720e-01
 -1.0628126e-01
  2.4929222e-01
 -1.2022318e+00
 -3.0343583e-01
  1.1260095e+00
  1.0983310e-01
 -1.8697281e-01
 -2.2490261e+00
  1.2284321e-01
 -1.7659324e-01
  1.0932291e-01
  1.0780275e+00
 -3.3155291e+00
  1.7277670e-01
  1.8759546e-01
 -1.0196160e-01
 -1.6393979e-01
  1.0435624e-01
 -1.3338736e-01
  1.1237557e-01
 -5.2433002e-01
 -2.9531050e-01
  1.4544152e-01
  1.0519810e-01
 -1.0934167e-01
  7.7106076e-01
  1.1464640e-01
  1.1060685e-01
 -7.3724622e-01
 -1.0383614e+00
 -1.1138469e+00
 -1.2566316e+00
  9.7700757e-01
 -2.8584602e-01
 -1.7885202e+00
 -1.4089531e-01
  3.2181817e-01
  2.0568836e+00
 -2.8449197e+00
 -4.7157106e+00
 -1.3394498e+00
  1.0982243e-01
 -2.5179577e-01
 -4.3018472e-01
 -3.8380089e-01
 -1.3898265e-01
 -1.0195923e-01
  1.0218128e-01
  5.1702613e-01
 -1.1733024e-01
 -6.4170134e-01
  1.9798307e-01
 -6.3845283e-01
  2.0101491e-01
 -5.2791739e-01
 -1.4373545e-01
 -1.5507934e+00
 -1.3192682e+00
  1.3654583e+00
 -3.1683335e-01
 -1.0424815e-01
  1.4487754e+00
 -1.1392082e-01
 -1.3687740e-01
 -4.3489990e-01
  2.7721331e+00
  4.6529245e+00
 -2.9611959e+00
 -1.3626909e-01
  1.1103668e-01
 -1.5257504e+00
 -1.0471220e-01
  1.0810795e-01
  3.8441807e-01
 -4.0136248e-01
  2.7448845e-01
 -3.3408490e-01
 -5.6596941e-01
  8.9428282e-01
 -1.0053995e-01
 -3.2967275e-01
 -1.2298837e-01
  2.1771127e-01
 -5.2939129e-01
  9.2319196e-01
 -1.7092696e+00
 -1.2717453e-01
 -1.8026513e-01
 -9.3746978e-01
 -1.1454067e-01
 -1.6908827e-01
  9.8037964e-01
 -1.0915656e+00
  1.2367939e+00
 -1.9787827e-01
  3.3544904e-01
 -2.8533721e-01
 -1.6481884e+00
  1.0256486e-01
 -1.1004113e-01
 -6.0648078e-01
 -3.3570179e-01
  1.7527911e-01
 -2.8340487e+00
  1.2432471e-01
 -1.2371109e-01
 -4.6210015e-01
  1.3333346e-01
  1.0204919e-01
 -7.8282988e-01
  1.7126690e+00
 -7.2363305e-01
 -2.0181246e-01
  1.5368553e-01
  1.0334738e-01
 -3.1935468e-01
  1.8990487e-01
 -1.2284583e-01
 -1.2392972e-01
 -1.6249831e+00
  3.2045949e-01
 -3.9896533e+00
 -2.3652899e-01
  1.5054157e-01
 -1.3273932e+00
  1.4690666e-01
  1.1403719e-01
 -2.1195483e+00
  8.1619829e-01
  2.1685836e+00
  1.9406049e+00
 -1.1411267e-01
 -1.2425545e-01
  7.0391047e-01
  1.3474202e-01
 -1.7912206e-01
  2.4225312e-01
  1.1117756e-01
 -1.6357857e-01
  1.1937093e-01
 -1.0897027e-01
 -2.1125618e-01
 -1.3381695e+00
  1.5685247e-01
  1.9366151e-01
 -1.0201660e-01
 -1.0955334e-01
  1.1185288e-01
  1.1591276e-01
  1.7007471e+00
 -1.1950432e-01
 -1.0432557e-01
 -1.1803892e-01
 -2.7308968e-01
  1.3940306e-01
 -7.6335418e-01
  4.0342349e-01
  3.8087826e+00
 -1.7969611e-01
  1.4562197e-01
 -1.9108777e-01
  1.6519220e-01
  1.0503466e-01
  1.1165549e-01
 -1.1264452e-01
 -2.6965582e+00
  4.4362757e-01
  5.4688632e-01
  3.4419119e-01
  1.1962101e-01
  1.4282973e+00
  1.0561620e-01
  1.1103977e-01
  1.1859511e-01
  1.4917839e-01
 -4.8232540e-01
  2.0325446e-01
 -1.0183936e-01
 -1.2453293e+00
  2.4207109e-01
  1.1315320e-01
 -2.8225858e+00
  5.0015736e-01
  1.5387318e-01
  1.0245921e-01
  2.1186095e-01
 -1.0238672e-01
 -3.1205121e-01
  1.1916996e-01
  1.0897214e-01
 -1.0232505e-01
  1.0308212e-01
 -4.1345701e+00
  1.0133804e-01
  6.1429417e-01
  1.1639477e-01
 -4.5133325e-01
 -1.0359780e-01
 -4.2432895e-01
  5.4016888e-01
  1.1231016e-01
 -2.8101511e+00
 -4.8551950e+00
 -1.0479223e-01
  1.6213676e-01
 -1.6427138e+00
 -1.4250728e-01
 -1.6517568e-01
  8.9805651e-01
  6.2524438e-01
  1.0004339e-01
 -1.4064184e-01
 -1.0008327e-01
  2.3513338e-01
  1.6083200e-01
  1.0237601e-01
 -1.5694511e-01
 -1.0819913e-01
  1.3260511e-01
  1.2631401e-01
  6.4708269e-01
 -6.0235512e-01
  1.1684264e-01
  9.9833816e-01
  2.9304364e-01
  1.7500965e-01
  1.4230570e-01
 -1.3423175e-01
 -6.7660373e-01
 -1.2665851e-01
 -2.1444741e-01
  1.0283319e-01
  1.6444106e-01
  1.1087440e-01
 -9.6534163e-01
 -1.0469331e-01
 -2.4249048e+00
 -4.7957477e-01
 -5.2032262e-01
 -9.9831945e-01
  1.0264159e-01
  1.1797863e-01
  5.0824410e-01
 -4.2754722e-01
 -2.7557743e-01
 -1.9740494e+00
  9.1945994e-01
 -1.2584096e-01
 -1.3099599e-01
 -3.7023276e-01
 -1.0440031e-01
 -1.4724112e-01
 -1.5543513e-01
  1.0856169e-01
 -1.0751471e-01
 -1.1474943e-01
 -2.9828304e-01
 -1.0221891e-01
  2.9518181e-01
  1.1212343e-01
  1.0590997e-01
 -2.2406563e-01
  1.3415769e-01
 -2.4401537e-01
 -1.3230687e-01
 -5.4349190e-01
  3.6305824e-01
 -3.3828887e-01
 -9.0967256e-01
  1.0640585e-01
  1.0368966e-01
 -1.1327334e-01
  2.7546253e+00
  1.4851267e+00
  1.4890494e+00
 -1.4430518e-01
 -1.1475935e-01
  5.5633593e-01
 -1.2471871e-01
  2.4930659e-01
 -1.1100916e-01
 -8.3562052e-01
 -2.8892207e+00
 -1.9291109e-01
 -1.0035495e-01
  2.4793300e-01
  2.2903615e-01
  1.4318076e-01
 -1.0015313e-01
 -8.9016575e-01
 -1.5566541e+00
 -1.1007884e+00
  3.4567216e-01
 -1.2930809e-01
  1.7167668e-01
  2.1375385e-01
 -1.1785619e-01
  2.7861035e-01
 -1.1552562e-01
 -8.5600549e-01
 -1.4251573e+00
 -8.6787701e+00
 -1.0002939e-01
  1.0389346e-01
  1.3679361e-01
 -3.8456887e-01
 -2.0562840e-01
 -3.8212648e-01
  7.9045916e-01
  7.4316156e-01
 -2.9341691e+00
  3.0291754e-01
 -1.5173367e-01
 -2.4224371e-01
  1.2334417e-01
 -1.1664230e-01
 -1.0856509e+00
 -7.8700960e-01
 -1.4520878e-01
  1.3021521e-01
  1.1829044e-01
  1.1406407e-01
 -1.2520250e+00
  1.0495094e-01
 -2.5848073e-01
 -3.6636129e-01
  3.5763614e+00
  2.7790189e+00
 -1.5883899e-01
  5.5502850e-01
 -1.9506779e-01
 -1.0239466e-01
 -1.3080008e-01
 -6.9103545e-01
 -1.0456517e-01
  1.6359591e-01
 -3.8787541e-01
 -9.9931037e-01
 -1.4767708e-01
  1.4748974e-01
 -2.5945151e+00
 -1.0376967e-01
  1.9338298e-01
 -1.7245543e-01
  8.5402924e-01
 -8.0230707e-01
 -5.5942458e-01
  1.5033641e-01
 -1.1123274e-01
  2.4669576e+00
 -2.5857624e-01
  4.8374906e-01
  1.0447482e+00
  1.1026206e+00
  1.7864507e+00
 -2.0362022e+00
  2.1548660e-01
 -2.5283927e-01
 -1.3445512e+00
  1.1561797e-01
  1.3217323e-01
 -1.0363060e-01
 -6.6868329e-01
  2.1906822e+00
 -3.9459677e+00
  1.3620433e-01
  1.2406746e-01
  1.1412530e-01
  1.6253331e-01
  1.3326731e-01
 -2.5820690e-01
 -1.0042676e-01
  2.0916684e+00
  1.1389950e-01
  2.7306327e-01
 -1.7459585e-01
  1.2505448e-01
 -1.0398796e-01
  1.5304452e-01
  3.0979940e-01
  6.3016051e-01
  1.0066067e-01
  8.2639557e-01
  1.2523410e-01
  1.8082637e-01
 -1.8265519e-01
 -1.1528841e-01
  1.1142860e-01
  1.9918959e-01
  1.4505148e+00
  1.3886812e-01
  1.1250323e+00
 -2.4921873e-01
  1.1525926e-01
  5.2879918e-01
 -1.2212029e-01
  1.8012932e-01
  1.0337187e-01
  1.6845809e-01
  2.9204226e-01
 -1.3301651e-01
 -1.9632621e+00
 -1.2348689e-01
 -6.3853174e-01
 -1.1005422e-01
  1.2634468e-01
 -1.0971701e-01
  1.0391694e-01
  3.9848620e-01
  1.9999682e+00
  1.0760475e-01
  1.0825817e-01
 -6.2580800e-01
  1.0208513e-01
  1.1356530e-01
  6.4061427e-01
 -1.4530841e-01
  2.7219388e-01
 -9.9783558e-01
  1.3195249e-01
 -1.7873904e-01
  1.4395466e-01
 -1.3771942e-01
  1.0382807e-01
 -1.6121860e-01
 -7.1072173e-01
  1.0697120e-01
  3.3430544e-01
 -1.3255821e-01
 -2.0212936e-01
  2.4168402e-01
  1.0162122e-01
  1.1015124e-01
  1.4969243e-01
  2.8747079e-01
  8.3014059e-01
  1.3983299e-01
  1.1521208e-01
 -1.4145938e-01
  3.3014876e-01
 -1.1016110e-01
  1.1535430e-01
  4.1036665e-01
  7.6803482e-01
  2.1586843e+00
  2.7040029e-01
 -1.0035151e-01
 -1.5921421e-01
  5.8213466e-01
 -1.3511163e-01
 -1.1278576e-01
 -1.2137689e-01
  1.2836641e-01
 -2.7655792e-01
 -1.6827956e+00
  1.1798790e-01
 -1.3221046e-01
 -3.4085855e-01
  1.8173784e-01
  2.8682628e-01
  1.3953051e-01
 -2.2856304e-01
  2.6654896e-01
 -2.2196043e+00
  1.2625095e-01
 -3.4023464e-01
  5.5221361e-01
 -1.0801162e-01
 -1.5030478e-01
  2.4507928e-01
  1.6774120e+00
 -3.0585368e+00
  1.1263314e+00
 -1.7685697e+00
  2.3825401e-01
 -1.0251123e-01
  1.1966872e-01
  2.5145823e-01
 -2.5717089e-01
 -3.0251722e+00
 -2.5059841e+00
 -3.6337185e-01
  1.4651711e-01
  1.2715840e-01
 -2.2534487e-01
  1.1704197e-01
 -1.7731702e-01
  1.9047385e-01
 -5.9354293e-01
  5.9269577e-01
  3.9182997e+00
  1.1977226e-01
  2.1367830e-01
 -2.9577896e-01
 -1.1198311e-01
  2.5960944e+00
  3.6506048e-01
  1.0002923e-01
 -2.6652059e-01
  3.7348521e-01
 -1.0028854e-01
 -2.1497252e+00
 -1.8009489e+00
  1.1183749e-01
  1.0069209e-01
 -2.3889430e+00
 -8.6539936e-01
  1.2772148e+00
  5.9570867e-01
  1.3935031e-01
  1.3171101e-01
 -1.0132015e-01
  1.0747577e-01
  1.6202115e-01
  1.0487483e-01
 -1.5034086e+00
 -1.0428943e-01
  1.3261153e+00
  1.2586185e-01
  1.2617722e-01
  1.1018479e-01
  5.2231517e+00
  1.1223965e+00
 -1.2894846e-01
  2.4532981e+00
  1.2687477e+00
  1.7700274e+00
 -1.0297734e-01
  1.2532012e-01
 -1.2723657e-01
  3.2437867e-01
  1.1918855e-01
  1.2982154e+00
  5.8940804e-01
 -2.6398401e+00
 -1.7185439e+00
 -1.0418487e-01
  3.0294096e-01
 -1.0745512e-01
 -1.1107808e-01
 -1.7569584e-01
  1.1440811e+00
 -6.2070745e-01
 -1.2887506e-01
 -1.0469222e+00
  1.0185643e-01
 -1.2251183e-01
  2.7039188e-01
 -2.2809944e-01
  1.1493260e-01
 -1.1957021e-01
  1.2058433e-01
  1.2473397e-01
 -2.3122723e+00
  1.8115862e-01
  1.2851998e-01
 -1.1060479e+00
 -2.2317080e-01
 -1.4431040e-01
  8.0476350e-01
 -2.9389012e+00
 -3.8291681e+00
  1.2117621e+00
 -1.0319234e-01
 -1.0839558e-01
  2.2249000e-01
 -1.1811278e-01
 -1.0934836e-01
  1.7578229e-01
  1.1537057e+00
  5.0503004e-01
  1.5308809e+00
 -1.8727364e-01
  1.0521342e-01
 -1.0912900e-01
 -2.5515202e-01
  1.2775624e-01
  2.1337923e-01
 -4.1189110e-01
 -9.8866755e-01
  1.0123750e+00
  1.1971874e-01
  1.0414931e-01
  6.4739931e-01
  1.2961374e-01
  1.2489220e-01
 -2.5946608e-01
 -1.1591802e+00
  5.8280420e-01
 -2.7679870e+00
 -1.1835500e+00
 -3.6668235e-01
  2.6472871e+00
  4.4803548e-01
  4.0742329e-01
  3.1605332e+00
 -1.7957352e+00
  4.0159888e+00
 -2.8290758e-01
 -4.5520270e-01
 -1.1638313e-01
  1.4307605e+00
 -8.4822595e-01
  6.8065906e-01
  2.7689312e+00
 -1.0170338e-01
 -1.7125243e+00
  1.2263380e-01
 -1.4361368e+00
  1.3808899e+00
 -1.4718208e+00
 -1.0359350e-01
 -1.4537395e+00
 -3.1740639e+00
  1.1946100e+00
 -1.5903085e+00
  2.9561167e+00
 -2.0124383e+00
 -1.4708892e+00
 -2.4461808e+00
  9.7835338e-01
  1.2732923e+00
 -2.0492145e-01
  1.4554684e+00
 -2.3174343e-01
  2.5053461e+00
 -4.6293426e-01
 -2.7240572e+00
  7.0445305e-01
 -1.0162641e+00
 -6.1401409e-01
  1.3400762e+00
  2.5066881e+00
  1.2433105e+00
 -1.1365773e-01
  2.8712246e+00
  2.8102813e+00
 -1.5179551e+00
  1.4973884e+00
 -5.6276155e-01
 -2.3239298e+00
  1.6233563e-01
 -3.7793911e-01
  5.2548736e-01
  1.4716178e+00
  1.1064814e+00
  2.6400468e+00
  2.8051710e-01
  5.4852468e-01
 -1.4828907e+00
  1.0857476e-01
 -2.6098707e+00
  1.6494057e-01
  4.7823423e-01
 -1.4761198e+00
 -1.7903008e-01
 -1.0218205e+00
  1.3711870e+00
  5.5475938e-01
  4.1975492e-01
 -1.1784708e-01
 -3.0308282e+00
  9.6202672e-01
 -1.2172883e+00
 -1.3661730e-01
 -1.4825810e+00
 -1.1182294e-01
  2.4403718e-01
 -5.8639777e-01
 -1.5552816e-01
 -3.5054085e+00
 -1.0346939e-01
  1.1622509e-01
  1.1716822e-01
 -1.6942713e-01
 -7.7425426e-01
 -2.2986143e+00
 -2.3412234e-01
  2.4136326e+00
  3.7869152e-01
 -1.5546137e-01
 -1.4294454e-01
 -5.5953604e-01
 -1.1966673e-01
  2.1174470e-01
 -7.1480399e-01
  1.1614205e+00
 -8.8782775e-01
  1.0407825e-01
  2.1907845e-01
  4.5031792e-01
 -3.1736419e-01
  3.0805963e-01
  1.2332200e+00
 -2.5479281e+00
  1.6559546e+00
  1.9249271e+00
 -1.0057773e-01
 -1.8625344e-01
 -1.0378010e-01
  8.4964496e-01
 -1.3550483e+00
 -3.0016100e+00
 -1.7275709e-01
 -5.7258385e-01
 -8.3782667e-01
 -8.1999791e-01
  1.1461070e-01
  1.5399688e-01
 -1.0675806e+00
  1.8219049e-01
  1.1132631e-01
 -1.1669642e-01
  8.5053271e-01
  3.3002323e-01
  1.9159814e+00
  4.1500515e-01
  1.6810097e+00
 -6.0663146e-01
 -6.9353080e-01
 -1.1714748e-01
  2.8968024e-01
 -7.6784015e-01
 -7.6686627e-01
 -9.3911695e-01
 -1.2066514e-01
  5.3850299e-01
  4.4357678e-01
 -4.8892161e-01
  1.2278252e+00
 -9.9611402e-01
  2.2386522e+00
  1.5834786e+00
  6.6599852e-01
  1.4210469e+00
 -1.2731214e-01
 -5.4779565e-01
  1.8977357e+00
  3.2835479e+00
  3.2109528e+00
  1.0660713e+00
 -1.3384954e+00
  2.4731836e-01
  1.8231345e+00
  4.0962732e-01
  4.6750283e-01
  1.0166986e-01
 -2.5613439e-01
  8.4709626e-01
  1.9551214e+00
 -3.4464189e-01
  8.8652825e-01
 -7.8686553e-01
 -1.4854641e+00
  9.8912013e-01
  2.2473862e+00
 -1.0189785e-01
 -7.2203529e-01
 -2.3236108e-01
  1.4300276e+00
 -6.0687488e-01
 -7.4873304e-01
 -1.0956763e-01
  7.5092173e-01
 -1.6562799e-01
  1.0843380e-01
 -4.2550728e-01
  8.3114332e-01
 -5.1350493e+00
 -1.0052665e-01
 -2.4778240e+00
 -1.2183756e+00
  4.5312080e+00
 -5.1662338e-01
 -1.7113125e+00
  2.7484137e-01
  2.3651209e-01
  1.4444919e+00
  1.7874016e+00
  1.0839736e+00
  2.8534095e+00
 -3.1847606e+00
 -1.5310695e+00
 -1.0716943e-01
  1.5172571e+00
 -1.5089139e+00
 -3.3222466e+00
  1.6987640e-01
 -1.7423694e-01
 -1.2412010e-01
 -2.5464337e+00
 -1.1801474e-01
  1.4175427e-01
  9.1520238e-01
  1.8581525e+00
 -1.0199149e+00
  1.9400740e-01
 -4.1319156e-01
  1.0171272e-01
 -2.9491931e-01
  1.6756946e+00
 -1.1623528e+00
 -6.5831208e-01
  8.1829089e-01
 -5.5729485e-01
  1.0343669e-01
  4.7359660e-01
  2.9264250e-01
  2.2436452e+00
 -3.6436272e-01
  2.7494626e+00
  9.3822920e-01
  4.5746249e-01
  2.1656432e+00
 -2.1430525e-01
 -8.2289755e-01
 -2.2891090e+00
 -5.9362322e-01
 -1.0423132e+00
  4.5660725e+00
 -2.1865937e-01
 -5.0726825e-01
  1.0050038e-01
 -8.7003511e-01
  1.2943547e+00
 -1.0489315e-01
  2.0034967e-01
 -2.7608495e+00
 -8.4828603e-01
 -1.0057359e+00
 -1.7839011e+00
  1.3693166e-01
  5.6026638e-01
 -1.4501264e+00
  1.4004986e+00
  1.2013180e-01
  4.8260862e-01
  2.9027855e-01
  2.7019516e-01
  1.4742050e+00
 -4.3302241e-01
  1.3197045e+00
 -1.6885355e-01
  1.5997943e-01
  1.6048492e+00
  1.6703819e-01
 -1.0094210e-01
  4.4972736e-01
 -4.3213601e+00
  2.4961452e+00
 -6.1001635e-01
  1.2292533e+00
  1.1319213e-01
  2.4879536e-01
 -1.9374368e-01
 -7.1360809e-01
 -3.5470831e-01
 -1.4314588e+00
 -1.3032420e-01
 -6.7143542e-01
 -1.3227127e+00
 -8.1733847e-01
 -1.2618214e-01
  2.6024210e+00
  8.1718749e-01
 -2.9718861e-01
 -1.1488658e+00
  5.7064152e-01
 -1.3631613e+00
 -2.6641521e-01
 -1.8453343e-01
  7.3849398e-01
  1.0434252e-01
  1.3203724e-01
 -9.7270358e-01
 -5.3853273e+00
 -4.3059692e+00
 -1.8278712e+00
  1.8277351e+00
  2.0138967e-01
 -3.7198236e+00
 -2.0634878e+00
  1.0507973e-01
 -1.5362835e-01
  8.0612391e-01
  4.2606369e-01
 -2.4482377e+00
  3.6536341e+00
 -5.5617571e-01
 -3.1364617e-01
  8.0360347e-01
  1.3298571e+00
  2.1072359e+00
  1.1555984e+00
 -8.6642349e-01
  1.0033014e-01
  3.4120038e-01
 -1.1353721e-01
 -2.6562816e-01
 -3.6991915e-01
 -9.5900565e-01
 -1.6372601e+00
 -3.1807530e-01
 -1.1816416e+00
  1.0042880e-01
  1.0150919e+00
  1.7489951e+00
  1.6167814e+00
  1.2245885e-01
 -1.1587428e-01
 -1.4939888e+00
 -1.5580548e+00
 -9.8239768e-01
 -1.0847939e-01
 -1.8787012e+00
  1.1071318e-01
  1.0178868e-01
 -1.2216169e+00
 -7.9861945e-01
  1.6906563e+00
 -1.4271084e+00
  1.0714494e-01
  2.2324115e-01
  2.1246302e-01
  1.0246071e-01
  1.0618587e-01
  2.0222044e-01
  1.3181770e-01
  1.9931155e-01
  6.6716820e-01
 -2.4619365e-01
 -1.0273384e-01
 -1.2167604e-01
  6.2315702e-01
 -1.3125055e+00
 -1.2162466e-01
  2.8435591e-01
  1.2967434e+00
  7.8570557e-01
  1.7202303e-01
  1.7046249e+00
  3.4084284e-01
 -1.1843447e-01
 -1.8931671e+00
  3.0045056e-01
 -1.1163168e-01
  8.6065638e-01
 -2.1081007e-01
 -6.0909826e-01
  1.7230378e+00
  1.0432005e-01
 -1.8393785e-01
  1.1849660e-01
  1.0757963e-01
  1.0847884e-01
  1.4259098e+00
  1.0921423e-01
  4.9258152e-01
 -2.2422347e+00
  1.2704529e+00
 -8.1024355e-01
 -3.5423648e-01
  1.1679721e-01
 -2.3429263e+00
 -3.0535513e-01
  1.7333740e+00
  1.1242535e+00
 -2.3301756e+00
  1.7447720e-01
  1.1503115e-01
  1.0027500e-01
  3.0965492e-01
  4.0791950e-01
 -9.6431929e-01
 -1.5809759e+00
 -1.9353795e+00
 -6.1039317e-01
  4.9322543e-01
 -1.3328898e-01
 -1.0204736e-01
 -3.4015888e-01
  1.5403336e-01
 -2.2478878e-01
  8.1963456e-01
  1.0090632e-01
 -6.3179123e-01
  2.7843013e-01
  2.9523462e-01
 -5.7125199e-01
  2.8359836e-01
  2.9751139e+00
 -1.7285031e+00
 -2.0937271e+00
 -2.5066190e+00
 -4.9056587e-01
 -1.3299009e+00
  5.6748950e-01
 -1.0391650e-01
  5.5572712e-01
  1.3931617e+00
 -7.7683318e-01
 -1.4951681e+00
 -1.1311328e+00
 -6.3354266e-01
  1.2020812e-01
  1.5947072e-01
 -1.0318068e-01
  1.9291079e-01
 -1.4967164e-01
 -1.0194462e-01
 -6.9184709e-01
  1.6934508e-01
  2.9941195e-01
  1.5824584e+00
  2.0402637e-01
 -3.7574774e-01
  1.0730627e-01
 -1.2543160e-01
 -2.4830735e-01
 -2.3233912e+00
 -1.7212656e-01
 -1.0184213e-01
  9.2573780e-01
  3.3283347e-01
  3.1297204e-01
  1.0046611e-01
 -3.9063898e-01
 -4.3241864e-01
  5.2789170e-01
 -4.9570349e-01
 -1.2970583e+00
  1.6079348e-01
 -3.4334028e-01
  1.3849659e-01
  1.5458080e-01
  1.7895211e-01
  2.1488707e+00
  1.3763534e+00
 -2.0742981e+00
 -9.2185211e-01
 -2.7722251e+00
 -6.2541670e-01
 -6.6901439e-01
  3.4941548e-01
 -4.4306278e-01
  1.0573249e-01
  1.4920509e-01
 -1.9943978e+00
 -1.3654519e+00
  4.2491552e-01
  1.3610834e-01
  1.0221436e-01
 -1.1578640e-01
 -2.4446598e-01
 -1.7892437e-01
  4.4829112e-01
  8.9832425e-01
  1.2983401e+00
 -1.2280413e+00
 -4.2578518e-01
  2.5494155e-01
  1.3290405e-01
 -2.3369274e-01
 -3.4183400e+00
 -1.2327322e+00
 -2.5408787e-01
 -7.8234065e-01
  3.4594984e+00
  1.1442666e-01
 -1.4662412e+00
 -1.2028029e+00
  1.0516706e-01
  2.0666730e+00
  2.6927707e+00
  3.7895684e+00
  2.2509835e+00
  5.4751158e-01
  3.2080505e+00
  5.2767777e-01
 -2.8272567e+00
 -1.0093085e+00
 -1.4369352e+00
  3.2297943e+00
 -6.6493154e-01
  1.0746021e+00
  1.0629152e-01
 -1.7998348e-01
 -1.1881880e+00
  1.7366657e-01
 -1.2742151e-01
 -1.1752622e+00
  1.4309115e+00
 -1.8906912e+00
  3.9186037e+00
  1.0252059e+00
  3.2537205e+00
  1.1590791e-01
 -1.5194045e-01
 -4.7341573e-01
  6.1171466e-01
 -1.8518459e+00
  3.7913218e+00
 -2.7565949e+00
  2.9704618e-01
 -4.6361268e-01
 -7.2348619e-01
  1.0477461e-01
 -2.8495422e-01
 -4.7273278e-01
 -2.0007737e+00
  1.3542479e+00
  3.1545229e+00
 -1.0299511e-01
  1.1908819e-01
  1.5574648e+00
 -3.9426091e-01
 -2.1040025e-01
 -8.4074777e-01
  7.4698597e-01
 -3.1107366e-01
 -1.4036790e-01
  1.3880525e+00
 -5.1028986e+00
 -2.6370516e-01
  1.1218408e-01
 -2.1603312e+00
  1.0572522e-01
 -1.0746541e+00
  1.0026144e-01
 -1.2246710e+00
  8.9430243e-01
 -1.4747453e-01
  1.7483196e+00
 -6.7794889e-01
 -6.1790937e-01
  1.2595699e+00
 -1.4556201e+00
 -1.3996859e-01
  1.6446361e-01
  3.6453372e-01
  1.0022862e+00
  1.2711666e+00
 -9.5645994e-01
 -1.0496988e-01
 -5.9475887e-01
  6.5211999e-01
 -2.2961092e+00
  6.5172839e-01
 -3.1109672e+00
 -2.4577305e-01
  1.8280492e+00
  1.9414108e+00
  2.9531286e+00
  5.1860851e-01
  3.0464003e+00
 -1.0156769e+00
 -1.8400490e+00
 -1.0944531e+00
 -1.3655694e+00
  1.4309913e+00
  1.0018519e-01
  5.9062165e-01
  4.3820733e-01
  8.2641762e-01
  2.8009689e+00
  7.0577186e-01
 -1.2989514e-01
  1.0438801e-01
  4.2138284e-01
  1.7414117e-01
  1.0483063e-01
  2.2197606e-01
 -3.1186560e-01
 -1.1667831e+00
 -1.0544269e-01
  1.2013184e-01
  3.9821789e-01
 -1.0906374e+00
 -1.0225144e-01
  1.7999887e-01
  1.1060073e-01
 -1.3289560e+00
  1.1154550e+00
 -9.0362972e-01
 -3.5244283e-01
 -2.2545925e-01
 -9.6813071e-01
 -5.4145890e-01
  3.7861006e+00
  2.3427413e+00
 -2.3921452e+00
 -2.2945716e+00
  1.2503799e+00
 -1.1470488e-01
  1.3444972e-01
  2.5993946e+00
  2.7073941e-01
 -1.0985656e-01
 -1.9618046e+00
 -1.0015103e-01
  2.8111899e-01
 -1.9617813e+00
  1.1204255e+00
  7.0648098e-01
  3.1639272e-01
  3.1612039e-01
  1.0642186e+00
 -2.2131326e+00
  2.3233826e+00
 -2.8931782e-01
  1.2450304e-01
 -1.8834889e-01
 -1.3145065e-01
 -2.3386695e+00
  1.4024955e-01
  2.8796625e+00
  5.0441968e-01
  1.2417194e+00
  1.7130044e-01
 -7.0703912e-01
 -1.1464988e-01
  7.4627614e-01
  1.0059147e+00
  5.7777143e-01
  1.5175812e-01
 -2.4612875e+00
  2.6543591e+00
  7.9401922e-01
 -3.5861605e-01
 -1.3083394e+00
 -1.1054989e+00
  1.0995951e+00
  2.7660279e+00
 -2.7749870e+00
 -6.5899843e-01
 -9.1614074e-01
 -1.3765072e+00
  2.0440173e-01
  6.7259109e-01
  1.5658624e-01
 -6.1415821e-01
 -2.6085749e+00
 -7.4626249e-01
  1.0037155e-01
 -2.9369590e-01
 -1.0441130e-01
  1.6362157e+00
  1.3045260e-01
  1.0673444e-01
 -9.4314462e-01
  1.0124598e-01
 -1.0344326e-01
  2.4053688e+00
  1.1037298e-01
 -1.3457149e-01
  1.3368551e-01
  1.1985876e-01
  1.0271763e-01
  3.4219101e-01
 -1.6821553e-01
  1.4454550e-01
  7.9961908e-01
  1.7560959e-01
 -1.7438858e+00
 -2.2632475e+00
 -1.1887737e-01
  3.3892432e-01
  8.1550950e-01
 -7.9488540e-01
 -2.6499133e+00
  2.0332589e+00
  1.3421339e+00
 -1.9257768e+00
 -2.3655403e+00
 -5.6104696e-01
  1.1205010e-01
 -3.9602032e-01
 -1.8601218e-01
 -3.0486381e-01
  1.0201497e-01
 -1.1435153e-01
  2.7845547e-01
 -2.5703153e-01
  2.0756623e-01
  1.0100415e-01
 -2.8820258e-01
  7.8522390e-01
  1.0109756e+00
 -2.7131569e-01
 -9.9087608e-01
 -1.0948147e-01
  1.8384396e+00
  1.6155303e+00
  5.0593460e-01
 -8.8684422e-01
  9.0776378e-01
  1.2991955e+00
 -1.0333357e+00
 -1.1680115e+00
  2.0624528e+00
  2.4096804e+00
 -1.0598381e-01
 -9.7530168e-01
 -1.2178695e+00
  2.6209563e-01
  1.4582813e-01
 -3.3497307e-01
 -2.0624564e+00
 -9.1565913e-01
 -1.7340444e+00
 -2.3975217e-01
  5.2372247e-01
  3.3109820e-01
  5.9986478e-01
  1.4430387e-01
 -8.4496069e-01
 -1.0368235e-01
  2.1460432e-01
 -1.2893815e+00
  6.6558763e-02
  6.6558763e-02
  6.6558763e-02
  6.6558763e-02
  6.6558763e-02
  6.6558763e-02
  6.6558763e-02
  6.6558763e-02
  6.6558763e-02
  8.8969953e-02
  8.8969953e-02
  8.8969953e-02
  8.8969953e-02
  8.8969953e-02
  8.8969953e-02
  8.8969953e-02
  8.8969953e-02
  8.8969953e-02
  2.1382788e-01
  2.1382788e-01
  2.1382788e-01
  2.1382788e-01
  2.1382788e-01
  2.1382788e-01
  2.1382788e-01
  2.1382788e-01
  2.1382788e-01
  1.0731283e-01
  1.0731283e-01
  1.0731283e-01
  1.0731283e-01
  1.0731283e-01
  1.0731283e-01
  1.0731283e-01
  1.0731283e-01
  1.0731283e-01
  1.1757511e-01
  1.1757511e-01
  1.1757511e-01
  1.1757511e-01
  1.1757511e-01
  1.1757511e-01
  1.1757511e-01
  1.1757511e-01
  1.1757511e-01
  3.7591490e-01
  3.7591490e-01
  3.7591490e-01
  3.7591490e-01
  3.7591490e-01
  3.7591490e-01
  3.7591490e-01
  3.7591490e-01
  3.7591490e-01
